tree
version=v4
num_class=1
num_tree_per_iteration=1
label_index=0
max_feature_idx=7
objective=regression
feature_names=temperature_2m_mean precipitation_sum wind_speed_10m_mean weekday temp_diff temp_10d_avg weather_code shortwave_radiation_sum
feature_infos=[2.8999999999999999:32.200000000000003] [0:95.5] [3.6000000000000001:35.600000000000001] [0:5] [-6.9800000000000004:4.1300000000000026] [4.1200000000000001:30.440000000000005] [0:73] [1.8300000000000001:28.420000000000002]
tree_sizes=991 959 1040 966 950 963 962 970 969 1042 968 973 973 892 1025 970 1051 1056 969 894 1054 1059 969 957 976 1063 976 978 896 966 891 1067 1056 984 974 979

Tree=0
num_leaves=11
num_cat=0
split_feature=7 3 1 5 0 3 7 1 0 7
split_gain=330.355 141.376 128.171 87.75 66.0401 55.4467 34.904 31.321 26.5375 5.71675
threshold=14.985000000000001 3.5000000000000004 17.450000000000006 20.585000000000004 7.6000000000000005 3.5000000000000004 22.020000000000003 0.75000000000000011 23.950000000000003 10.395000000000001
decision_type=2 2 2 2 2 2 2 2 2 2
left_child=2 3 4 -2 9 7 -5 -6 -3 -1
right_child=1 8 -4 6 5 -7 -8 -9 -10 -11
leaf_value=5.1658306098090474 5.1841456274144875 5.4810687035925056 4.9656141640306926 5.3417138642819753 5.2923187036856385 5.4132426184176445 5.5086877522404434 5.1393295733844804 5.642021088695925 5.0928868873749318
leaf_weight=21 26 20 22 31 32 23 21 23 21 22
leaf_count=21 26 20 22 31 32 23 21 23 21 22
internal_value=5.29008 5.41317 5.18764 5.33415 5.22801 5.28286 5.40915 5.22834 5.56351 5.12851
internal_weight=262 119 143 78 121 78 52 55 41 43
internal_count=262 119 143 78 121 78 52 55 41 43
is_linear=0
shrinkage=1


Tree=1
num_leaves=10
num_cat=0
split_feature=6 0 3 3 3 0 7 2 1
split_gain=277.307 233.644 90.3578 87.3386 126.466 29.6658 28.2078 16.2995 12.827
threshold=62.000000000000007 23.950000000000003 3.5000000000000004 3.5000000000000004 4.5000000000000009 8.3000000000000025 21.860000000000003 13.750000000000002 19.850000000000005
decision_type=2 2 2 2 2 2 2 2 2
left_child=1 3 6 5 -5 -1 -3 -7 -2
right_child=8 2 -4 4 -6 7 -8 -9 -10
leaf_value=-0.16515505157154184 -0.17881466604091906 0.060307767614722257 0.37808567076921462 0.24302674329280852 -0.063885786615569026 0.0046021595597267153 0.21580096006393434 -0.093315962307593411 -0.28807822863260907
leaf_weight=29 22 28 20 25 29 34 20 34 21
leaf_count=29 22 28 20 25 29 34 20 34 21
internal_value=-1.3849e-09 0.0455871 0.199505 -0.0237271 0.0782033 -0.0804718 0.125097 -0.0443569 -0.232176
internal_weight=262 219 68 151 54 97 48 68 43
internal_count=262 219 68 151 54 97 48 68 43
is_linear=0
shrinkage=0.1


Tree=2
num_leaves=11
num_cat=0
split_feature=7 6 0 3 3 0 2 0 1 2
split_gain=228.994 123.318 86.9534 57.1804 42.9285 26.7857 31.9903 21.381 10.1594 2.55612
threshold=20.485000000000003 62.000000000000007 8.3000000000000025 3.5000000000000004 3.5000000000000004 23.500000000000004 12.800000000000002 26.350000000000005 19.850000000000005 7.1000000000000005
decision_type=2 2 2 2 2 2 2 2 2 2
left_child=1 2 9 7 5 6 -4 -2 -3 -1
right_child=3 8 4 -5 -6 -7 -8 -9 -10 -11
leaf_value=-0.1111628369394263 0.0012230806797742845 -0.15968383563682439 0.037913000380451034 0.25527733780684009 0.13775992439738635 0.070888214057375651 -0.12593148925270026 0.14744553700089455 -0.25927041314897087 -0.15956847827881576
leaf_weight=24 20 20 22 31 29 29 26 20 21 20
leaf_count=24 20 20 22 31 29 29 26 20 21 20
internal_value=3.3445e-10 -0.0569998 -0.0149908 0.153338 0.0340629 -0.00499188 -0.0508361 0.0743343 -0.210692 -0.133165
internal_weight=262 191 150 71 106 77 48 40 41 44
internal_count=262 191 150 71 106 77 48 40 41 44
is_linear=0
shrinkage=0.1


Tree=3
num_leaves=10
num_cat=0
split_feature=7 3 3 0 1 5 5 1 5
split_gain=191.499 100.421 313.018 76.6246 40.8735 40.1992 11.4282 15.1747 7.34855
threshold=10.700000000000001 3.5000000000000004 4.5000000000000009 22.950000000000003 13.750000000000002 27.515000000000004 13.085714285714287 0.25000000000000006 13.348750000000003
decision_type=2 2 2 2 2 2 2 2 2
left_child=4 3 -3 6 8 -5 -2 -8 -1
right_child=1 2 -4 5 -6 -7 7 -9 -10
leaf_value=-0.11039219356090245 -0.12616138915930475 0.41606219283960483 -0.049669404111562239 0.17543344302424069 -0.23722290753022485 0.00047206146021684008 0.017498190669963758 -0.098901455766255308 -0.040623774085766999
leaf_weight=36 21 27 31 29 23 24 24 21 26
leaf_count=36 21 27 31 29 23 24 24 21 26
internal_value=-5.07695e-10 0.0592456 0.167137 0.00665997 -0.12337 0.0962056 -0.0652479 -0.0368216 -0.0811345
internal_weight=262 177 58 119 85 53 66 45 62
internal_count=262 177 58 119 85 53 66 45 62
is_linear=0
shrinkage=0.1


Tree=4
num_leaves=10
num_cat=0
split_feature=7 1 0 3 3 0 0 2 7
split_gain=165.351 83.2038 56.7568 39.65 26.7901 15.3853 15.3677 19.2855 3.59235
threshold=20.485000000000003 11.050000000000002 8.3000000000000025 3.5000000000000004 3.5000000000000004 26.350000000000005 23.500000000000004 12.65 10.395000000000001
decision_type=2 2 2 2 2 2 2 2 2
left_child=1 2 8 5 6 -2 7 -4 -1
right_child=3 -3 4 -5 -6 -7 -8 -9 -10
leaf_value=-0.079956749862148652 0.0024925062921829521 -0.18777804421527045 0.024952082141585973 0.21518585960711203 0.10242165111005307 0.12653013169765473 0.048194764132301011 -0.099658525714443794 -0.13606005750596525
leaf_weight=21 20 35 23 31 30 20 30 27 25
leaf_count=21 20 35 23 31 30 20 30 27 25
internal_value=-6.58146e-10 -0.0484357 -0.017173 0.130299 0.0218328 0.0645113 -0.00838799 -0.0423376 -0.110448
internal_weight=262 191 156 71 110 40 80 50 46
internal_count=262 191 156 71 110 40 80 50 46
is_linear=0
shrinkage=0.1


Tree=5
num_leaves=10
num_cat=0
split_feature=6 0 3 0 3 5 2 0 2
split_gain=133.957 122.298 53.6306 42.3261 37.6162 23.2304 10.011 5.32032 2.46337
threshold=62.000000000000007 23.950000000000003 3.5000000000000004 8.3000000000000025 3.5000000000000004 27.515000000000004 13.750000000000002 19.850000000000005 7.1000000000000005
decision_type=2 2 2 2 2 2 2 2 2
left_child=1 3 5 8 6 -3 -5 -2 -1
right_child=7 2 -4 4 -6 -7 -8 -9 -10
leaf_value=-0.079426134377717977 -0.19416984170675278 0.14970998798425381 0.28062295928597453 0.0089537712581017441 0.093779221826638934 0.010088778915815055 -0.067784944971037264 -0.12364791192114354 -0.12694550007581712
leaf_weight=24 23 26 20 34 39 22 34 20 20
leaf_count=24 23 26 20 34 39 22 34 20 20
internal_value=-2.66422e-10 0.0316843 0.143042 -0.0184636 0.0154872 0.0857169 -0.0294156 -0.161369 -0.101026
internal_weight=262 219 68 151 107 48 68 43 44
internal_count=262 219 68 151 107 48 68 43 44
is_linear=0
shrinkage=0.1


Tree=6
num_leaves=10
num_cat=0
split_feature=7 1 5 3 2 2 5 2 2
split_gain=114.685 58.4102 38.044 31.0633 17.2419 15.5039 10.8535 17.5609 1.80483
threshold=21.035000000000004 11.050000000000002 13.085714285714287 2.5000000000000004 10.600000000000001 7.5500000000000007 26.180000000000003 13.750000000000002 6.0000000000000009
decision_type=2 2 2 2 2 2 2 2 2
left_child=1 2 5 -2 -4 8 7 -6 -1
right_child=3 -3 4 -5 6 -7 -8 -9 -10
leaf_value=-0.054791718423366546 0.033168504969216882 -0.15515162972467289 0.10298846182615862 0.17345198581093235 0.043287141652156913 -0.13320761203765871 0.066468389704823494 -0.072352638069925632 -0.012817173628580003
leaf_weight=20 27 35 23 38 24 25 20 29 21
leaf_count=20 27 35 23 38 24 25 20 29 21
internal_value=1.9364e-10 -0.0380037 -0.0126939 0.11518 0.0274872 -0.0711392 0.00369908 -0.0199875 -0.0332926
internal_weight=262 197 162 65 96 66 73 53 41
internal_count=262 197 162 65 96 66 73 53 41
is_linear=0
shrinkage=0.1


Tree=7
num_leaves=10
num_cat=0
split_feature=7 3 3 5 5 1 5 4 0
split_gain=94.6782 53.9066 245.546 39.961 23.7866 18.8719 5.45491 4.87581 3.84755
threshold=10.700000000000001 4.5000000000000009 3.5000000000000004 20.585000000000004 27.345000000000002 13.750000000000002 13.085714285714287 -1.2550000000000006 10.800000000000002
decision_type=2 2 2 2 2 2 2 2 2
left_child=5 2 3 6 -5 7 -2 -1 -9
right_child=1 -3 -4 4 -6 -7 -8 8 -10
leaf_value=-0.09868594996631147 -0.093239829369953703 -0.0781071236537349 0.33934580774770845 0.12207638465333731 -0.0053722945697329662 -0.16410878248836683 -0.030023743469530767 -0.068962715069452923 -0.0084289469711837321
leaf_weight=20 21 31 27 32 27 23 39 21 21
leaf_count=20 21 31 27 32 27 23 39 21 21
internal_value=7.61587e-11 0.0416579 0.0670874 0.00531454 0.0637524 -0.0867464 -0.0521494 -0.0580475 -0.0386958
internal_weight=262 177 146 119 59 85 60 62 42
internal_count=262 177 146 119 59 85 60 62 42
is_linear=0
shrinkage=0.1


Tree=8
num_leaves=10
num_cat=0
split_feature=7 6 0 0 3 2 7 4 7
split_gain=83.4667 39.3962 28.4367 22.6858 15.9287 8.48873 8.69893 3.54028 1.93165
threshold=20.315000000000001 62.000000000000007 8.3000000000000025 25.400000000000002 3.5000000000000004 16.750000000000004 11.595000000000001 -1.1350000000000005 10.635000000000002
decision_type=2 2 2 2 2 2 2 2 2
left_child=1 2 8 -2 5 6 -4 -3 -1
right_child=3 7 4 -5 -6 -7 -8 -9 -10
leaf_value=-0.058508194918217876 0.033078521810885934 -0.15076746003968378 -0.035797830812987833 0.1438556514851945 0.080329839011718487 -0.060913304993439291 0.047031914559192957 -0.091979828346520673 -0.1004567937481971
leaf_weight=23 36 21 21 38 29 21 32 20 21
leaf_count=23 36 21 21 38 29 21 32 20 21
internal_value=-3.53689e-10 -0.0354114 -0.0112356 0.0899641 0.0175112 -0.00710693 0.0142126 -0.122091 -0.0785291
internal_weight=262 188 147 74 103 74 53 41 44
internal_count=262 188 147 74 103 74 53 41 44
is_linear=0
shrinkage=0.1


Tree=9
num_leaves=11
num_cat=0
split_feature=7 6 1 2 0 2 5 1 1 7
split_gain=68.1982 33.6147 24.6305 43.9251 23.985 15.8789 13.7869 4.62777 3.28266 1.67486
threshold=21.035000000000004 62.000000000000007 0.45000000000000007 12.65 8.5500000000000025 8.9500000000000011 19.735000000000003 0.35000000000000003 19.850000000000005 10.395000000000001
decision_type=2 2 2 2 2 2 2 2 2 2
left_child=1 4 3 -2 9 -6 -7 -8 -3 -1
right_child=2 8 -4 -5 5 6 7 -9 -10 -11
leaf_value=-0.045909346193075184 0.24079839147627358 -0.080886998176574715 -0.00028355973107474194 0.040137805075695115 0.089447848405689007 -0.049648699614529807 -0.00081671648051427766 0.060762391611933711 -0.13749533270796141 -0.08408979150570102
leaf_weight=20 20 20 21 24 24 36 23 26 21 27
leaf_count=20 20 20 21 24 24 36 23 26 21 27
internal_value=1.16593e-10 -0.0293062 0.0888203 0.131347 -0.00812935 0.0176187 -0.00266254 0.0318579 -0.109882 -0.0678428
internal_weight=262 197 65 44 156 109 85 49 41 47
internal_count=262 197 65 44 156 109 85 49 41 47
is_linear=0
shrinkage=0.1


Tree=10
num_leaves=10
num_cat=0
split_feature=0 1 6 5 0 2 1 5 5
split_gain=58.3254 40.275 25.0178 18.8552 26.4661 14.7661 5.10681 4.62386 11.6267
threshold=23.950000000000003 1.0000000180025095e-35 62.000000000000007 13.085714285714287 15.750000000000002 7.5500000000000007 2.3000000000000003 19.095000000000002 20.440000000000001
decision_type=2 2 2 2 2 2 2 2 2
left_child=2 -2 3 5 -5 -1 -3 -6 -9
right_child=1 6 -4 4 7 -7 -8 8 -10
leaf_value=-0.015211694592084641 0.17408847460845631 0.046431171544827524 -0.10959604897282341 0.11801405068486931 -0.048313342873007065 -0.11250236106033509 -0.017983769699931148 0.061892015784978875 -0.043456201018257576
leaf_weight=39 26 32 33 20 24 26 20 20 22
leaf_count=39 26 32 33 20 24 26 20 20 22
internal_value=7.83804e-11 0.072467 -0.0307197 -0.0134818 0.0172391 -0.054128 0.0216562 -0.0132987 0.00670962
internal_weight=262 78 184 151 86 65 52 66 42
internal_count=262 78 184 151 86 65 52 66 42
is_linear=0
shrinkage=0.1


Tree=11
num_leaves=10
num_cat=0
split_feature=7 1 3 3 3 5 2 7 5
split_gain=48.5938 23.015 22.6814 16.1818 50.9662 8.9015 11.2034 6.06116 1.55988
threshold=21.035000000000004 11.050000000000002 2.5000000000000004 4.5000000000000009 3.5000000000000004 13.085714285714287 16.950000000000003 17.255000000000006 6.1150000000000011
decision_type=2 2 2 2 2 2 2 2 2
left_child=1 3 -2 4 5 8 7 -7 -1
right_child=2 -3 -4 -5 -6 6 -8 -9 -10
leaf_value=-0.039966477382750741 0.0048958501882023289 -0.098273186726229533 0.12476797365509953 -0.084636879495034623 0.13677844895670813 0.050757795692451535 -0.065241344198584558 -0.019852353166788819 -0.07806949529119514
leaf_weight=21 27 35 38 24 24 31 20 20 22
leaf_count=21 27 35 38 24 24 31 20 20 22
internal_value=-4.45222e-10 -0.0247379 0.0749749 -0.00885068 0.00432953 -0.0235544 -0.0018082 0.0230675 -0.059461
internal_weight=262 197 65 162 138 114 71 51 43
internal_count=262 197 65 162 138 114 71 51 43
is_linear=0
shrinkage=0.1


Tree=12
num_leaves=10
num_cat=0
split_feature=0 1 3 3 1 3 3 3 7
split_gain=43.5629 32.0744 20.7804 49.1128 15.3149 10.1699 8.94096 6.28479 5.38473
threshold=23.950000000000003 0.15000000000000005 3.5000000000000004 4.5000000000000009 11.050000000000002 1.5000000000000002 1.0000000180025095e-35 2.5000000000000004 19.040000000000003
decision_type=2 2 2 2 2 2 2 2 2
left_child=2 -2 4 -4 5 6 -1 -7 -3
right_child=1 8 3 -5 -6 7 -8 -9 -10
leaf_value=-0.044961826192835973 0.14158685524617473 0.043684322992339736 0.11238381185258428 -0.067098073192661811 -0.1279822399218877 -0.10544236891648986 0.040488670423626902 -0.035556217060694777 -0.024027010798454287
leaf_weight=24 31 24 30 31 21 22 25 31 23
leaf_count=24 31 24 30 31 21 22 25 31 23
internal_value=5.77278e-10 0.0626281 -0.0265489 0.0211717 -0.0502152 -0.0342043 -0.00136463 -0.0645656 0.010549
internal_weight=262 78 184 61 123 102 49 53 47
internal_count=262 78 184 61 123 102 49 53 47
is_linear=0
shrinkage=0.1


Tree=13
num_leaves=9
num_cat=0
split_feature=7 3 3 5 5 4 4 7
split_gain=37.0913 41.7924 155.917 14.9305 18.7999 10.4387 12.2814 6.30803
threshold=10.700000000000001 4.5000000000000009 3.5000000000000004 20.585000000000004 27.515000000000004 -1.7450000000000008 1.1950000000000005 12.135000000000002
decision_type=2 2 2 2 2 2 2 2
left_child=5 2 3 7 -5 -1 -7 -2
right_child=1 -3 -4 4 -6 6 -8 -9
leaf_value=-0.10299319783546801 0.0083026876229615448 -0.079378582320867044 0.26541552491210124 0.081704402959772521 -0.033207351838548976 0.0071979862903910029 -0.089534915025745121 -0.059677201910660817
leaf_weight=29 21 31 27 35 24 35 21 39
leaf_count=29 21 31 27 35 24 35 21 39
internal_value=-3.3165e-10 0.026074 0.0484647 -0.000759469 0.0349606 -0.0542954 -0.0290769 -0.0358842
internal_weight=262 177 146 119 59 85 56 60
internal_count=262 177 146 119 59 85 56 60
is_linear=0
shrinkage=0.1


Tree=14
num_leaves=11
num_cat=0
split_feature=7 3 1 2 5 2 7 7 5 7
split_gain=33.7887 14.5811 13.7562 9.62312 9.47966 11.4462 8.87202 5.21807 5.56201 4.08384
threshold=20.315000000000001 2.5000000000000004 17.450000000000006 12.65 13.085714285714287 10.600000000000001 11.025 17.615000000000006 19.500000000000004 10.135000000000002
decision_type=2 2 2 2 2 2 2 2 2 2
left_child=2 -2 4 -3 6 -6 9 8 -7 -1
right_child=1 3 -4 -5 5 7 -8 -9 -10 -11
leaf_value=-0.044612296173969911 0.0049601757718670753 0.1456606712937355 -0.093241404858417809 0.05081594752390748 0.071067979728633712 -0.034359328220175074 -0.095149640614787742 -0.054685544483363629 0.030170311471995188 0.015772172852995852
leaf_weight=24 31 20 24 23 22 22 21 20 34 21
leaf_count=24 31 20 24 23 22 22 21 20 34 21
internal_value=2.04749e-10 0.0572398 -0.0225306 0.0949298 -0.0121826 0.00754765 -0.0414791 -0.0108398 0.00481938 -0.0164329
internal_weight=262 74 188 43 164 98 66 76 56 45
internal_count=262 74 188 43 164 98 66 76 56 45
is_linear=0
shrinkage=0.1


Tree=15
num_leaves=10
num_cat=0
split_feature=3 3 7 1 0 5 1 3 1
split_gain=31.7363 114.859 44.0045 17.1974 16.7408 14.5616 7.62071 6.97419 1.87102
threshold=4.5000000000000009 3.5000000000000004 12.285000000000002 0.15000000000000005 23.500000000000004 26.495000000000005 0.8500000000000002 1.5000000000000002 11.050000000000002
decision_type=2 2 2 2 2 2 2 2 2
left_child=1 4 -3 -2 6 -6 7 -1 -8
right_child=3 2 -4 -5 5 -7 8 -9 -10
leaf_value=0.006821544506610969 -0.019572019819980083 0.067603442040474512 0.27042020022869112 -0.14636261563748121 0.09293488107621671 -0.012972371307881298 -0.055910820100942386 -0.053785125609185247 -0.097731805443763739
leaf_weight=39 23 23 20 20 20 37 23 37 20
leaf_count=39 23 23 20 20 20 37 23 37 20
internal_value=-3.70041e-10 0.015422 0.161937 -0.0785444 -0.0203743 0.0241881 -0.0417193 -0.0226843 -0.0753624
internal_weight=262 219 43 43 176 57 119 76 43
internal_count=262 219 43 43 176 57 119 76 43
is_linear=0
shrinkage=0.1


Tree=16
num_leaves=11
num_cat=0
split_feature=0 7 2 1 7 7 5 1 2 0
split_gain=25.9208 14.0127 9.62725 8.43762 5.61506 17.0478 14.2496 13.2812 4.95094 5.55944
threshold=27.750000000000004 22.020000000000003 11.350000000000003 17.450000000000006 11.180000000000001 10.565000000000003 13.085714285714287 0.8500000000000002 7.5500000000000007 16.950000000000003
decision_type=2 2 2 2 2 2 2 2 2 2
left_child=1 3 -2 4 5 8 -6 -8 -1 -10
right_child=2 -3 -4 -5 6 -7 7 -9 9 -11
leaf_value=0.014914855928648087 0.02531628816024117 0.049336581788957119 0.11896546578833037 -0.079638031163873774 -0.10570562661048913 0.080059979465745751 0.024846511429701096 -0.072325241972099649 -0.082326976172626021 -0.0077653333358466622
leaf_weight=21 23 30 21 24 21 21 39 22 20 20
leaf_count=21 23 30 21 24 21 21 39 22 20 20
internal_value=-2.60913e-10 -0.014131 0.0700125 -0.0242588 -0.0161545 0.00234909 -0.034658 -0.010199 -0.0244038 -0.0450462
internal_weight=262 218 44 188 164 82 82 61 61 40
internal_count=262 218 44 188 164 82 82 61 61 40
is_linear=0
shrinkage=0.1


Tree=17
num_leaves=11
num_cat=0
split_feature=3 3 5 1 7 5 3 1 5 4
split_gain=26.1772 91.8417 34.5816 13.4529 13.0657 10.4728 8.18423 9.06266 3.38654 3.16896
threshold=4.5000000000000009 3.5000000000000004 20.140000000000004 0.15000000000000005 8.0300000000000011 13.085714285714287 1.5000000000000002 0.75000000000000011 6.4900000000000011 0.24000000000000069
decision_type=2 2 2 2 2 2 2 2 2 2
left_child=1 4 -3 -2 -1 8 7 -7 -6 -8
right_child=3 2 -4 -5 5 6 9 -9 -10 -11
leaf_value=-0.088276487815639251 -0.019175974247248276 0.057404275509444151 0.23680990590226081 -0.1313164914213121 -0.022897264395247807 0.071839029029492407 -0.047515162283724009 -0.011008583721907243 -0.07975326675921679 0.00091887510248592924
leaf_weight=23 23 22 21 20 22 31 22 23 20 35
leaf_count=23 23 22 21 20 22 31 22 23 20 35
internal_value=3.83904e-11 0.0140063 0.145021 -0.0713344 -0.018003 -0.00743899 0.00865441 0.0365521 -0.0499716 -0.017775
internal_weight=262 219 43 43 176 153 111 54 42 57
internal_count=262 219 43 43 176 153 111 54 42 57
is_linear=0
shrinkage=0.1


Tree=18
num_leaves=10
num_cat=0
split_feature=3 3 7 0 5 1 4 4 3
split_gain=21.2035 74.3918 31.6193 11.0712 14.2625 10.8968 5.59634 7.54574 9.61067
threshold=4.5000000000000009 3.5000000000000004 12.285000000000002 23.700000000000006 27.515000000000004 0.15000000000000005 -1.6150000000000009 1.5699999999999983 1.5000000000000002
decision_type=2 2 2 2 2 2 2 2 2
left_child=1 3 -3 6 -5 -2 -1 8 -8
right_child=5 2 -4 4 -6 -7 7 -9 -10
leaf_value=-0.071243238860163191 -0.01725837711406791 0.050555201717045001 0.22247711729258299 0.06921264868358086 -0.033855703830718994 -0.11818484280258418 0.03330734411583227 -0.072100363468581993 -0.040341467337959729
leaf_weight=29 23 23 20 29 25 20 34 22 37
leaf_count=29 23 23 20 29 25 20 34 22 37
internal_value=5.98872e-10 0.0126057 0.130519 -0.0162027 0.0214958 -0.0642009 -0.0328889 -0.020929 -0.00507302
internal_weight=262 219 43 176 54 43 122 93 71
internal_count=262 219 43 176 54 43 122 93 71
is_linear=0
shrinkage=0.1


Tree=19
num_leaves=9
num_cat=0
split_feature=7 3 1 0 2 7 3 7
split_gain=18.0477 10.9255 8.32124 5.93721 7.84332 4.31438 8.38668 3.2894
threshold=21.035000000000004 2.5000000000000004 17.450000000000006 8.3000000000000025 8.9500000000000011 17.000000000000004 1.5000000000000002 10.395000000000001
decision_type=2 2 2 2 2 2 2 2
left_child=2 -2 3 7 -5 6 -6 -1
right_child=1 -3 -4 4 5 -7 -8 -9
leaf_value=-0.0090256130411511381 -0.0029461983177396988 0.080250118658142661 -0.070255491851518553 0.04941206358630082 0.049152846806324452 -0.03923771447417411 -0.024168905883263321 -0.062711185410618792
leaf_weight=21 27 38 24 29 26 33 39 25
leaf_count=21 27 38 24 29 26 33 39 25
internal_value=-7.83448e-10 0.0456916 -0.0150759 -0.00742096 0.00372828 -0.00979039 0.0051598 -0.0382026
internal_weight=262 65 197 173 127 98 65 46
internal_count=262 65 197 173 127 98 65 46
is_linear=0
shrinkage=0.1


Tree=20
num_leaves=11
num_cat=0
split_feature=3 3 5 7 1 0 5 5 0 2
split_gain=17.8977 59.0652 27.1276 9.47898 8.96827 7.48367 14.1111 3.64694 7.44247 1.46285
threshold=4.5000000000000009 3.5000000000000004 20.140000000000004 8.0300000000000011 0.15000000000000005 23.500000000000004 27.515000000000004 17.235000000000003 10.800000000000002 14.300000000000002
decision_type=2 2 2 2 2 2 2 2 2 2
left_child=1 3 -3 -1 -2 7 -7 8 -5 -9
right_child=4 2 -4 5 -6 6 -8 9 -10 -11
leaf_value=-0.073944175162393114 -0.016397880276908045 0.039046796343543314 0.19794504614103409 -0.033641629086600414 -0.10795867143198848 0.070670471588770545 -0.031055465459823607 -0.064011653959751127 0.040184470062906097 -0.025764445029199126
leaf_weight=23 23 22 21 36 20 30 25 20 22 20
leaf_count=23 23 22 21 36 20 30 25 20 22 20
internal_value=3.98123e-11 0.0115814 0.116648 -0.0140884 -0.0589843 -0.00509042 0.0244314 -0.0216588 -0.00563863 -0.044888
internal_weight=262 219 43 176 43 153 55 98 58 40
internal_count=262 219 43 176 43 153 55 98 58 40
is_linear=0
shrinkage=0.1


Tree=21
num_leaves=11
num_cat=0
split_feature=0 2 5 0 7 0 2 4 5 7
split_gain=14.6489 8.80414 9.00189 13.8567 11.8393 7.30586 6.92608 3.77108 5.77335 2.56586
threshold=27.750000000000004 22.550000000000004 13.085714285714287 15.750000000000002 11.180000000000001 23.950000000000003 11.350000000000003 0.98499999999999954 20.440000000000001 10.135000000000002
decision_type=2 2 2 2 2 2 2 2 2 2
left_child=1 2 4 -4 9 7 -2 8 -5 -1
right_child=6 -3 3 5 -6 -7 -8 -9 -10 -11
leaf_value=-0.027597468480467797 0.014721569678057794 -0.072174560456048878 0.086137831503791479 0.036003008247776462 -0.093480944904414096 0.04089692003492798 0.094153776835827596 -0.048028094640799934 -0.033008076416121593 0.018178675789386034
leaf_weight=25 23 21 21 22 22 28 21 28 27 24
leaf_count=25 23 21 21 22 22 28 21 28 27 24
internal_value=2.15413e-10 -0.0106231 -0.00406172 0.0119847 -0.0325384 -0.00284595 0.0526324 -0.0187524 -0.00202351 -0.0051765
internal_weight=262 218 197 126 71 105 44 77 49 49
internal_count=262 218 197 126 71 105 44 77 49 49
is_linear=0
shrinkage=0.1


Tree=22
num_leaves=10
num_cat=0
split_feature=3 3 7 7 1 7 7 5 3
split_gain=14.5163 48.1276 21.3198 7.7264 7.0955 6.76378 8.06388 5.3608 4.40268
threshold=4.5000000000000009 3.5000000000000004 12.285000000000002 22.220000000000002 0.15000000000000005 18.895000000000003 9.0800000000000018 13.085714285714287 1.5000000000000002
decision_type=2 2 2 2 2 2 2 2 2
left_child=1 3 -3 5 -2 6 -1 -8 -9
right_child=4 2 -4 -5 -6 -7 7 8 -10
leaf_value=-0.052871188558471796 -0.015241012398315512 0.03961018989591495 0.18078162774443629 0.034431531485812419 -0.096682720184326179 -0.06943304860964418 -0.027022930848247868 0.053222000432344013 -0.004431781227941866
leaf_weight=35 23 23 20 29 20 25 34 26 27
leaf_count=35 23 23 20 29 20 25 34 26 27
internal_value=3.86237e-10 0.0104301 0.105271 -0.0127413 -0.0531209 -0.0220475 -0.0123374 0.00396936 0.0238512
internal_weight=262 219 43 176 43 147 122 87 53
internal_count=262 219 43 176 43 147 122 87 53
is_linear=0
shrinkage=0.1


Tree=23
num_leaves=10
num_cat=0
split_feature=3 3 2 4 6 4 2 7 7
split_gain=11.7582 38.9833 20.0793 7.10544 8.7624 10.8173 6.55854 4.83946 11.4837
threshold=4.5000000000000009 3.5000000000000004 11.950000000000001 0.24000000000000069 54.000000000000007 1.5699999999999983 11.65 16.675000000000004 10.700000000000001
decision_type=2 2 2 2 2 2 2 2 2
left_child=1 3 -3 7 5 -5 -2 8 -1
right_child=6 2 -4 4 -6 -7 -8 -9 -10
leaf_value=-0.057119013270472779 -0.089689907580614098 0.16150765080343596 0.024801516603855864 0.064876197172062736 -0.045081415513287426 -0.01556671317666769 -0.011390425362016844 -0.071282351470511901 0.028539959726662473
leaf_weight=34 20 22 21 35 23 32 23 23 29
leaf_count=34 20 22 21 35 23 32 23 23 29
internal_value=1.94796e-10 0.00938711 0.0947442 -0.0114672 0.00817399 0.0264557 -0.0478088 -0.0320219 -0.0176887
internal_weight=262 219 43 176 90 67 43 86 63
internal_count=262 219 43 176 90 67 43 86 63
is_linear=0
shrinkage=0.1


Tree=24
num_leaves=10
num_cat=0
split_feature=7 3 1 7 7 5 7 4 4
split_gain=11.4606 7.34185 6.42221 4.30184 10.5365 10.124 5.28373 3.98605 2.73095
threshold=21.035000000000004 2.5000000000000004 17.450000000000006 11.180000000000001 10.565000000000003 13.085714285714287 17.000000000000004 -1.3100000000000007 0.41500000000000009
decision_type=2 2 2 2 2 2 2 2 2
left_child=2 -2 3 4 7 -5 -7 -1 -9
right_child=1 -3 -4 5 -6 6 -8 8 -10
leaf_value=-0.044988936882111287 -0.0034602317545149061 0.064739984391551264 -0.060489629674702887 -0.083102434501051911 0.07241686256158919 0.026718761252634456 -0.02797663588272898 0.034942063838243491 -0.017316401712596418
leaf_weight=21 27 38 24 20 21 33 38 20 20
leaf_count=21 27 38 24 20 21 33 38 20 20
internal_value=-5.01208e-11 0.0364107 -0.0120137 -0.00528868 0.0113232 -0.0202576 -0.00255483 -0.00970909 0.00881283
internal_weight=262 65 197 173 82 91 71 61 40
internal_count=262 65 197 173 82 91 71 61 40
is_linear=0
shrinkage=0.1


Tree=25
num_leaves=11
num_cat=0
split_feature=0 2 5 0 7 0 2 5 4 4
split_gain=10.2868 5.89085 6.24757 9.98935 8.62748 6.43011 4.99263 2.94679 5.62582 2.47169
threshold=27.750000000000004 22.550000000000004 13.085714285714287 15.750000000000002 11.180000000000001 23.500000000000004 11.350000000000003 20.440000000000001 0.98499999999999954 -0.34500000000000058
decision_type=2 2 2 2 2 2 2 2 2 2
left_child=1 2 4 -4 9 7 -2 8 -5 -1
right_child=6 -3 3 5 -6 -7 -8 -9 -10 -11
leaf_value=0.0181047198176384 0.011918141401332358 -0.059250231796786901 0.072793562940898393 0.031089156527410858 -0.079281918907707388 0.03223785213061741 0.079358137505395082 -0.048662788048386578 -0.038919985356430216 -0.026823484959701702
leaf_weight=25 23 21 21 22 22 35 21 24 24 24
leaf_count=25 23 21 21 22 22 35 21 24 24 24
internal_value=-2.26077e-10 -0.00890201 -0.00353494 0.00983305 -0.0272584 -0.00275905 0.0441054 -0.0202575 -0.00543735 -0.00390093
internal_weight=262 218 197 126 71 105 44 70 46 49
internal_count=262 218 197 126 71 105 44 70 46 49
is_linear=0
shrinkage=0.1


Tree=26
num_leaves=10
num_cat=0
split_feature=3 3 5 4 0 3 4 5 2
split_gain=10.3682 31.1972 19.4339 6.64165 5.81449 4.56222 3.97239 3.55991 3.50587
threshold=4.5000000000000009 3.5000000000000004 20.140000000000004 -0.90999999999999825 19.950000000000003 1.5000000000000002 -1.9249999999999996 20.585000000000004 10.850000000000003
decision_type=2 2 2 2 2 2 2 2 2
left_child=1 3 -3 6 -2 8 -1 -7 -5
right_child=4 2 -4 5 -6 7 -8 -9 -10
leaf_value=-0.013732837323820399 -0.010603638446849327 0.019491825083440002 0.15398271105119163 0.050662122781460109 -0.084328046701848514 -0.036482447172914233 -0.066735266471424928 0.01352171334438026 0.0018815237480927919
leaf_weight=31 23 22 21 26 20 35 26 24 34
leaf_count=31 23 22 21 26 20 35 26 24 34
internal_value=1.88042e-10 0.00881482 0.0851734 -0.00984098 -0.0448941 0.00360355 -0.0379094 -0.0161418 0.0230198
internal_weight=262 219 43 176 43 119 57 59 60
internal_count=262 219 43 176 43 119 57 59 60
is_linear=0
shrinkage=0.1


Tree=27
num_leaves=10
num_cat=0
split_feature=6 3 0 1 3 4 4 7 5
split_gain=9.79805 7.63142 18.085 6.18108 6.99806 5.71613 5.96336 4.94394 11.8301
threshold=2.5000000000000004 4.5000000000000009 27.750000000000004 17.450000000000006 3.5000000000000004 -0.12000000000000009 -1.9249999999999996 10.905000000000003 20.055000000000003
decision_type=2 2 2 2 2 2 2 2 2
left_child=-1 2 3 4 5 6 -2 -7 -9
right_child=1 -3 -4 -5 -6 7 -8 8 -10
leaf_value=0.057052056574159196 0.0017917333822697402 -0.04695334708652435 0.068993521131800892 -0.061482955464585265 0.042361349698442685 0.0417370953394667 -0.06870273537933827 -0.069012588830221266 0.037132255520139427
leaf_weight=27 20 39 33 22 26 23 30 21 21
leaf_count=27 20 39 33 22 26 23 30 21 21
internal_value=2.28921e-10 -0.00655492 0.00148355 -0.0121841 -0.0044921 -0.0150851 -0.0405049 0.00446871 -0.0159402
internal_weight=262 235 196 163 141 115 50 65 42
internal_count=262 235 196 163 141 115 50 65 42
is_linear=0
shrinkage=0.1


Tree=28
num_leaves=9
num_cat=0
split_feature=6 3 3 3 1 4 5 5
split_gain=7.93642 6.18145 15.5852 4.15381 3.62263 3.55787 5.66866 2.79337
threshold=2.5000000000000004 4.5000000000000009 3.5000000000000004 1.5000000000000002 0.75000000000000011 0.24000000000000069 20.585000000000004 19.500000000000004
decision_type=2 2 2 2 2 2 2 2
left_child=-1 2 3 4 7 -5 -7 -2
right_child=1 -3 -4 5 -6 6 -8 -9
leaf_value=0.051346852768350527 -0.0016408547339960935 -0.042258013137735619 0.057912952376481822 -0.050769216469243955 -0.018940471433517007 -0.042630522341831872 0.030163449933752418 0.051211480014026173
leaf_weight=27 20 39 39 38 36 23 20 20
leaf_count=27 20 39 39 38 36 23 20 20
internal_value=-1.9835e-10 -0.00589943 0.00133519 -0.0127192 0.0040731 -0.0284749 -0.00877286 0.0247853
internal_weight=262 235 196 157 76 81 43 40
internal_count=262 235 196 157 76 81 43 40
is_linear=0
shrinkage=0.1


Tree=29
num_leaves=10
num_cat=0
split_feature=7 2 4 7 1 0 4 2 4
split_gain=7.63459 4.76762 4.57345 4.9119 5.93129 8.39963 5.94179 3.38888 1.76373
threshold=20.315000000000001 12.65 1.5699999999999983 16.675000000000004 17.450000000000006 14.450000000000001 -1.4750000000000003 14.550000000000002 -0.29500000000000032
decision_type=2 2 2 2 2 2 2 2 2
left_child=2 -2 3 4 5 6 -1 -7 -8
right_child=1 -3 -4 -5 -6 7 8 -9 -10
leaf_value=-0.051344598523891449 0.05259107238537556 0.0018260118425697893 -0.042758674766971837 -0.046817398748614569 -0.045817956309765581 0.076611276680514928 0.033232830934936092 0.020449430038305849 -0.0064504388719797134
leaf_weight=22 37 37 36 22 20 21 21 22 24
leaf_count=22 37 37 36 22 20 21 21 22 24
internal_value=-2.04304e-10 0.0272085 -0.0107097 -0.00311921 0.00427587 0.0133838 -0.00875376 0.0478773 0.0120684
internal_weight=262 74 188 152 130 110 67 43 45
internal_count=262 74 188 152 130 110 67 43 45
is_linear=0
shrinkage=0.1


Tree=30
num_leaves=9
num_cat=0
split_feature=7 3 3 4 4 7 5 7
split_gain=6.33594 9.69974 30.4748 5.68541 5.94394 3.82235 8.358 7.81099
threshold=10.700000000000001 4.5000000000000009 3.5000000000000004 -1.7450000000000008 1.1950000000000005 16.675000000000004 17.845000000000002 22.220000000000002
decision_type=2 2 2 2 2 2 2 2
left_child=3 2 5 -1 -5 6 -2 -7
right_child=1 -3 -4 4 -6 7 -8 -9
leaf_value=-0.058379499691313709 -0.013373920520146687 -0.040026471523507953 0.11747814636263583 0.021406710424593519 -0.045889024294558024 -0.04494555074817095 0.068881760702823244 0.023583719879388811
leaf_weight=29 30 31 27 35 21 39 21 29
leaf_count=29 30 31 27 35 21 39 21 29
internal_value=-1.73023e-10 0.0107765 0.0215634 -0.0224405 -0.00382919 -0.000198733 0.0204961 -0.0157198
internal_weight=262 177 146 85 56 119 51 68
internal_count=262 177 146 85 56 119 51 68
is_linear=0
shrinkage=0.1


Tree=31
num_leaves=11
num_cat=0
split_feature=6 2 5 2 2 4 1 5 5 0
split_gain=5.9341 4.71236 15.251 6.34384 7.27302 4.08971 3.22441 8.23102 3.09106 2.34341
threshold=2.5000000000000004 8.0500000000000025 7.0600000000000014 10.450000000000001 11.500000000000002 0.79999999999999905 1.0000000180025095e-35 24.475000000000005 19.340000000000007 17.300000000000004
decision_type=2 2 2 2 2 2 2 2 2 2
left_child=-1 2 -2 5 -5 -3 8 9 -6 -8
right_child=1 3 -4 4 6 -7 7 -9 -10 -11
leaf_value=0.044399582842985792 -0.032940238390279854 -0.016004603391601927 0.08352084484967319 0.050675293295220893 -0.007678544961593369 -0.079189512617886079 -0.047768038172613492 0.044066511214311634 -0.061315861060505822 -0.0058822289437932135
leaf_weight=27 23 21 22 22 22 20 22 28 21 34
leaf_count=27 23 21 22 22 22 20 22 28 21 34
internal_value=-4.54997e-11 -0.00510123 0.0239963 -0.0119927 -0.00240762 -0.0468265 -0.0116031 -0.000202742 -0.0338735 -0.0223374
internal_weight=262 235 45 190 149 41 127 84 43 56
internal_count=262 235 45 190 149 41 127 84 43 56
is_linear=0
shrinkage=0.1


Tree=32
num_leaves=11
num_cat=0
split_feature=5 7 7 3 3 5 0 7 7 3
split_gain=5.91163 8.20932 6.98571 9.77628 36.5161 6.32246 5.84423 7.69413 14.8319 2.21904
threshold=13.085714285714287 11.180000000000001 8.0300000000000011 4.5000000000000009 3.5000000000000004 17.630000000000003 20.950000000000003 16.675000000000004 22.220000000000002 2.5000000000000004
decision_type=2 2 2 2 2 2 2 2 2 2
left_child=1 9 -2 4 5 -4 -7 -8 -9 -1
right_child=2 -3 3 -5 -6 6 7 8 -10 -11
leaf_value=-0.021868020009536013 -0.034289494228939857 -0.075384235314347528 0.055491235568409875 -0.036094069534114433 0.14988348680947508 -0.053118141293525704 0.060596718485976454 -0.06106946383203779 0.048652263730764395 0.020773236777471463
leaf_weight=26 31 22 21 28 21 20 20 28 22 23
leaf_count=26 31 22 21 28 21 20 20 28 22 23
internal_value=3.52301e-11 -0.0246371 0.00915831 0.0175763 0.028961 0.00608371 -0.00544471 0.00817627 -0.0127919 -0.00185274
internal_weight=262 71 191 160 132 111 90 70 50 49
internal_count=262 71 191 160 132 111 90 70 50 49
is_linear=0
shrinkage=0.1


Tree=33
num_leaves=10
num_cat=0
split_feature=6 4 3 0 5 7 7 7 1
split_gain=5.12229 4.03311 5.21026 9.13021 3.87415 8.38198 5.13474 6.32785 4.07056
threshold=2.5000000000000004 -3.1199999999999997 4.5000000000000009 27.750000000000004 17.845000000000002 11.180000000000001 16.675000000000004 10.000000000000002 0.75000000000000011
decision_type=2 2 2 2 2 2 2 2 2
left_child=-1 -2 3 4 5 8 7 -6 -3
right_child=1 2 -4 -5 6 -7 -8 -9 -10
leaf_value=0.041250920516473277 -0.047692161053419113 0.035381830208327462 -0.034341229694454294 0.053912777114998214 -0.0039118045987561346 -0.063614568257305243 -0.017426433798038599 0.075635978300124418 -0.026303595788776876
leaf_weight=27 20 23 38 33 20 28 33 20 20
leaf_count=27 20 23 38 33 20 28 33 20 20
internal_value=-9.24213e-11 -0.00473947 -0.000743868 0.00646912 -0.00440338 -0.0210352 0.0117728 0.0358621 0.00669093
internal_weight=262 235 215 177 144 71 73 40 43
internal_count=262 235 215 177 144 71 73 40 43
is_linear=0
shrinkage=0.1


Tree=34
num_leaves=10
num_cat=0
split_feature=7 7 4 4 7 4 2 7 2
split_gain=5.01402 5.5847 7.24364 3.0865 3.86899 10.6585 8.26012 3.04845 0.386373
threshold=20.080000000000002 22.320000000000004 1.1950000000000005 1.5699999999999983 11.665000000000001 -1.7450000000000008 13.750000000000002 10.700000000000001 8.9500000000000011
decision_type=2 2 2 2 2 2 2 2 2
left_child=3 -2 -3 4 5 -1 -6 8 -7
right_child=1 2 -4 -5 6 7 -8 -9 -10
leaf_value=-0.035675243112970802 0.055151632477839788 -0.040175832678442415 0.038358182180672884 -0.036145364208256502 -0.053238482547125647 0.0077222052961587913 0.027322639822959901 0.063894457708705554 0.027378566102124753
leaf_weight=34 30 23 24 34 35 20 20 22 20
leaf_count=34 30 23 24 34 35 20 20 22 20
internal_value=-1.86975e-10 0.0214429 -7.3357e-05 -0.00892487 -0.00279575 0.00932016 -0.0239435 0.0339951 0.0175504
internal_weight=262 77 47 185 151 96 55 62 40
internal_count=262 77 47 185 151 96 55 62 40
is_linear=0
shrinkage=0.1


Tree=35
num_leaves=10
num_cat=0
split_feature=5 0 4 7 4 0 5 1 4
split_gain=4.92025 6.81099 6.56072 6.1145 4.80192 7.03726 5.51234 2.59341 2.3385
threshold=13.085714285714287 15.750000000000002 2.3700000000000006 11.180000000000001 1.630000000000001 20.650000000000002 27.345000000000002 0.8500000000000002 -0.34500000000000058
decision_type=2 2 2 2 2 2 2 2 2
left_child=3 -2 4 8 5 7 -7 -3 -1
right_child=1 2 -4 -5 -6 6 -8 -9 -10
leaf_value=0.01859164196252823 0.059391457781843515 -0.0066266402432864357 0.052276072583415295 -0.066272936084053741 -0.043532985342400417 0.046917400595087276 -0.0069643588786995093 -0.056381326522678132 -0.025109362167616684
leaf_weight=25 23 22 22 22 28 39 37 20 24
leaf_count=25 23 22 22 22 28 39 37 20 24
internal_value=1.08062e-10 0.00835517 0.00136806 -0.0224766 -0.00630301 0.00253123 0.0206855 -0.0303193 -0.00281293
internal_weight=262 191 168 71 146 118 76 42 49
internal_count=262 191 168 71 146 118 76 42 49
is_linear=0
shrinkage=0.1


end of trees

feature_importances:
shortwave_radiation_sum=65
weekday=61
temp_10d_avg=49
temperature_2m_mean=42
precipitation_sum=36
wind_speed_10m_mean=35
temp_diff=32
weather_code=11

parameters:
[boosting: gbdt]
[objective: regression]
[metric: rmse]
[tree_learner: serial]
[device_type: cpu]
[data_sample_strategy: bagging]
[data: ]
[valid: ]
[num_iterations: 100]
[learning_rate: 0.1]
[num_leaves: 31]
[num_threads: 0]
[seed: 42]
[deterministic: 0]
[force_col_wise: 0]
[force_row_wise: 0]
[histogram_pool_size: -1]
[max_depth: -1]
[min_data_in_leaf: 20]
[min_sum_hessian_in_leaf: 0.001]
[bagging_fraction: 1]
[pos_bagging_fraction: 1]
[neg_bagging_fraction: 1]
[bagging_freq: 0]
[bagging_seed: 400]
[bagging_by_query: 0]
[feature_fraction: 1]
[feature_fraction_bynode: 1]
[feature_fraction_seed: 30056]
[extra_trees: 0]
[extra_seed: 12879]
[early_stopping_round: 0]
[early_stopping_min_delta: 0]
[first_metric_only: 0]
[max_delta_step: 0]
[lambda_l1: 0]
[lambda_l2: 0]
[linear_lambda: 0]
[min_gain_to_split: 0]
[drop_rate: 0.1]
[max_drop: 50]
[skip_drop: 0.5]
[xgboost_dart_mode: 0]
[uniform_drop: 0]
[drop_seed: 17869]
[top_rate: 0.2]
[other_rate: 0.1]
[min_data_per_group: 100]
[max_cat_threshold: 32]
[cat_l2: 10]
[cat_smooth: 10]
[max_cat_to_onehot: 4]
[top_k: 20]
[monotone_constraints: ]
[monotone_constraints_method: basic]
[monotone_penalty: 0]
[feature_contri: ]
[forcedsplits_filename: ]
[refit_decay_rate: 0.9]
[cegb_tradeoff: 1]
[cegb_penalty_split: 0]
[cegb_penalty_feature_lazy: ]
[cegb_penalty_feature_coupled: ]
[path_smooth: 0]
[interaction_constraints: ]
[verbosity: -1]
[saved_feature_importance_type: 0]
[use_quantized_grad: 0]
[num_grad_quant_bins: 4]
[quant_train_renew_leaf: 0]
[stochastic_rounding: 1]
[linear_tree: 0]
[max_bin: 255]
[max_bin_by_feature: ]
[min_data_in_bin: 3]
[bin_construct_sample_cnt: 200000]
[data_random_seed: 175]
[is_enable_sparse: 1]
[enable_bundle: 1]
[use_missing: 1]
[zero_as_missing: 0]
[feature_pre_filter: 1]
[pre_partition: 0]
[two_round: 0]
[header: 0]
[label_column: ]
[weight_column: ]
[group_column: ]
[ignore_column: ]
[categorical_feature: ]
[forcedbins_filename: ]
[precise_float_parser: 0]
[parser_config_file: ]
[objective_seed: 16083]
[num_class: 1]
[is_unbalance: 0]
[scale_pos_weight: 1]
[sigmoid: 1]
[boost_from_average: 1]
[reg_sqrt: 0]
[alpha: 0.9]
[fair_c: 1]
[poisson_max_delta_step: 0.7]
[tweedie_variance_power: 1.5]
[lambdarank_truncation_level: 30]
[lambdarank_norm: 1]
[label_gain: ]
[lambdarank_position_bias_regularization: 0]
[eval_at: ]
[multi_error_top_k: 1]
[auc_mu_weights: ]
[num_machines: 1]
[local_listen_port: 12400]
[time_out: 120]
[machine_list_filename: ]
[machines: ]
[gpu_platform_id: -1]
[gpu_device_id: -1]
[gpu_use_dp: 0]
[num_gpu: 1]

end of parameters

pandas_categorical:[]
