tree
version=v4
num_class=1
num_tree_per_iteration=1
label_index=0
max_feature_idx=7
objective=regression
feature_names=temperature_2m_mean precipitation_sum wind_speed_10m_mean weekday temp_diff temp_10d_avg weather_code shortwave_radiation_sum
feature_infos=[2.8999999999999999:32.200000000000003] [0:95.5] [3.6000000000000001:35.600000000000001] [0:5] [-6.9800000000000004:4.1300000000000026] [4.1200000000000001:30.440000000000005] [0:73] [1.8300000000000001:28.420000000000002]
tree_sizes=835 961 880 873 886 964 971 965 963 1054 885 969 970 1049 968 1044 887 978 974 975 1052 974 977 1056 972 896 1052 891 974 1055 1059 1057 1059 980 959 894 962 975 1063 1050 880 1045 973 1065 976 1133 892 1069 1057 1056 1047 899 979 976 1042 1052 1062 977 964 1061 1063 980 966 977 899 1032 1063 1057 982 1058

Tree=0
num_leaves=9
num_cat=0
split_feature=1 3 3 1 5 5 7 0
split_gain=286.67 168.554 200.339 21.1796 24.6136 31.243 7.57576 1.4269
threshold=8.2500000000000018 3.5000000000000004 4.5000000000000009 0.8500000000000002 7.0600000000000014 17.235000000000003 20.735000000000003 25.400000000000002
decision_type=2 2 2 2 2 2 2 2
left_child=1 3 -3 4 -1 -6 -7 -5
right_child=-2 2 -4 7 5 6 -8 -9
leaf_value=5.0896065761950418 4.9178117107236119 5.5039228210132487 5.1767860635082572 5.1076667759843213 5.2969783709808684 5.129932915588757 5.205690491617263 5.0711450394356747
leaf_weight=26 39 36 39 23 24 33 22 20
leaf_count=26 39 36 39 23 24 33 22 20
internal_value=5.16794 5.21168 5.33381 5.14979 5.174 5.20178 5.16024 5.09068
internal_weight=262 223 75 148 105 79 55 43
internal_count=262 223 75 148 105 79 55 43
is_linear=0
shrinkage=1


Tree=1
num_leaves=10
num_cat=0
split_feature=6 3 3 3 1 3 5 3 0
split_gain=233.368 136.503 161.289 22.154 19.6939 15.293 8.7135 10.3864 5.27246
threshold=62.000000000000007 3.5000000000000004 4.5000000000000009 1.5000000000000002 19.850000000000005 2.5000000000000004 22.660000000000004 1.0000000180025095e-35 20.650000000000002
decision_type=2 2 2 2 2 2 2 2 2
left_child=1 3 -3 6 -2 -5 7 -1 -7
right_child=4 2 -4 5 -6 8 -8 -9 -10
leaf_value=0.0044884027913212774 -0.14686975472352723 0.30401357710361482 0.008637187355443051 -0.098873043991625317 -0.2822573564591862 -0.044549089563744412 -0.0170977172476274 0.10518133395484515 0.027193007245659831
leaf_weight=20 22 36 38 36 21 21 27 21 20
leaf_count=20 22 36 38 36 21 21 27 21 20
internal_value=7.22308e-10 0.0418198 0.152334 -0.0145804 -0.212989 -0.051313 0.0270138 0.0560628 -0.00955294
internal_weight=262 219 74 145 43 77 68 41 41
internal_count=262 219 74 145 43 77 68 41 41
is_linear=0
shrinkage=0.1


Tree=2
num_leaves=9
num_cat=0
split_feature=1 3 3 3 0 1 5 5
split_gain=193.265 111.06 132.196 15.3539 19.1823 14.1387 7.74647 7.43111
threshold=8.2500000000000018 3.5000000000000004 4.5000000000000009 1.5000000000000002 10.800000000000002 0.45000000000000007 22.660000000000004 13.085714285714287
decision_type=2 2 2 2 2 2 2 2
left_child=1 3 -3 6 -5 -6 7 -1
right_child=-2 2 -4 4 5 -7 -8 -9
leaf_value=0.0033274829387664796 -0.20537408659091363 0.27323659592204624 0.0074974389603504766 -0.12950974812731147 0.031565396301448348 -0.068181566190388468 -0.021710786941860405 0.086492373150858018
leaf_weight=21 39 36 39 20 30 27 28 22
leaf_count=21 39 36 39 20 30 27 28 22
internal_value=5.787e-10 0.0359174 0.135052 -0.0143198 -0.0452485 -0.0156832 0.0192226 0.045877
internal_weight=262 223 75 148 77 57 71 43
internal_count=262 223 75 148 77 57 71 43
is_linear=0
shrinkage=0.1


Tree=3
num_leaves=9
num_cat=0
split_feature=6 3 3 4 3 4 5 2
split_gain=158.812 89.6688 107.01 15.4489 14.8446 12.8494 7.05993 4.46382
threshold=62.000000000000007 3.5000000000000004 4.5000000000000009 -1.1350000000000005 1.5000000000000002 0.24000000000000069 17.235000000000003 11.65
decision_type=2 2 2 2 2 2 2 2
left_child=1 4 -3 -2 6 -6 -1 -7
right_child=3 2 -4 -5 5 7 -8 -9
leaf_value=0.060200920675335258 -0.23705315987269082 0.24761804168423018 0.0070237209922388985 -0.11714139553633603 -0.088451661118729555 0.024530873415262805 -0.0049504081217142254 -0.039237620246907079
leaf_weight=29 21 36 38 22 33 23 39 21
leaf_count=29 21 36 38 22 33 23 39 21
internal_value=-5.01919e-10 0.0344988 0.12407 -0.175703 -0.0112133 -0.0412816 0.0228347 -0.00590409
internal_weight=262 219 74 43 145 77 68 44
internal_count=262 219 74 43 145 77 68 44
is_linear=0
shrinkage=0.1


Tree=4
num_leaves=9
num_cat=0
split_feature=1 3 3 7 5 0 5 5
split_gain=130.896 73.0292 87.1789 11.9664 15.565 15.5083 17.1266 12.6828
threshold=8.2500000000000018 3.5000000000000004 4.5000000000000009 9.3800000000000008 27.605000000000008 7.6000000000000005 17.050000000000001 20.585000000000004
decision_type=2 2 2 2 2 2 2 2
left_child=1 3 -3 -1 5 -5 -7 -8
right_child=-2 2 -4 4 -6 6 7 -9
leaf_value=-0.083113648425787695 -0.16901757109623691 0.22216434511873456 0.0063636897466121571 -0.05528849273299178 -0.07865257677400396 0.10720410967866581 -0.048979945930962762 0.045403015767889368
leaf_weight=20 39 36 39 24 21 24 24 35
leaf_count=20 39 36 39 24 21 24 24 35
internal_value=-1.42329e-09 0.0295591 0.109948 -0.0111785 6.13871e-05 0.0155099 0.0359818 0.00700995
internal_weight=262 223 75 148 128 107 83 59
internal_count=262 223 75 148 128 107 83 59
is_linear=0
shrinkage=0.1


Tree=5
num_leaves=10
num_cat=0
split_feature=1 0 3 3 1 5 2 5 0
split_gain=108.602 52.974 63.1819 52.4959 18.2944 16.687 10.0996 5.06749 2.66116
threshold=4.7000000000000011 7.6000000000000005 3.5000000000000004 4.5000000000000009 17.450000000000006 17.235000000000003 16.750000000000004 26.610000000000003 5.3500000000000005
decision_type=2 2 2 2 2 2 2 2 2
left_child=1 8 5 -4 -2 -3 7 -7 -1
right_child=4 2 3 -5 -6 6 -8 -9 -10
leaf_value=-0.039374671857804064 -0.074298002670208627 0.078489304359616915 0.24490446481439801 0.052702522377173114 -0.19143369121011347 0.031601069674630153 -0.071615157723426817 -0.030310963410884142 -0.089250569239906652
leaf_weight=20 30 29 27 30 24 39 20 20 23
leaf_count=20 30 29 27 30 24 39 20 20 23
internal_value=5.47841e-10 0.0328046 0.0585673 0.143746 -0.126358 0.0136121 -0.0102036 0.0106139 -0.0660525
internal_weight=262 208 165 57 54 108 79 59 43
internal_count=262 208 165 57 54 108 79 59 43
is_linear=0
shrinkage=0.1


Tree=6
num_leaves=10
num_cat=0
split_feature=6 3 3 3 3 4 4 3 0
split_gain=88.232 48.1745 61.1635 11.2966 11.3366 10.8424 6.17629 7.75615 3.35223
threshold=62.000000000000007 3.5000000000000004 4.5000000000000009 1.5000000000000002 2.5000000000000004 -0.90999999999999825 1.6700000000000002 1.0000000180025095e-35 20.650000000000002
decision_type=2 2 2 2 2 2 2 2 2
left_child=1 3 -3 6 -5 -2 7 -1 -6
right_child=5 2 -4 4 8 -7 -8 -9 -10
leaf_value=0.0016900274416674741 -0.17778864438119144 0.18477252092626362 0.0028782023411048087 -0.074969837162643674 -0.025971712637692691 -0.077114526480436332 -0.021668662630360238 0.083814800530672084 0.031233327304944398
leaf_weight=23 23 36 38 36 21 20 22 23 20
leaf_count=23 23 36 38 36 21 20 22 23 20
internal_value=1.0664e-12 0.0257143 0.0913673 -0.0077914 -0.0340215 -0.130963 0.0219103 0.0427524 0.00193318
internal_weight=262 219 74 145 77 43 68 46 41
internal_count=262 219 74 145 77 43 68 46 41
is_linear=0
shrinkage=0.1


Tree=7
num_leaves=10
num_cat=0
split_feature=1 5 3 3 1 5 7 6 4
split_gain=75.2625 51.8538 42.5345 34.9456 27.0351 17.3689 5.95564 5.74806 5.16839
threshold=0.8500000000000002 8.6300000000000008 3.5000000000000004 4.5000000000000009 13.750000000000002 17.235000000000003 20.735000000000003 54.000000000000007 0.30499999999999977
decision_type=2 2 2 2 2 2 2 2 2
left_child=1 -1 5 -4 7 -3 -7 -2 -9
right_child=4 2 3 -5 -6 6 -8 8 -10
leaf_value=-0.060090623901372681 -0.069274611500025327 0.1014239655888599 0.24479390662163497 0.069811118006706238 -0.14764159758885703 -0.0289318231781098 0.038238469680601905 0.022665614634752276 -0.047573010371997959
leaf_weight=38 28 23 21 25 30 33 22 22 20
leaf_count=38 28 23 21 25 30 33 22 22 20
internal_value=-2.95926e-10 0.0421096 0.073429 0.149695 -0.0682175 0.0284519 -0.00206371 -0.0341787 -0.0107813
internal_weight=262 162 124 46 100 78 55 70 42
internal_count=262 162 124 46 100 78 55 70 42
is_linear=0
shrinkage=0.1


Tree=8
num_leaves=10
num_cat=0
split_feature=1 0 3 3 2 1 5 3 0
split_gain=61.8152 35.0647 34.9272 28.5762 11.8693 10.1222 9.54394 4.57856 1.87133
threshold=4.7000000000000011 7.6000000000000005 3.5000000000000004 4.5000000000000009 16.750000000000004 19.850000000000005 14.835000000000001 1.5000000000000002 5.3500000000000005
decision_type=2 2 2 2 2 2 2 2 2
left_child=1 8 4 -4 6 -2 -3 -8 -1
right_child=5 2 3 -5 -6 -7 7 -9 -10
leaf_value=-0.033308161427266898 -0.060792775271516858 0.089937837347388278 0.18367526034514112 0.041868500610192622 -0.051445334566676097 -0.1496040233543941 0.041451565748346707 -0.012145523916980303 -0.075132661442393847
leaf_weight=20 33 20 27 30 23 21 28 37 23
leaf_count=20 33 20 27 30 23 21 28 37 23
internal_value=1.5054e-10 0.0247493 0.0457095 0.10904 0.0122849 -0.0953305 0.0295296 0.0109425 -0.0556794
internal_weight=262 208 165 57 108 54 85 65 43
internal_count=262 208 165 57 108 54 85 65 43
is_linear=0
shrinkage=0.1


Tree=9
num_leaves=11
num_cat=0
split_feature=1 5 3 5 1 5 6 5 4 0
split_gain=53.6523 36.2495 27.5923 30.7346 17.0015 14.8373 5.49341 5.26536 4.03082 0.792568
threshold=0.8500000000000002 9.5050000000000008 3.5000000000000004 20.735000000000003 13.750000000000002 17.235000000000003 54.000000000000007 25.190000000000001 0.30499999999999977 5.6500000000000012
decision_type=2 2 2 2 2 2 2 2 2 2
left_child=1 9 5 -4 6 -3 -2 -7 -8 -1
right_child=4 2 3 -5 -6 7 8 -9 -10 -11
leaf_value=-0.059277902348410516 -0.064913684249456441 0.099449728280305863 0.19575521762554463 0.030866502672433856 -0.12058137516180674 -0.029375192963828647 0.021806872432882138 0.032763885967608077 -0.040222147144377232 -0.031462483070790769
leaf_weight=21 28 20 26 20 30 30 22 25 20 20
leaf_count=21 28 20 26 20 30 30 22 25 20 20
internal_value=-5.20386e-10 0.0355538 0.0630893 0.124064 -0.0575972 0.0256911 -0.0306039 -0.00113016 -0.00773076 -0.0457094
internal_weight=262 162 121 46 100 75 70 55 42 41
internal_count=262 162 121 46 100 75 70 55 42 41
is_linear=0
shrinkage=0.1


Tree=10
num_leaves=9
num_cat=0
split_feature=7 3 3 2 0 5 5 5
split_gain=46.2942 33.8767 48.752 23.0459 14.2643 12.5574 10.2056 8.20875
threshold=10.700000000000001 3.5000000000000004 4.5000000000000009 15.050000000000002 14.450000000000001 27.515000000000004 20.585000000000004 17.235000000000003
decision_type=2 2 2 2 2 2 2 2
left_child=3 5 -3 4 -1 6 7 -2
right_child=1 2 -4 -5 -6 -7 -8 -9
leaf_value=-0.062826099647925446 0.023338606637535675 0.19003284898483092 0.006231936764332556 -0.1413247615993023 0.039399379154755956 -0.066042721535389634 0.057828710930688046 -0.051010395765856469
leaf_weight=39 33 27 31 25 21 24 35 27
leaf_count=39 33 27 31 25 21 24 35 27
internal_value=-3.91724e-10 0.0291297 0.0917944 -0.0606582 -0.0270472 -0.00141283 0.0149147 -0.0101184
internal_weight=262 177 58 85 60 119 95 60
internal_count=262 177 58 85 60 119 95 60
is_linear=0
shrinkage=0.1


Tree=11
num_leaves=10
num_cat=0
split_feature=1 5 3 5 1 0 6 4 7
split_gain=39.1374 26.533 18.4061 24.7465 11.8979 4.50115 4.34273 3.39473 0.840478
threshold=0.8500000000000002 9.5050000000000008 2.5000000000000004 20.735000000000003 13.750000000000002 19.850000000000005 54.000000000000007 0.30499999999999977 10.635000000000002
decision_type=2 2 2 2 2 2 2 2 2
left_child=1 8 5 -4 6 -3 -2 -8 -1
right_child=4 2 3 -5 -6 -7 7 -9 -10
leaf_value=-0.025185651225703105 -0.057117243457053393 0.043998281398545142 0.14704954279320581 0.025379087892360985 -0.10188251400987308 -0.014388393045913789 0.020832278714938601 -0.036092481575906277 -0.053829441666603084
leaf_weight=21 28 23 35 32 30 31 22 20 20
leaf_count=21 28 23 35 32 30 31 22 20 20
internal_value=-5.64481e-10 0.030366 0.0539238 0.0889383 -0.049193 0.01048 -0.0266117 -0.00627475 -0.0391582
internal_weight=262 162 121 67 100 54 70 42 41
internal_count=262 162 121 67 100 54 70 42 41
is_linear=0
shrinkage=0.1


Tree=12
num_leaves=10
num_cat=0
split_feature=7 5 3 3 2 5 5 5 4
split_gain=33.8276 16.6962 26.7616 41.6933 11.8264 11.2189 5.71955 8.99767 3.47122
threshold=9.3800000000000008 8.6300000000000008 3.5000000000000004 4.5000000000000009 15.050000000000002 27.515000000000004 24.475000000000005 17.235000000000003 0.63499999999999812
decision_type=2 2 2 2 2 2 2 2 2
left_child=4 -2 5 -4 -1 6 7 -3 -9
right_child=1 2 3 -5 -6 -7 -8 8 -10
leaf_value=-0.029298269161672302 -0.045054408294313092 0.051583032834309123 0.18807733401966592 0.012516358302485559 -0.12155568302065756 -0.05645592926690976 0.064792280339381919 0.0056878330143676561 -0.051152196703922181
leaf_weight=33 34 27 24 31 24 24 22 22 21
leaf_count=33 34 27 24 31 24 24 22 22 21
internal_value=-3.2774e-10 0.0189472 0.0316727 0.0891248 -0.0681435 0.00443247 0.0203164 0.00633826 -0.0220713
internal_weight=262 205 171 55 57 116 92 70 43
internal_count=262 205 171 55 57 116 92 70 43
is_linear=0
shrinkage=0.1


Tree=13
num_leaves=11
num_cat=0
split_feature=1 5 2 0 4 2 7 3 4 7
split_gain=28.1117 18.0923 14.3316 21.3867 13.56 9.32134 6.20066 5.79988 15.2226 0.683749
threshold=0.8500000000000002 9.5050000000000008 16.950000000000003 21.350000000000005 0.55000000000000082 15.400000000000002 21.035000000000004 3.5000000000000004 -0.90999999999999825 10.635000000000002
decision_type=2 2 2 2 2 2 2 2 2 2
left_child=1 9 3 4 -3 7 -5 8 -2 -1
right_child=5 2 -4 6 -6 -7 -8 -9 -10 -11
leaf_value=-0.0190719991567589 -0.1022957037457011 0.065407451714522072 -0.019026288652309667 -0.025150259584188463 0.17321695640683177 -0.088328495174646388 0.048558370694518092 0.022264583763622104 0.0097638102041350469 -0.044907430484890938
leaf_weight=21 22 28 27 21 20 30 25 21 27 20
leaf_count=21 22 28 27 21 20 30 25 21 27 20
internal_value=1.35077e-11 0.0257357 0.0451888 0.0636335 0.110328 -0.0416918 0.0149088 -0.0217047 -0.0405486 -0.0316746
internal_weight=262 162 121 94 48 100 46 70 49 41
internal_count=262 162 121 94 48 100 46 70 49 41
is_linear=0
shrinkage=0.1


Tree=14
num_leaves=10
num_cat=0
split_feature=7 7 4 3 7 0 2 1 7
split_gain=24.0091 12.7231 18.5074 14.9343 10.8283 19.767 8.31077 7.31924 2.63455
threshold=9.3800000000000008 21.035000000000004 1.7900000000000011 2.5000000000000004 11.665000000000001 6.4500000000000011 15.050000000000002 0.8500000000000002 15.450000000000001
decision_type=2 2 2 2 2 2 2 2 2
left_child=6 2 4 -3 5 -2 -1 8 -6
right_child=1 3 -4 -5 7 -7 -8 -9 -10
leaf_value=-0.024844989598248948 -0.022070615535432644 -0.0043409414382444486 -0.08521768454123628 0.092928119199840648 -0.013594295233488082 0.10363223686942767 -0.10218342853089174 -0.05598373928417763 0.036031619232633837
leaf_weight=33 22 27 22 38 20 29 24 24 23
leaf_count=33 22 27 22 38 20 29 24 24 23
internal_value=1.20859e-10 0.0159624 -0.00101269 0.052524 0.0146866 0.0494075 -0.0574085 -0.0117428 0.0129498
internal_weight=262 205 140 65 118 51 57 67 43
internal_count=262 205 140 65 118 51 57 67 43
is_linear=0
shrinkage=0.1


Tree=15
num_leaves=11
num_cat=0
split_feature=7 0 7 7 7 5 2 5 7 2
split_gain=20.0385 10.2821 16.4011 16.5136 11.0509 8.926 8.65536 11.1602 7.4262 5.94998
threshold=10.135000000000002 27.200000000000006 20.080000000000002 23.445000000000004 11.180000000000001 20.585000000000004 15.400000000000002 13.348750000000003 21.590000000000003 12.800000000000002
decision_type=2 2 2 2 2 2 2 2 2 2
left_child=6 2 4 -4 -2 9 7 -1 -3 -6
right_child=1 8 3 -5 5 -7 -8 -9 -10 -11
leaf_value=-0.066915175080299386 0.057515434992890205 -0.064055727422237405 0.14542702827602624 0.021452095065350563 -0.0080382672926554311 0.037863291160796175 -0.096068395350290381 0.030741806768558245 0.013269710689093229 -0.080587860941886913
leaf_weight=25 31 23 21 22 26 22 23 22 27 20
leaf_count=25 31 23 21 22 26 22 23 22 27 20
internal_value=5.49018e-10 0.0166986 0.0304305 0.081998 0.00803251 -0.0145259 -0.0458019 -0.0212034 -0.0223 -0.0395816
internal_weight=262 192 142 43 99 68 70 47 50 46
internal_count=262 192 142 43 99 68 70 47 50 46
is_linear=0
shrinkage=0.1


Tree=16
num_leaves=9
num_cat=0
split_feature=7 3 3 4 4 5 5 5
split_gain=17.348 14.1842 33.0776 12.7376 14.9466 5.7796 8.44301 4.80174
threshold=10.700000000000001 3.5000000000000004 4.5000000000000009 -1.7450000000000008 1.1950000000000005 27.515000000000004 20.585000000000004 17.235000000000003
decision_type=2 2 2 2 2 2 2 2
left_child=3 5 -3 -1 -5 6 7 -2
right_child=1 2 -4 4 -6 -7 -8 -9
leaf_value=-0.090925772282583972 0.011965333636511456 0.13929963991977276 -0.012097696232939921 0.030742891409567426 -0.075971309582348032 -0.045777425387253365 0.048178366443940579 -0.044898467497141277
leaf_weight=29 33 27 31 35 21 24 35 27
leaf_count=29 33 27 31 35 21 24 35 27
internal_value=1.333e-12 0.0178319 0.0583804 -0.0371323 -0.00927493 -0.00193124 0.00914569 -0.0136234
internal_weight=262 177 58 85 56 119 95 60
internal_count=262 177 58 85 56 119 95 60
is_linear=0
shrinkage=0.1


Tree=17
num_leaves=10
num_cat=0
split_feature=1 1 5 0 4 1 7 6 4
split_gain=14.9925 15.7005 7.65217 9.46368 12.2934 5.11212 4.22835 3.39383 6.53083
threshold=0.8500000000000002 0.25000000000000006 7.0600000000000014 19.050000000000004 -1.3100000000000007 17.450000000000006 21.035000000000004 54.000000000000007 0.41500000000000009
decision_type=2 2 2 2 2 2 2 2 2
left_child=1 2 -1 4 -4 7 -5 -2 -9
right_child=5 -3 3 6 -6 -7 -8 8 -10
leaf_value=-0.034314383247068952 -0.045409370785013642 0.095326350289194492 0.00071934822784817736 -0.038464172661304474 0.10302867440817257 -0.07068172444899877 0.016423867264529692 0.029573020764759612 -0.045245803892612457
leaf_weight=35 28 23 23 25 24 24 32 28 20
leaf_count=35 28 23 23 25 24 24 32 28 20
internal_value=3.35027e-11 0.0187944 0.00613086 0.0197422 0.0529624 -0.030447 -0.00764983 -0.0177412 -0.00160149
internal_weight=262 162 139 104 47 100 57 76 48
internal_count=262 162 139 104 47 100 57 76 48
is_linear=0
shrinkage=0.1


Tree=18
num_leaves=10
num_cat=0
split_feature=7 4 1 0 5 3 5 1 5
split_gain=13.4971 12.5712 16.1447 10.9939 10.6854 9.89387 6.23017 5.06068 3.44889
threshold=21.035000000000004 1.7900000000000011 0.8500000000000002 7.6000000000000005 16.120000000000005 2.5000000000000004 17.845000000000002 1.0000000180025095e-35 26.345000000000006
decision_type=2 2 2 2 2 2 2 2 2
left_child=1 2 3 -1 -5 -2 -4 -6 -8
right_child=5 -3 6 4 7 -7 8 -9 -10
leaf_value=-0.020456163626578122 -0.0067709860340174708 -0.070399171509779992 -0.079569241359829901 0.10706080679027807 -0.016709266444668174 0.072399998397419327 0.012072470606792542 0.052793578837405555 -0.045951455533504493
leaf_weight=36 27 32 25 21 20 38 21 22 20
leaf_count=36 27 32 25 21 20 38 21 22 20
internal_value=8.97553e-11 -0.0130375 -0.00191279 0.0236276 0.0488183 0.0395136 -0.0402233 0.019697 -0.0162319
internal_weight=262 197 165 99 63 65 66 42 41
internal_count=262 197 165 99 63 65 66 42 41
is_linear=0
shrinkage=0.1


Tree=19
num_leaves=10
num_cat=0
split_feature=7 4 1 4 0 5 4 2 7
split_gain=10.9327 10.1827 13.0772 9.07234 8.9051 9.57707 5.07792 3.86553 2.64199
threshold=21.035000000000004 1.7900000000000011 0.8500000000000002 0.63499999999999812 7.6000000000000005 20.735000000000003 -0.70999999999999897 13.750000000000002 11.845000000000001
decision_type=2 2 2 2 2 2 2 2 2
left_child=1 2 4 -2 -1 8 7 -4 -6
right_child=3 -3 6 -5 5 -7 -8 -9 -10
leaf_value=-0.018410545215010645 -0.0047908284970132331 -0.063359255366958675 -0.027193839746442711 0.070150565803050999 0.099201731011271485 -0.007481215699859288 0.0017253794079727454 -0.087175414125834197 0.047801431416592099
leaf_weight=36 30 32 22 35 20 23 23 21 20
leaf_count=36 30 32 22 35 20 23 23 21 20
internal_value=-3.24697e-11 -0.0117337 -0.00172151 0.0355622 0.0212648 0.0439364 -0.036201 -0.0564872 0.0735016
internal_weight=262 197 165 65 99 63 66 43 40
internal_count=262 197 165 65 99 63 66 43 40
is_linear=0
shrinkage=0.1


Tree=20
num_leaves=11
num_cat=0
split_feature=2 5 0 3 2 1 2 2 0 0
split_gain=9.10444 11.322 15.7994 18.4493 10.3493 9.46083 6.58122 4.34197 2.51919 0.539099
threshold=16.950000000000003 13.085714285714287 27.550000000000004 3.5000000000000004 7.5500000000000007 2.7500000000000004 10.600000000000001 21.800000000000004 21.350000000000005 6.9000000000000012
decision_type=2 2 2 2 2 2 2 2 2 2
left_child=1 4 3 5 9 8 -4 -2 -3 -1
right_child=7 2 6 -5 -6 -7 -8 -9 -10 -11
leaf_value=0.016447932499906292 -0.073916262175355643 0.061785991067066795 -0.067287401624378712 0.10304372828039859 -0.072986211986453442 -0.03938857142771171 0.012865726873278619 -0.012236521568149328 0.015388129516081376 -0.0060006805509328839
leaf_weight=23 21 25 21 36 27 22 20 25 22 20
leaf_count=23 21 25 21 36 27 22 20 25 22 20
internal_value=-2.13635e-10 0.00860257 0.0244554 0.0450116 -0.024462 0.0147339 -0.0281883 -0.0403947 0.0400678 0.00600672
internal_weight=262 216 146 105 70 69 41 46 47 43
internal_count=262 216 146 105 70 69 41 46 47 43
is_linear=0
shrinkage=0.1


Tree=21
num_leaves=10
num_cat=0
split_feature=7 3 3 3 2 3 7 3 7
split_gain=8.95335 7.98469 24.445 4.86156 7.28998 6.04029 4.80534 4.80169 2.96736
threshold=8.0300000000000011 4.5000000000000009 3.5000000000000004 1.5000000000000002 14.550000000000002 2.5000000000000004 10.905000000000003 2.5000000000000004 20.080000000000002
decision_type=2 2 2 2 2 2 2 2 2
left_child=7 2 3 6 5 -5 -2 -1 -8
right_child=1 -3 -4 4 -6 -7 8 -9 -10
leaf_value=-0.076120727793091827 0.060749757960438737 -0.03429133767463468 0.099181515375773119 -0.068475304384316718 0.033691274835949851 -0.0038945105423529944 -0.01460989139535848 -0.0084965147432826821 0.033933216976001858
leaf_weight=21 20 37 30 28 21 30 34 21 20
leaf_count=21 20 37 30 28 21 30 34 21 20
internal_value=-8.17573e-12 0.0080771 0.0166434 0.000459452 -0.0167927 -0.0350714 0.0188773 -0.0423086 0.00336904
internal_weight=262 220 183 153 79 58 74 42 54
internal_count=262 220 183 153 79 58 74 42 54
is_linear=0
shrinkage=0.1


Tree=22
num_leaves=10
num_cat=0
split_feature=4 4 4 7 4 3 5 1 3
split_gain=8.53908 11.0747 10.5752 11.7707 9.02226 5.30057 5.04897 5.90762 3.91107
threshold=-1.5650000000000011 -2.1749999999999994 0.88499999999999901 23.080000000000002 0.30499999999999977 3.5000000000000004 22.395000000000003 0.35000000000000003 1.5000000000000002
decision_type=2 2 2 2 2 2 2 2 2
left_child=1 -1 4 6 5 8 7 -4 -2
right_child=2 -3 3 -5 -6 -7 -8 -9 -10
leaf_value=-0.0015990847005293921 0.018945755660533907 -0.091672928276516144 -0.057333132269836606 0.044286299341668688 0.077273781162997102 0.048490421101450923 -0.07798120730689595 0.015293705603107811 -0.035214209191811584
leaf_weight=39 30 21 21 24 30 28 21 24 24
leaf_count=39 30 21 21 24 30 28 21 24 24
internal_value=2.49538e-10 -0.0331249 0.00983909 -0.0156853 0.0303498 0.0131825 -0.0374932 -0.0185988 -0.00512534
internal_weight=262 60 202 90 112 82 66 45 54
internal_count=262 60 202 90 112 82 66 45 54
is_linear=0
shrinkage=0.1


Tree=23
num_leaves=11
num_cat=0
split_feature=2 5 0 3 2 5 0 2 2 0
split_gain=7.55582 9.29745 12.6725 14.1148 7.84965 7.43695 6.79508 4.59661 3.44394 0.542934
threshold=16.950000000000003 13.085714285714287 27.550000000000004 3.5000000000000004 7.5500000000000007 17.720000000000002 22.950000000000003 10.600000000000001 21.800000000000004 6.9000000000000012
decision_type=2 2 2 2 2 2 2 2 2 2
left_child=1 4 3 5 9 -3 -7 -4 -2 -1
right_child=8 2 7 -5 -6 6 -8 -9 -10 -11
leaf_value=0.01488763641404069 -0.066653653801906673 0.062114919789812789 -0.057621018641761369 0.091371835064556872 -0.064385824043441703 -0.044000852674245833 0.032200902700424194 0.0093653193116188058 -0.011721427246928215 -0.007640682682394981
leaf_weight=23 21 22 21 36 27 25 22 20 25 20
leaf_count=23 21 22 21 36 27 25 22 20 25 20
internal_value=6.05715e-10 0.00783686 0.0222026 0.0406125 -0.0221259 0.0141294 -0.00833195 -0.0249448 -0.0367992 0.00440935
internal_weight=262 216 146 105 70 69 47 41 46 43
internal_count=262 216 146 105 70 69 47 41 46 43
is_linear=0
shrinkage=0.1


Tree=24
num_leaves=10
num_cat=0
split_feature=1 5 5 2 3 3 0 5 4
split_gain=7.62206 6.68177 12.3501 10.9724 6.62119 21.6916 6.72501 3.22065 1.52695
threshold=13.750000000000002 13.085714285714287 16.120000000000005 8.4500000000000011 3.5000000000000004 4.5000000000000009 20.250000000000004 26.345000000000006 -0.34500000000000058
decision_type=2 2 2 2 2 2 2 2 2
left_child=1 3 -3 8 6 -6 -4 -8 -1
right_child=-2 2 4 -5 5 -7 7 -9 -10
leaf_value=0.025082524515032262 -0.047431737321118515 0.088752415882689617 -0.052802542641758925 -0.08236825980246068 0.11251531030450548 -0.026651775619635984 0.028547164238989356 -0.013752362297640909 -0.01040841109222836
leaf_weight=22 30 21 25 20 21 24 36 36 27
leaf_count=22 30 21 25 20 21 24 36 36 27
internal_value=2.40695e-10 0.00613341 0.017175 -0.0199504 0.00658964 0.0382929 -0.00811805 0.0073974 0.00552629
internal_weight=262 232 163 69 142 45 97 72 49
internal_count=262 232 163 69 142 45 97 72 49
is_linear=0
shrinkage=0.1


Tree=25
num_leaves=9
num_cat=0
split_feature=3 3 2 1 4 3 3 3
split_gain=6.82046 15.2893 14.8995 7.65639 4.32305 3.59563 4.84011 2.03875
threshold=4.5000000000000009 3.5000000000000004 11.500000000000002 4.7000000000000011 -0.29500000000000032 1.5000000000000002 2.5000000000000004 1.0000000180025095e-35
decision_type=2 2 2 2 2 2 2 2
left_child=1 3 -3 5 -2 7 -7 -1
right_child=4 2 -4 -5 -6 6 -8 -9
leaf_value=0.0044447670105331452 -0.0024095589667558672 0.12373005311004817 0.0057138514259587169 -0.045002450111011671 -0.065979269373676055 -0.038419919816607778 0.0139290576849721 0.03959594288784446
leaf_weight=33 20 20 23 39 23 33 38 33
leaf_count=33 20 20 23 39 23 33 38 33
internal_value=-7.45563e-11 0.00714938 0.0606051 -0.00591083 -0.036412 0.00521745 -0.0104022 0.0220204
internal_weight=262 219 43 176 43 137 71 66
internal_count=262 219 43 176 43 137 71 66
is_linear=0
shrinkage=0.1


Tree=26
num_leaves=11
num_cat=0
split_feature=7 5 0 2 7 5 2 5 2 4
split_gain=6.57256 5.58911 12.5661 8.81262 8.64143 3.6384 4.46194 2.72182 2.55166 2.22697
threshold=8.0300000000000011 13.085714285714287 21.800000000000001 12.550000000000002 11.180000000000001 24.475000000000005 10.600000000000001 27.515000000000004 13.750000000000002 0.91499999999999926
decision_type=2 2 2 2 2 2 2 2 2 2
left_child=8 4 3 -3 -2 -4 -7 -8 -1 -5
right_child=1 2 5 9 -6 6 7 -9 -10 -11
leaf_value=-0.012748413575305182 0.0097681424531497474 0.099179009615403158 -0.044480340803662942 0.0049024975686161607 -0.068984538232061007 -0.031762930843979124 0.047920586319551588 -0.0013764451257884504 -0.062100947201251991 0.04892848152667284
leaf_weight=22 38 23 21 27 22 24 21 24 20 20
leaf_count=22 38 23 21 27 22 24 21 24 20 20
internal_value=-1.9835e-10 0.00692038 0.016681 0.0484579 -0.0191078 -0.00803444 0.00305779 0.0216288 -0.0362496 0.023637
internal_weight=262 220 160 70 60 90 69 45 42 47
internal_count=262 220 160 70 60 90 69 45 42 47
is_linear=0
shrinkage=0.1


Tree=27
num_leaves=9
num_cat=0
split_feature=4 4 4 5 3 7 0 3
split_gain=6.20018 9.66539 8.6114 8.46882 9.61638 8.39816 4.16563 5.93859
threshold=-1.5650000000000011 1.7900000000000011 -2.1749999999999994 27.515000000000004 3.5000000000000004 15.450000000000001 19.350000000000005 1.5000000000000002
decision_type=2 2 2 2 2 2 2 2
left_child=2 3 -1 4 6 -3 7 -2
right_child=1 5 -4 -5 -6 -7 -8 -9
leaf_value=-0.00042653995064588696 0.034222178100250092 -0.079424995630979545 -0.079853989041986928 -0.027066396074048406 0.078172046044731852 0.0026967063094630386 0.045419984459877022 -0.031074095182120801
leaf_weight=39 26 20 21 29 34 33 30 30
leaf_count=39 26 20 21 29 34 33 30 30
internal_value=-1.68136e-10 0.008384 -0.0282261 0.02143 0.03315 -0.0282926 0.0153506 -0.000757968
internal_weight=262 202 60 149 120 53 86 56
internal_count=262 202 60 149 120 53 86 56
is_linear=0
shrinkage=0.1


Tree=28
num_leaves=10
num_cat=0
split_feature=3 3 2 1 4 5 5 2 2
split_gain=6.03458 12.2539 11.726 5.60996 4.00625 2.56115 6.57906 4.9392 2.62922
threshold=4.5000000000000009 3.5000000000000004 12.550000000000002 4.7000000000000011 -0.29500000000000032 13.085714285714287 6.1150000000000011 10.850000000000003 14.550000000000002
decision_type=2 2 2 2 2 2 2 2 2
left_child=1 3 -3 5 -2 6 -1 -7 -9
right_child=4 2 -4 -5 -6 7 -8 8 -10
leaf_value=0.023573402208941326 -0.0015171901881694794 0.10327672517817954 -0.001419253945350647 -0.03842918721911235 -0.062713360332924392 0.052868078579194844 -0.055583251724463136 -0.019123770051768851 0.019367072317335341
leaf_weight=21 20 23 20 39 23 24 21 35 36
leaf_count=21 20 23 20 39 23 24 21 35 36
internal_value=-3.62931e-10 0.00672489 0.0545809 -0.00496721 -0.03425 0.00455846 -0.0160049 0.0136496 0.000392713
internal_weight=262 219 43 176 43 137 42 95 71
internal_count=262 219 43 176 43 137 42 95 71
is_linear=0
shrinkage=0.1


Tree=29
num_leaves=11
num_cat=0
split_feature=7 4 1 0 0 7 5 4 0 4
split_gain=5.58044 6.4858 6.4145 5.93028 5.67646 4.89633 4.64814 2.86438 2.5128 1.38963
threshold=21.035000000000004 1.7900000000000011 0.8500000000000002 21.150000000000002 5.6500000000000012 10.735000000000001 17.845000000000002 1.0000000180025095e-35 23.500000000000004 1.630000000000001
decision_type=2 2 2 2 2 2 2 2 2 2
left_child=1 2 4 -2 -1 -6 -4 -7 -8 -5
right_child=3 -3 6 9 5 7 8 -9 -10 -11
leaf_value=-0.030442309379577637 0.070715090557932861 -0.049584900494664907 -0.058525909662246703 0.021708579423526924 0.068104297938671982 0.033481722958385945 0.021549697704613208 -0.011866647950731793 -0.027977799092020306 -0.013515627171312059
leaf_weight=21 20 32 25 24 22 30 20 26 21 21
leaf_count=21 20 32 25 24 22 30 20 26 21 21
internal_value=2.37452e-10 -0.00838314 -0.000392501 0.0254074 0.0157063 0.0281309 -0.0245407 0.0124271 -0.00381804 0.00527062
internal_weight=262 197 165 65 99 78 66 56 41 45
internal_count=262 197 165 65 99 78 66 56 41 45
is_linear=0
shrinkage=0.1


Tree=30
num_leaves=11
num_cat=0
split_feature=4 4 4 4 7 3 1 3 2 7
split_gain=5.39714 7.38341 8.38981 6.8807 6.09058 5.70983 6.26814 3.12959 1.7049 0.561813
threshold=-1.5650000000000011 0.76500000000000068 0.30499999999999977 -2.1749999999999994 23.335000000000004 2.5000000000000004 0.65000000000000002 2.5000000000000004 11.050000000000002 13.425000000000002
decision_type=2 2 2 2 2 2 2 2 2 2
left_child=3 2 7 -1 5 6 -3 9 -9 -2
right_child=1 4 -4 -5 -6 -7 -8 8 -10 -11
leaf_value=-0.0014853523709835153 -0.019296384331854908 -0.040588825792074207 0.078019072953611615 -0.072483985232455403 0.032606344799632613 -0.057196530248179583 0.038582744291052226 0.010169585123658181 0.051459985524415976 0.0038612475991249085
leaf_weight=39 22 20 24 21 23 33 20 20 20 20
leaf_count=39 22 20 24 21 23 33 20 20 20 20
internal_value=1.15882e-10 0.00782224 0.0260165 -0.0263349 -0.0122673 -0.0264056 -0.00100304 0.0107963 0.0308148 -0.00826894
internal_weight=262 202 106 60 96 73 40 82 40 42
internal_count=262 202 106 60 96 73 40 82 40 42
is_linear=0
shrinkage=0.1


Tree=31
num_leaves=11
num_cat=0
split_feature=2 5 0 3 4 7 7 7 2 2
split_gain=5.4022 4.86419 8.66654 9.37985 5.42302 4.66764 4.37194 5.00551 2.81973 2.79137
threshold=16.950000000000003 13.085714285714287 27.550000000000004 3.5000000000000004 -0.70999999999999897 18.650000000000002 11.180000000000001 10.135000000000002 21.800000000000004 10.600000000000001
decision_type=2 2 2 2 2 2 2 2 2 2
left_child=1 6 3 4 -3 -6 7 -1 -2 -4
right_child=8 2 9 -5 5 -7 -8 -9 -10 -11
leaf_value=-0.030000876508653164 -0.058129689948899416 -0.025400138203090492 -0.047435977451858069 0.073620597242067251 0.064642036587677226 -0.0012695872357913428 -0.053220589121892342 0.033935314603149892 -0.0084243595451116565 0.0047646691929548977
leaf_weight=25 21 26 21 36 22 21 21 24 25 20
leaf_count=25 21 26 21 36 22 21 21 24 25 20
internal_value=1.00864e-10 0.00662654 0.0170174 0.0322419 0.010653 0.0324526 -0.0150458 0.00131481 -0.0311159 -0.0219722
internal_weight=262 216 146 105 69 43 70 49 46 41
internal_count=262 216 146 105 69 43 70 49 46 41
is_linear=0
shrinkage=0.1


Tree=32
num_leaves=11
num_cat=0
split_feature=3 3 2 7 4 7 7 0 0 0
split_gain=5.60231 9.00302 9.60229 4.3057 3.25622 2.44344 4.97612 4.31901 3.55631 0.876548
threshold=4.5000000000000009 3.5000000000000004 11.500000000000002 8.0300000000000011 -0.29500000000000032 16.330000000000002 20.485000000000003 17.300000000000004 6.9000000000000012 26.350000000000005
decision_type=2 2 2 2 2 2 2 2 2 2
left_child=1 3 -3 -1 -2 7 -7 8 -5 -8
right_child=4 2 -4 5 -6 6 9 -9 -10 -11
leaf_value=-0.043883394976348987 -0.0034903607144951818 0.098175383533816787 0.0034333657149387443 0.028828830855048223 -0.058661547108836802 -0.041131267816789691 -0.0025563481077551845 0.047962788578409417 -0.022395085667570435 0.027050213133916257
leaf_weight=23 20 20 23 23 23 31 20 26 33 20
leaf_count=23 20 20 23 23 23 31 20 26 33 20
internal_value=-6.20289e-11 0.00647956 0.0474994 -0.00354234 -0.0330005 0.002522 -0.011059 0.0142812 -0.00135669 0.0122469
internal_weight=262 219 43 176 43 153 71 82 56 40
internal_count=262 219 43 176 43 153 71 82 56 40
is_linear=0
shrinkage=0.1


Tree=33
num_leaves=10
num_cat=0
split_feature=2 5 5 4 3 1 2 2 5
split_gain=4.6287 4.55556 5.68552 5.70505 10.3345 13.7987 5.32455 5.14864 0.843693
threshold=22.550000000000004 13.085714285714287 17.050000000000001 1.6700000000000002 2.5000000000000004 0.25000000000000006 13.950000000000001 8.4500000000000011 5.8900000000000015
decision_type=2 2 2 2 2 2 2 2 2
left_child=1 7 -3 4 6 -6 -4 8 -1
right_child=-2 2 3 -5 5 -7 -8 -9 -10
leaf_value=-0.014559476952189985 -0.043900882452726366 0.059166169425715578 -0.042561653951803842 -0.027650960770092516 -0.0010007922848065695 0.096608982647636121 0.024050115747377279 -0.060233476711437112 0.011288967302867346
leaf_weight=23 22 23 30 38 30 28 20 20 28
leaf_count=23 22 23 30 38 30 28 20 20 28
internal_value=-1.56405e-11 0.00402425 0.0129542 0.00567427 0.0173998 0.0461212 -0.0159169 -0.0172316 -0.000368174
internal_weight=262 240 169 146 108 58 50 71 51
internal_count=262 240 169 146 108 58 50 71 51
is_linear=0
shrinkage=0.1


Tree=34
num_leaves=10
num_cat=0
split_feature=3 7 3 2 5 0 2 2 2
split_gain=4.95712 8.6656 15.774 3.94606 4.69061 3.00445 4.9799 3.14649 2.77204
threshold=4.5000000000000009 20.735000000000003 2.5000000000000004 8.4500000000000011 7.0600000000000014 17.300000000000004 12.350000000000003 16.950000000000003 11.65
decision_type=2 2 2 2 2 2 2 2 2
left_child=1 3 -3 4 -1 -5 -7 -8 -2
right_child=8 2 -4 5 -6 6 7 -9 -10
leaf_value=-0.01054882543354199 -0.058270086068660021 -0.0082063576173303388 0.10356058229783388 -0.038926640716601624 0.047945040120528297 -0.041858924242357418 0.037809079050874488 -0.011388209677086427 -0.007365712102340616
leaf_weight=29 20 28 23 37 26 24 26 26 23
leaf_count=29 20 28 23 37 26 24 26 26 23
internal_value=3.84682e-10 0.00609504 0.0421983 -0.00486489 0.0171028 -0.0155571 -0.00417989 0.0132104 -0.0310422
internal_weight=262 219 51 168 55 113 76 52 43
internal_count=262 219 51 168 55 113 76 52 43
is_linear=0
shrinkage=0.1


Tree=35
num_leaves=9
num_cat=0
split_feature=4 4 4 5 0 7 7 7
split_gain=4.60805 6.05899 5.7912 6.94741 5.86082 5.58712 3.98262 2.36794
threshold=-1.5650000000000011 -2.1749999999999994 1.7900000000000011 27.515000000000004 20.950000000000003 15.450000000000001 11.665000000000001 10.135000000000002
decision_type=2 2 2 2 2 2 2 2
left_child=1 -1 3 4 6 -4 7 -2
right_child=2 -3 5 -5 -6 -7 -8 -9
leaf_value=-0.0010151222634773988 0.0086675848190983142 -0.067639608574765073 -0.062868020534515387 -0.026598572576868124 0.064589802967384466 0.0041142782422177717 -0.011563901251980237 0.051131385847412308
leaf_weight=39 24 21 20 29 32 33 35 29
leaf_count=39 24 21 20 29 32 33 35 29
internal_value=-2.06171e-11 -0.0243337 0.00722783 0.0173262 0.0279414 -0.0211621 0.0146147 0.0319025
internal_weight=262 60 202 149 120 53 88 53
internal_count=262 60 202 149 120 53 88 53
is_linear=0
shrinkage=0.1


Tree=36
num_leaves=10
num_cat=0
split_feature=1 3 3 3 7 7 2 2 2
split_gain=3.91763 4.75333 7.25903 2.84512 3.77691 2.8651 2.57255 2.03448 3.44186
threshold=17.450000000000006 4.5000000000000009 3.5000000000000004 1.5000000000000002 10.735000000000001 20.080000000000002 11.65 14.550000000000002 9.7500000000000018
decision_type=2 2 2 2 2 2 2 2 2
left_child=1 2 3 4 -1 -6 -3 8 -5
right_child=-2 6 -4 7 5 -7 -8 -9 -10
leaf_value=0.047779326948026821 -0.038507352113568538 -0.052762323040515181 0.050247942892884895 -0.00030214384649739122 -0.017564569265746021 0.030134803790133446 -0.00264948939993268 0.013321657349234043 -0.048951679550541138
leaf_weight=24 24 20 37 33 34 20 21 23 26
leaf_count=24 24 20 37 33 34 20 21 23 26
internal_value=-1.16771e-10 0.00388309 0.0103303 0.0010993 0.0147719 0.000101865 -0.0270948 -0.0119063 -0.0217409
internal_weight=262 238 197 160 78 54 41 82 59
internal_count=262 238 197 160 78 54 41 82 59
is_linear=0
shrinkage=0.1


Tree=37
num_leaves=10
num_cat=0
split_feature=7 4 4 0 3 5 4 1 5
split_gain=3.74951 4.96423 6.70599 4.23078 7.49427 3.73702 3.28687 1.51681 1.74484
threshold=10.700000000000001 -1.1350000000000005 1.1950000000000005 21.800000000000001 3.5000000000000004 13.085714285714287 0.48000000000000048 1.7500000000000002 26.180000000000003
decision_type=2 2 2 2 2 2 2 2 2
left_child=1 -1 -3 4 5 -2 -7 8 -5
right_child=3 2 -4 7 -6 6 -8 -9 -10
leaf_value=-0.044139469226234053 -0.031355585672316104 0.038414397047689335 -0.037562949778068636 -0.037775570640097497 0.063187168217864964 0.049404052596073604 -0.0079271485283970832 0.014138081216293834 -0.0030477773016079879
leaf_weight=38 21 26 21 23 31 20 20 23 39
leaf_count=38 21 26 21 23 31 20 20 23 39
internal_value=-1.03885e-10 -0.0172629 0.00446707 0.0082901 0.0231508 0.00280444 0.0207385 -0.00779442 -0.0159307
internal_weight=262 85 47 177 92 61 40 85 62
internal_count=262 85 47 177 92 61 40 85 62
is_linear=0
shrinkage=0.1


Tree=38
num_leaves=11
num_cat=0
split_feature=2 0 0 3 3 2 4 2 1 7
split_gain=3.57688 3.60905 6.29177 13.5486 5.47795 4.23906 3.81387 3.29388 3.25852 1.7642
threshold=16.950000000000003 11.450000000000001 27.550000000000004 3.5000000000000004 1.5000000000000002 7.1000000000000005 -0.70999999999999897 21.800000000000004 0.35000000000000003 22.020000000000003
decision_type=2 2 2 2 2 2 2 2 2 2
left_child=1 4 3 6 -1 -6 -3 -2 -8 -4
right_child=7 2 9 -5 5 -7 8 -9 -10 -11
leaf_value=0.027711691654154231 -0.054515965424832849 -0.028989685856952122 -0.040817971378564834 0.076652074186131361 -0.0047062872544578888 -0.066848643035406163 -0.0097598920660940097 -0.00079384056478738795 0.042531843598072348 0.00068133563867637094
leaf_weight=21 21 26 20 36 23 21 22 25 26 21
leaf_count=21 21 26 20 36 23 21 22 25 26 21
internal_value=-4.06654e-10 0.00539204 0.0138729 0.026335 -0.0143095 -0.0343651 0.00185647 -0.0253192 0.0185648 -0.0195622
internal_weight=262 216 151 110 65 44 74 46 48 41
internal_count=262 216 151 110 65 44 74 46 48 41
is_linear=0
shrinkage=0.1


Tree=39
num_leaves=11
num_cat=0
split_feature=3 7 2 7 1 4 0 2 2 5
split_gain=3.70208 6.65702 5.41186 3.63203 3.49487 2.63561 2.20116 9.5345 4.59964 3.27083
threshold=4.5000000000000009 21.860000000000003 12.65 19.040000000000003 17.450000000000006 -0.29500000000000032 18.750000000000004 12.250000000000002 14.550000000000002 7.0600000000000014
decision_type=2 2 2 2 2 2 2 2 2 2
left_child=1 3 -3 4 6 -2 7 9 -8 -1
right_child=5 2 -4 -5 -6 -7 8 -9 -10 -11
leaf_value=-0.003710146708181128 -0.00027682549320161347 0.076851276432474469 0.0058793458748947489 -0.039502723002806307 -0.034502190554683863 -0.049912750656190129 -0.0060686734747951443 -0.059432910950410936 0.056512167615195119 0.042250804960106809
leaf_weight=32 20 21 22 24 22 23 23 21 24 30
leaf_count=32 20 21 22 24 22 23 23 21 24 30
internal_value=-1.8271e-10 0.00526726 0.0405401 -0.00335053 0.00235771 -0.0268263 0.00859555 -0.00119629 0.0258875 0.018529
internal_weight=262 219 43 176 152 43 130 83 47 62
internal_count=262 219 43 176 152 43 130 83 47 62
is_linear=0
shrinkage=0.1


Tree=40
num_leaves=9
num_cat=0
split_feature=4 4 4 5 0 2 7 2
split_gain=3.21198 5.22122 4.56138 4.94983 5.38254 4.05122 3.22011 2.14225
threshold=-1.5650000000000011 -2.1749999999999994 1.7900000000000011 27.515000000000004 20.950000000000003 11.65 11.665000000000001 6.9500000000000011
decision_type=2 2 2 2 2 2 2 2
left_child=1 -1 3 4 6 -4 7 -2
right_child=2 -3 5 -5 -6 -7 -8 -9
leaf_value=0.0013306196683492417 0.0028650817376646132 -0.060516530665613355 -0.047335451318380926 -0.022079406318993407 0.059077920072013512 0.0079692879450266024 -0.012354171802955016 0.043667011347509201
leaf_weight=39 22 21 26 29 32 27 35 31
leaf_count=39 22 21 26 29 32 27 35 31
internal_value=-5.3711e-10 -0.0203159 0.00603442 0.0149967 0.0239567 -0.0191613 0.0111854 0.0267304
internal_weight=262 60 202 149 120 53 88 53
internal_count=262 60 202 149 120 53 88 53
is_linear=0
shrinkage=0.1


Tree=41
num_leaves=11
num_cat=0
split_feature=2 5 0 1 2 7 2 2 2 2
split_gain=3.20435 3.21344 5.08876 5.58697 5.52182 3.17683 3.14155 2.89213 1.55163 1.43681
threshold=16.950000000000003 13.085714285714287 27.550000000000004 8.2500000000000018 10.950000000000001 11.180000000000001 6.9500000000000011 21.800000000000004 13.15 10.600000000000001
decision_type=2 2 2 2 2 2 2 2 2 2
left_child=1 5 3 4 -3 6 -1 -2 -6 -4
right_child=7 2 9 -5 8 -7 -8 -9 -10 -11
leaf_value=-0.023374291002750399 -0.051322847817625319 0.077532208109429734 -0.034596464463642666 -0.019589179313995623 0.0052283288250046392 -0.045053024696452282 0.027277476231878001 -0.00098340656980872173 0.037704109846215167 0.0028548876941204074
leaf_weight=25 21 24 21 22 31 21 24 25 28 20
leaf_count=25 21 24 21 22 31 21 24 25 28 20
internal_value=-5.11872e-11 0.00510354 0.0135492 0.0252153 0.0370912 -0.0125116 0.00143474 -0.0239645 0.0206406 -0.0163275
internal_weight=262 216 146 105 83 70 49 46 59 41
internal_count=262 216 146 105 83 70 49 46 59 41
is_linear=0
shrinkage=0.1


Tree=42
num_leaves=10
num_cat=0
split_feature=7 0 3 4 4 4 0 4 2
split_gain=3.22368 3.38432 5.83416 3.27463 3.18286 3.7545 1.61041 1.90728 2.57459
threshold=10.700000000000001 21.150000000000002 3.5000000000000004 0.41500000000000009 -1.7450000000000008 1.1950000000000005 24.200000000000006 -0.40499999999999975 11.500000000000002
decision_type=2 2 2 2 2 2 2 2 2
left_child=4 2 3 -2 -1 -6 -3 -8 -9
right_child=1 6 -4 -5 5 -7 7 8 -10
leaf_value=-0.042896937835833121 0.023425787943415346 -0.030155604563298678 0.056555972104111035 -0.025438850489445032 0.017975187764636108 -0.035509144195488528 -0.02455230861902237 -0.0077581712909575024 0.038561254047921732
leaf_weight=29 32 21 31 24 35 21 20 28 21
leaf_count=29 32 21 31 24 35 21 20 28 21
internal_value=-1.72757e-10 0.00768685 0.0217509 0.0024838 -0.0160067 -0.00208144 -0.0059084 0.00147118 0.012093
internal_weight=262 177 87 56 85 56 90 69 49
internal_count=262 177 87 56 85 56 90 69 49
is_linear=0
shrinkage=0.1


Tree=43
num_leaves=11
num_cat=0
split_feature=3 7 3 4 0 4 1 2 0 4
split_gain=3.08608 5.53686 11.3133 2.37042 2.36923 3.93146 5.12139 3.543 3.36402 3.01738
threshold=4.5000000000000009 20.735000000000003 2.5000000000000004 -0.29500000000000032 9.9500000000000011 -0.70999999999999897 0.35000000000000003 13.350000000000003 18.750000000000004 -0.34500000000000058
decision_type=2 2 2 2 2 2 2 2 2 2
left_child=1 4 -3 -2 9 8 -7 -8 -6 -1
right_child=3 2 -4 -5 5 6 7 -9 -10 -11
leaf_value=0.039909282078345619 0.00068544134497642521 -0.0090189138560422839 0.085634627808695254 -0.046387172781902818 -0.060631794709226361 -0.028899144248238636 -0.0041483395174145695 0.054006218041335652 -0.0094201937751394928 -0.011362294856966897
leaf_weight=24 20 28 23 23 23 28 20 22 29 22
leaf_count=24 20 28 23 23 23 28 20 22 29 22
internal_value=2.19056e-10 0.00480912 0.033668 -0.0244929 -0.00395161 -0.0112436 0.00422849 0.0263136 -0.0320715 0.0153881
internal_weight=262 219 51 43 168 122 70 42 52 46
internal_count=262 219 51 43 168 122 70 42 52 46
is_linear=0
shrinkage=0.1


Tree=44
num_leaves=10
num_cat=0
split_feature=2 0 5 3 2 4 3 7 2
split_gain=2.88138 3.36304 4.90615 4.83993 4.46734 3.97728 8.01153 2.1994 4.06439
threshold=22.550000000000004 11.450000000000001 16.120000000000005 1.5000000000000002 7.1000000000000005 1.6700000000000002 3.5000000000000004 13.245000000000003 13.500000000000002
decision_type=2 2 2 2 2 2 2 2 2
left_child=1 3 -3 -1 -5 6 7 -4 -9
right_child=-2 2 5 4 -6 -7 -8 8 -10
leaf_value=0.023595645393998849 -0.034637300382283603 0.05349051387089751 -0.033394800887132689 -0.0037291925238526384 -0.066760409081524072 -0.024074582755565645 0.050001289325360312 -0.016713086837394673 0.040416861046105625
leaf_weight=21 22 23 21 23 22 38 39 33 20
leaf_count=21 22 23 21 23 22 38 39 33 20
internal_value=4.46111e-11 0.00317509 0.0104656 -0.0160453 -0.0345445 0.00391212 0.0133236 -0.00600656 0.00484538
internal_weight=262 240 174 66 45 151 113 74 53
internal_count=262 240 174 66 45 151 113 74 53
is_linear=0
shrinkage=0.1


Tree=45
num_leaves=12
num_cat=0
split_feature=3 7 2 7 1 4 0 2 2 7 5
split_gain=2.85721 4.70342 5.067 3.21164 2.17427 2.0244 1.98253 7.10868 3.38751 2.62762 2.04244
threshold=4.5000000000000009 21.860000000000003 12.65 19.040000000000003 17.450000000000006 -0.29500000000000032 18.750000000000004 12.250000000000002 14.550000000000002 11.180000000000001 6.4900000000000011
decision_type=2 2 2 2 2 2 2 2 2 2 2
left_child=1 3 -3 4 6 -2 7 9 -8 10 -1
right_child=5 2 -4 -5 -6 -7 8 -9 -10 -11 -12
leaf_value=0.0083626933151944773 -0.00029898978769779208 0.069411371985361695 0.00073793642222881324 -0.036612044697782647 -0.026322042952101173 -0.043800438616586772 -0.0033419412277314975 -0.051906741703195237 0.050363700060794749 -0.013354468660517819 0.053014756925404076
leaf_weight=21 20 21 22 24 22 23 23 21 24 21 20
leaf_count=21 20 21 22 24 22 23 23 21 24 21 20
internal_value=-2.09681e-10 0.00462735 0.0342761 -0.00261638 0.00275135 -0.0235672 0.00767146 -0.00162137 0.0240822 0.0154108 0.0301442
internal_weight=262 219 43 176 152 43 130 83 47 62 41
internal_count=262 219 43 176 152 43 130 83 47 62 41
is_linear=0
shrinkage=0.1


Tree=46
num_leaves=9
num_cat=0
split_feature=7 0 3 5 4 3 7 5
split_gain=2.44833 2.94088 4.66297 3.05037 2.24013 3.13334 1.67108 1.93757
threshold=10.700000000000001 21.150000000000002 3.5000000000000004 13.085714285714287 -1.7450000000000008 1.5000000000000002 19.040000000000003 26.315000000000005
decision_type=2 2 2 2 2 2 2 2
left_child=4 2 3 -2 -1 -6 -3 -8
right_child=1 6 -4 -5 5 -7 7 -9
leaf_value=-0.036508715576652827 -0.027546180110602156 0.011934074849793405 0.050925362254342722 0.020662624069622586 0.02713894986716861 -0.021294689518125617 -0.040482180884906224 -0.0022608796858953105
leaf_weight=29 21 33 31 35 22 34 21 36
leaf_count=29 21 33 31 35 22 34 21 36
internal_value=-2.09725e-11 0.00669896 0.0198093 0.00258432 -0.0139496 -0.00226719 -0.00597437 -0.0163424
internal_weight=262 177 87 56 85 56 90 57
internal_count=262 177 87 56 85 56 90 57
is_linear=0
shrinkage=0.1


Tree=47
num_leaves=11
num_cat=0
split_feature=3 7 3 0 4 3 1 4 0 4
split_gain=2.47654 3.94605 8.01079 1.95002 2.64408 4.16335 6.06894 2.44978 2.34978 1.68092
threshold=4.5000000000000009 20.485000000000003 2.5000000000000004 9.9500000000000011 -0.70999999999999897 2.5000000000000004 0.65000000000000002 -0.77499999999999847 18.750000000000004 -0.29500000000000032
decision_type=2 2 2 2 2 2 2 2 2 2
left_child=1 3 -3 7 8 6 -6 -1 -5 -2
right_child=9 2 -4 4 5 -7 -8 -9 -10 -11
leaf_value=0.040541077665984637 -0.00073862314224243169 -0.0086717264859804098 0.069208410620689387 -0.050831461887624441 -0.020375451501458884 -0.031617211129354394 0.053530218722298739 -0.0060112107258576616 -0.0080306576372220599 -0.040378146294666378
leaf_weight=20 20 28 25 23 20 23 25 26 29 23
leaf_count=20 20 28 25 23 20 23 25 26 29 23
internal_value=2.20967e-10 0.00430808 0.0280642 -0.0032767 -0.00998718 0.00299339 0.0206833 0.0142289 -0.0269618 -0.0219412
internal_weight=262 219 53 166 120 68 45 46 52 43
internal_count=262 219 53 166 120 68 45 46 52 43
is_linear=0
shrinkage=0.1


Tree=48
num_leaves=11
num_cat=0
split_feature=2 5 0 3 5 0 5 2 7 7
split_gain=2.37293 2.874 4.76192 3.80258 3.84548 3.98585 2.88591 2.56496 0.924307 0.871817
threshold=16.950000000000003 13.085714285714287 27.550000000000004 3.5000000000000004 17.720000000000002 22.950000000000003 10.040000000000001 21.800000000000004 10.395000000000001 22.020000000000003
decision_type=2 2 2 2 2 2 2 2 2 2
left_child=1 6 3 4 -3 -6 8 -2 -1 -4
right_child=7 2 9 -5 5 -7 -8 -9 -10 -11
leaf_value=0.016884550106312551 -0.046386948085966564 0.044423846273937008 -0.031464610323309904 0.050010397740536262 -0.033551424550823869 0.024810309166258034 -0.043282645204592324 0.0010197571851313116 -0.010868939863783974 -0.0022916928643272037
leaf_weight=21 21 22 20 36 25 22 21 25 28 21
leaf_count=21 21 22 20 36 25 22 21 25 28 21
internal_value=2.84462e-10 0.00439182 0.0123789 0.0236642 0.00991835 -0.00623317 -0.012267 -0.0206224 0.00102541 -0.0165224
internal_weight=262 216 146 105 69 47 70 46 49 41
internal_count=262 216 146 105 69 47 70 46 49 41
is_linear=0
shrinkage=0.1


Tree=49
num_leaves=11
num_cat=0
split_feature=2 0 3 2 5 4 3 2 7 3
split_gain=2.31827 2.86076 3.85142 4.2852 3.73279 3.33126 6.91126 3.21549 2.34596 3.63866
threshold=22.550000000000004 10.800000000000002 1.5000000000000002 7.1000000000000005 14.835000000000001 0.76500000000000068 3.5000000000000004 14.300000000000002 23.335000000000004 2.5000000000000004
decision_type=2 2 2 2 2 2 2 2 2 2
left_child=1 2 -1 -4 -3 6 7 -6 9 -7
right_child=-2 4 3 -5 5 8 -8 -9 -10 -11
leaf_value=0.019514698082847254 -0.031068875179202721 0.047908033159646118 -0.00099349994034994213 -0.064877301099754522 -0.021763227512506214 0.0027882164787678496 0.05542408297459285 0.024661434829235079 0.014469512999057771 -0.05540659319270741
leaf_weight=21 22 22 21 21 37 21 30 25 20 22
leaf_count=21 22 22 21 21 37 21 30 25 20 22
internal_value=4.30115e-11 0.00284798 -0.015452 -0.0329354 0.00936154 0.00389043 0.0160219 -0.00304361 -0.0138254 -0.0269859
internal_weight=262 240 63 42 177 155 92 62 63 43
internal_count=262 240 63 42 177 155 92 62 63 43
is_linear=0
shrinkage=0.1


Tree=50
num_leaves=11
num_cat=0
split_feature=3 7 7 7 1 0 2 2 7 2
split_gain=2.34041 3.24212 4.83767 2.54824 1.88463 1.77849 5.58272 2.6758 2.32077 1.34923
threshold=4.5000000000000009 21.860000000000003 24.035000000000004 19.040000000000003 17.450000000000006 18.750000000000004 12.250000000000002 14.550000000000002 10.305000000000001 11.65
decision_type=2 2 2 2 2 2 2 2 2 2
left_child=1 3 -3 4 5 6 8 -7 -1 -2
right_child=9 2 -4 -5 -6 7 -8 -9 -10 -11
leaf_value=0.039021536055952315 -0.040325443986803294 0.060081526539895846 -0.0071655306592583656 -0.0321077830856666 -0.024112470773980023 -0.0012943174528039021 -0.045828274335889596 0.046437287765244646 -0.0010296697608935528 -0.0048114984579708271
leaf_weight=23 20 23 20 24 22 23 21 24 39 23
leaf_count=23 20 23 20 24 22 23 21 24 39 23
internal_value=2.07593e-10 0.00418801 0.0288038 -0.00182609 0.00295523 0.00753592 -0.00126573 0.0230793 0.013828 -0.0213296
internal_weight=262 219 43 176 152 130 83 47 62 43
internal_count=262 219 43 176 152 130 83 47 62 43
is_linear=0
shrinkage=0.1


Tree=51
num_leaves=9
num_cat=0
split_feature=6 3 3 5 5 4 7 0
split_gain=2.11603 3.32617 4.19364 2.86991 3.48678 4.36593 4.00739 1.91162
threshold=2.5000000000000004 4.5000000000000009 3.5000000000000004 13.348750000000003 17.630000000000003 -1.6150000000000009 17.000000000000004 27.750000000000004
decision_type=2 2 2 2 2 2 2 2
left_child=-1 2 3 -2 -5 -6 -7 -8
right_child=1 -3 -4 4 5 6 7 -9
leaf_value=0.026513216147820158 -0.030272052128400125 -0.029716863559606749 0.031609162936608003 0.038255006447434431 -0.045061087794601919 0.036531529161665181 -0.029366002121457346 0.009422077549000582
leaf_weight=27 35 39 39 22 22 27 27 24
leaf_count=27 35 39 39 22 22 27 27 24
internal_value=-4.2656e-11 -0.0030462 0.00226072 -0.00502966 0.00221201 -0.00571745 0.00537948 -0.0111128
internal_weight=262 235 196 157 122 100 78 51
internal_count=262 235 196 157 122 100 78 51
is_linear=0
shrinkage=0.1


Tree=52
num_leaves=10
num_cat=0
split_feature=2 7 4 0 2 0 5 2 4
split_gain=1.98559 2.33413 5.56093 5.2597 3.69489 4.72518 3.34616 2.34881 1.13474
threshold=22.550000000000004 15.450000000000001 1.1950000000000005 21.150000000000002 13.500000000000002 11.450000000000001 5.9850000000000012 14.300000000000002 0.63499999999999812
decision_type=2 2 2 2 2 2 2 2 2
left_child=1 2 4 -3 5 6 -1 8 -5
right_child=-2 3 -4 7 -6 -7 -8 -9 -10
leaf_value=0.027659420782457228 -0.028753364306281917 0.045388103734169689 -0.048784869036171588 -0.029985560849308968 -0.029103695715849216 0.051413343322928996 -0.0220279988240112 0.027614348754286769 -0.00048310800921171906
leaf_weight=23 22 35 25 22 26 24 33 20 32
leaf_count=23 22 35 25 22 26 24 33 20 32
internal_value=-2.36252e-10 0.00263572 -0.00635996 0.0134471 0.00364591 0.0142895 -0.00162067 -0.0016602 -0.0125026
internal_weight=262 240 131 109 106 80 56 74 54
internal_count=262 240 131 109 106 80 56 74 54
is_linear=0
shrinkage=0.1


Tree=53
num_leaves=10
num_cat=0
split_feature=7 7 4 4 1 0 5 2 5
split_gain=1.75191 8.2262 3.75983 2.47231 3.03749 3.40751 3.72232 1.86636 1.27516
threshold=22.320000000000004 20.735000000000003 1.277500000000001 1.7900000000000011 2.3000000000000003 10.800000000000002 20.735000000000003 12.250000000000002 5.9850000000000012
decision_type=2 2 2 2 2 2 2 2 2
left_child=1 3 -2 4 5 8 -7 -6 -1
right_child=2 -3 -4 -5 7 6 -8 -9 -10
leaf_value=0.0094216051045805226 -0.045177547965431587 0.063275994129833729 0.011402501813743426 -0.028498261169560498 0.0044893513010306795 0.051898333093061327 0.0020554842106227217 -0.033857342874010404 -0.022258053250886776
leaf_weight=24 24 21 23 31 22 31 29 30 27
leaf_count=24 24 21 23 31 22 31 29 30 27
internal_value=2.5247e-10 0.00382327 -0.0174894 -0.00261233 0.00231076 0.0116541 0.0278076 -0.0176337 -0.00734998
internal_weight=262 215 47 194 163 111 60 52 51
internal_count=262 215 47 194 163 111 60 52 51
is_linear=0
shrinkage=0.1


Tree=54
num_leaves=11
num_cat=0
split_feature=5 7 7 6 7 2 7 3 2 5
split_gain=1.69391 2.92723 10.51 2.32641 2.75754 4.55734 3.98964 2.88783 1.5579 1.50163
threshold=29.065000000000001 20.080000000000002 22.320000000000004 2.5000000000000004 11.180000000000001 13.750000000000002 10.135000000000002 2.5000000000000004 15.400000000000002 12.58
decision_type=2 2 2 2 2 2 2 2 2 2
left_child=1 3 -3 -1 6 7 8 -6 9 -5
right_child=-2 2 -4 4 5 -7 -8 -9 -10 -11
leaf_value=0.027340345510414671 -0.026557614315639844 0.076568585710430695 -0.010282249552638907 -0.01812094972424564 -0.01704007503779038 0.012903374433517457 0.040392365865409376 -0.067717785303565592 -0.030475002832033415 0.017831928956394013
leaf_weight=21 22 22 38 21 23 23 22 22 22 26
leaf_count=21 22 22 38 21 23 23 22 22 22 26
internal_value=-1.97639e-10 0.00243445 0.0215631 -0.00394176 -0.00807335 -0.0233079 0.00331068 -0.0418158 -0.00851246 0.00176788
internal_weight=262 240 60 180 159 68 91 45 69 47
internal_count=262 240 60 180 159 68 91 45 69 47
is_linear=0
shrinkage=0.1


Tree=55
num_leaves=11
num_cat=0
split_feature=3 7 2 7 0 3 2 3 2 4
split_gain=1.73028 2.5234 4.07146 2.87207 1.86396 2.12515 3.20234 7.4838 3.11403 1.14063
threshold=4.5000000000000009 21.860000000000003 12.65 19.040000000000003 23.700000000000006 1.0000000180025095e-35 9.3500000000000032 2.5000000000000004 6.8500000000000005 -0.29500000000000032
decision_type=2 2 2 2 2 2 2 2 2 2
left_child=1 3 -3 4 5 -1 8 -8 -7 -2
right_child=9 2 -4 -5 -6 6 7 -9 -10 -11
leaf_value=-0.026791198317099502 -0.00087408434599637978 0.056812699724520958 -0.0047458448870615526 -0.033853053937976559 0.026177302645198231 -0.0022415192681364718 0.023022607570657366 -0.05622454295781526 0.04869985544743638 -0.03352741301059723
leaf_weight=27 20 21 22 24 29 24 26 22 24 23
leaf_count=27 20 21 22 24 29 24 26 22 24 23
internal_value=-1.21214e-10 0.00360097 0.0253176 -0.00170481 0.00337123 -0.00200581 0.00496508 -0.013299 0.0232292 -0.0183398
internal_weight=262 219 43 176 152 123 96 48 48 43
internal_count=262 219 43 176 152 123 96 48 48 43
is_linear=0
shrinkage=0.1


Tree=56
num_leaves=11
num_cat=0
split_feature=4 5 7 0 6 7 2 4 4 5
split_gain=1.77394 2.42968 4.03313 8.06741 1.62783 2.89533 6.27801 5.39737 3.11756 0.216968
threshold=2.1650000000000014 29.065000000000001 20.080000000000002 20.950000000000003 2.5000000000000004 11.180000000000001 13.750000000000002 -1.0349999999999964 -2.1749999999999994 19.735000000000003
decision_type=2 2 2 2 2 2 2 2 2 2
left_child=1 2 4 -4 -1 7 9 8 -6 -7
right_child=-2 -3 3 -5 5 6 -8 -9 -10 -11
leaf_value=0.025333924094835921 -0.020955467798880169 -0.029171985849028543 -0.0085418497677892443 0.078110495919273021 0.011596027240157129 -0.03682977229356766 0.023325884767941066 0.034684158829399028 -0.042955356396057388 -0.051559604108333594
leaf_weight=21 35 21 22 21 20 20 21 39 22 20
leaf_count=21 35 21 22 21 20 20 21 39 22 20
internal_value=5.332e-13 0.00323102 0.00653424 0.0337767 -0.000652433 -0.00449549 -0.0209499 0.00789611 -0.0169785 -0.0441947
internal_weight=262 227 206 43 163 142 61 81 42 40
internal_count=262 227 206 43 163 142 61 81 42 40
is_linear=0
shrinkage=0.1


Tree=57
num_leaves=10
num_cat=0
split_feature=2 2 2 2 4 2 0 2 4
split_gain=1.81302 2.77791 2.58277 3.50742 4.60977 3.3693 3.3479 2.97994 2.92715
threshold=16.950000000000003 21.800000000000004 10.450000000000001 8.0500000000000025 0.48000000000000048 11.950000000000001 16.350000000000005 14.550000000000002 0.88499999999999901
decision_type=2 2 2 2 2 2 2 2 2
left_child=2 -2 3 4 -1 -4 -7 -8 -5
right_child=1 -3 5 8 -6 6 7 -9 -10
leaf_value=-0.011945379605969869 -0.044838701685269676 0.0044966821670532229 0.043666843992882759 -0.005036421775817871 0.047642971640452746 -0.027432939877811199 0.00040588807792235642 0.047129582578227636 -0.055679664867264889
leaf_weight=37 21 25 29 25 20 24 39 21 21
leaf_count=37 21 25 29 25 20 24 39 21 21
internal_value=-4.78103e-11 -0.018026 0.00383887 -0.00761459 0.00896281 0.0142788 0.00413286 0.0167592 -0.0281562
internal_weight=262 46 216 103 57 113 84 60 46
internal_count=262 46 216 103 57 113 84 60 46
is_linear=0
shrinkage=0.1


Tree=58
num_leaves=10
num_cat=0
split_feature=7 7 3 4 7 2 4 5 5
split_gain=1.61179 2.89782 3.38213 3.07142 2.193 2.47916 2.0295 2.71182 1.77693
threshold=10.700000000000001 22.320000000000004 3.5000000000000004 1.277500000000001 9.5550000000000015 15.400000000000002 -1.2049999999999998 17.630000000000003 26.345000000000006
decision_type=2 2 2 2 2 2 2 2 2
left_child=4 2 6 -3 5 -1 -2 -8 -9
right_child=1 3 -4 -5 -6 -7 7 8 -10
leaf_value=0.0145165784259964 0.02949325137517669 -0.040869958384488814 0.038700839982846298 0.010268675050009854 -0.0362020495980978 -0.027665187723257323 -0.030216576352163599 0.030137339632280848 -0.010054621913216332
leaf_weight=38 22 24 37 23 25 22 27 22 22
leaf_count=38 22 24 37 23 25 22 27 22 22
internal_value=-1.0238e-10 0.00543534 0.0131289 -0.0158447 -0.0113183 -0.000950069 0.00295509 -0.005268 0.0100414
internal_weight=262 177 130 47 85 60 93 71 44
internal_count=262 177 130 47 85 60 93 71 44
is_linear=0
shrinkage=0.1


Tree=59
num_leaves=11
num_cat=0
split_feature=3 3 2 2 0 4 0 1 2 0
split_gain=1.49848 2.29798 5.03694 2.03488 4.09167 2.88771 2.52686 1.68669 1.66849 1.129
threshold=4.5000000000000009 3.5000000000000004 12.550000000000002 6.8500000000000005 13.050000000000002 1.277500000000001 19.650000000000002 0.45000000000000007 13.750000000000002 19.950000000000003
decision_type=2 2 2 2 2 2 2 2 2 2
left_child=1 3 -3 -1 -5 6 -6 -7 -8 -2
right_child=9 2 -4 4 5 7 8 -9 -10 -11
leaf_value=-0.030160805614485239 -0.0019572307234225067 0.055990473383470719 -0.012627652399241924 0.036193164669234182 -0.040580848398907438 -0.0023752297059847758 -0.021744306311011315 0.036252127401530741 0.014790550172328949 -0.034443683922290802
leaf_weight=22 23 23 20 29 29 26 25 20 25 20
leaf_count=22 23 23 20 29 29 26 25 20 25 20
internal_value=-9.43542e-11 0.0033511 0.0240751 -0.00171215 0.00235195 -0.00549922 -0.0170973 0.0144193 -0.00347688 -0.0170672
internal_weight=262 219 43 176 154 125 79 46 50 43
internal_count=262 219 43 176 154 125 79 46 50 43
is_linear=0
shrinkage=0.1


Tree=60
num_leaves=11
num_cat=0
split_feature=5 5 5 4 4 3 5 5 7 0
split_gain=1.62442 5.96536 3.01135 2.26889 3.63964 2.25025 1.81046 1.09104 1.07776 0.785887
threshold=13.085714285714287 16.120000000000005 10.040000000000001 1.6700000000000002 0.70500000000000063 2.5000000000000004 24.475000000000005 23.250000000000004 13.425000000000002 5.6500000000000012
decision_type=2 2 2 2 2 2 2 2 2 2
left_child=2 -2 9 4 5 8 -7 -5 -3 -1
right_child=1 3 -4 7 -6 6 -8 -9 -10 -11
leaf_value=-0.011523686029016973 0.053782465105707 -0.037103168717585504 -0.043650098438163032 -0.038763930574059489 0.036849449092655313 -0.0084513465464115152 0.029238417859260853 -0.0061286157085782009 -0.0069283605906470067 0.01381023395806551
leaf_weight=25 22 20 22 20 28 25 26 21 29 24
leaf_count=25 22 20 22 20 28 25 26 21 29 24
internal_value=-2.54248e-10 0.00480078 -0.0129148 -0.00157554 0.00498214 -0.00394071 0.010763 -0.0220483 -0.0192446 0.000884765
internal_weight=262 191 71 169 128 100 51 41 49 49
internal_count=262 191 71 169 128 100 51 41 49 49
is_linear=0
shrinkage=0.1


Tree=61
num_leaves=10
num_cat=0
split_feature=2 0 5 3 2 4 3 2 0
split_gain=1.48483 2.04649 3.36173 2.99599 2.58091 2.30554 4.34078 1.0755 0.702327
threshold=22.550000000000004 11.450000000000001 16.120000000000005 1.5000000000000002 7.1000000000000005 1.6700000000000002 3.5000000000000004 13.750000000000002 25.400000000000002
decision_type=2 2 2 2 2 2 2 2 2
left_child=1 3 -3 -1 -5 6 7 8 -4
right_child=-2 2 5 4 -6 -7 -8 -9 -10
leaf_value=0.018474318557197139 -0.024864666638049215 0.043581285198097647 -0.028109729134788115 -0.0038466466833715855 -0.051755694012072952 -0.01876646739087607 0.036705013001576449 0.0089163209904323925 -0.0019256689585745335
leaf_weight=21 22 23 21 23 22 38 39 33 20
leaf_count=21 22 23 21 23 22 38 39 33 20
internal_value=3.40182e-10 0.00227926 0.00796644 -0.0127142 -0.0272688 0.00254166 0.00970722 -0.00452134 -0.015337
internal_weight=262 240 174 66 45 151 113 74 41
internal_count=262 240 174 66 45 151 113 74 41
is_linear=0
shrinkage=0.1


Tree=62
num_leaves=10
num_cat=0
split_feature=3 7 2 7 4 4 4 4 0
split_gain=1.52978 2.36721 3.05028 2.55713 1.60374 3.7648 2.10178 1.46744 1.20502
threshold=4.5000000000000009 21.860000000000003 12.65 19.040000000000003 0.55000000000000082 -0.90999999999999825 -2.1749999999999994 1.277500000000001 19.950000000000003
decision_type=2 2 2 2 2 2 2 2 2
left_child=1 3 -3 4 5 6 -1 -6 -2
right_child=8 2 -4 -5 7 -7 -8 -9 -10
leaf_value=0.013557630543197904 -0.0016341565095860024 0.051680442016749151 -0.0016018488190390847 -0.032087462535128002 -0.031542341454353716 0.038130624868878818 -0.022198493159826724 0.0024775510355539154 -0.035196535214781763
leaf_weight=35 23 21 22 24 21 33 31 32 20
leaf_count=35 23 21 22 24 21 33 31 32 20
internal_value=2.5878e-10 0.00338592 0.0244197 -0.00175302 0.00303662 0.0105523 -0.00323691 -0.011002 -0.0172446
internal_weight=262 219 43 176 152 99 66 53 43
internal_count=262 219 43 176 152 99 66 53 43
is_linear=0
shrinkage=0.1


Tree=63
num_leaves=10
num_cat=0
split_feature=7 7 7 4 4 4 4 7 2
split_gain=1.38231 2.39218 2.95869 2.96505 2.49661 2.35749 2.22389 1.81728 1.73282
threshold=10.700000000000001 22.320000000000004 20.735000000000003 0.094999999999997989 1.277500000000001 1.277500000000001 -0.90999999999999825 9.5550000000000015 15.400000000000002
decision_type=2 2 2 2 2 2 2 2 2
left_child=7 2 3 6 -3 -5 -2 8 -1
right_child=1 4 -4 5 -6 -7 -8 -9 -10
leaf_value=0.011887369176225834 0.0055603604349825121 -0.036863343324512243 0.046393867892523609 -0.035908868787405283 0.0092423751950263984 0.0072994150620486059 0.045916369574313817 -0.033133667178452016 -0.023378029287877411
leaf_weight=38 36 24 21 23 23 28 22 25 22
leaf_count=38 36 24 21 23 23 28 22 25 22
internal_value=2.52915e-10 0.00503355 0.0120237 0.00540195 -0.014301 -0.0121867 0.0208678 -0.0104816 -0.00104328
internal_weight=262 177 130 109 47 51 58 85 60
internal_count=262 177 130 109 47 51 58 85 60
is_linear=0
shrinkage=0.1


Tree=64
num_leaves=9
num_cat=0
split_feature=6 3 7 7 0 7 4 2
split_gain=1.42178 2.42034 2.89829 2.105 1.84123 2.31406 2.48132 1.84403
threshold=2.5000000000000004 4.5000000000000009 21.860000000000003 19.040000000000003 23.700000000000006 11.180000000000001 -0.12000000000000009 9.7500000000000018
decision_type=2 2 2 2 2 2 2 2
left_child=-1 2 3 4 5 6 7 -2
right_child=1 -3 -4 -5 -6 -7 -8 -9
leaf_value=0.021732886825446732 0.010804178351536395 -0.0252479298470112 0.026825872102850364 -0.031207238618905349 0.023256049433658863 -0.026661780050627013 0.026918669187774264 -0.031623654794834914
leaf_weight=27 20 39 38 24 29 34 30 21
leaf_count=27 20 39 38 24 29 34 30 21
internal_value=-3.92613e-10 -0.00249697 0.00203001 -0.00393356 0.000951282 -0.00520908 0.00506404 -0.0109272
internal_weight=262 235 196 158 134 105 71 41
internal_count=262 235 196 158 134 105 71 41
is_linear=0
shrinkage=0.1


Tree=65
num_leaves=11
num_cat=0
split_feature=5 4 0 3 2 6 0 7 2 0
split_gain=1.5169 2.47531 3.49239 5.87754 2.67553 1.91873 1.90199 3.44337 1.66616 0.919328
threshold=29.065000000000001 1.7900000000000011 20.950000000000003 3.5000000000000004 11.65 52.000000000000007 5.6500000000000012 10.905000000000003 12.65 14.850000000000003
decision_type=2 2 2 2 2 2 2 2 2 2
left_child=1 2 5 -4 -3 6 -1 -8 -7 -9
right_child=-2 4 3 -5 -6 8 7 9 -10 -11
leaf_value=-0.018247964557098307 -0.025131678378040142 -0.039718168716018021 0.0046143261841624173 0.071899496167898189 0.0065835881357391678 0.0013024877011775971 0.049923891052603725 -0.014488723814826122 -0.039027275428885511 0.013049762075146042
leaf_weight=23 22 26 37 20 24 20 20 22 21 27
leaf_count=23 22 26 37 20 24 20 20 22 21 27
internal_value=2.0937e-10 0.00230374 0.00751349 0.0282232 -0.0174933 -0.00136208 0.00665616 0.0149575 -0.0193542 0.000685544
internal_weight=262 240 190 57 50 133 92 69 41 49
internal_count=262 240 190 57 50 133 92 69 41 49
is_linear=0
shrinkage=0.1


Tree=66
num_leaves=11
num_cat=0
split_feature=3 7 7 7 7 4 2 0 3 0
split_gain=1.28349 1.62684 2.84921 1.93253 1.38329 2.22237 2.19804 4.26512 3.01039 1.28868
threshold=4.5000000000000009 21.860000000000003 24.035000000000004 19.040000000000003 15.450000000000001 1.5699999999999983 12.250000000000002 18.750000000000004 2.5000000000000004 19.950000000000003
decision_type=2 2 2 2 2 2 2 2 2 2
left_child=1 3 -3 4 5 6 8 -8 -1 -2
right_child=9 2 -4 -5 -6 -7 7 -9 -10 -11
leaf_value=-0.0018819619821650643 0.0003476910940978838 0.044542170931463655 -0.0070658675208687786 -0.027529543126001955 0.024005722913604519 -0.031903078537434341 -0.043809661811048339 0.017147920498003563 0.043552234202623372 -0.034360116571187975
leaf_weight=35 23 23 20 24 26 20 22 24 25 20
leaf_count=35 23 23 20 24 26 20 22 24 25 20
internal_value=2.00483e-10 0.00310139 0.0205384 -0.00115879 0.00300501 -0.00132847 0.00444033 -0.0120057 0.017049 -0.0157955
internal_weight=262 219 43 176 152 126 106 46 60 43
internal_count=262 219 43 176 152 126 106 46 60 43
is_linear=0
shrinkage=0.1


Tree=67
num_leaves=11
num_cat=0
split_feature=5 2 2 4 7 7 4 4 1 2
split_gain=1.35119 1.94061 6.10226 4.32086 3.33232 10.038 2.50776 7.44979 1.82436 1.48974
threshold=29.065000000000001 8.9500000000000011 8.0500000000000025 0.48000000000000048 24.325000000000003 21.035000000000004 -0.70999999999999897 0.6000000000000002 3.0500000000000003 14.300000000000002
decision_type=2 2 2 2 2 2 2 2 2 2
left_child=1 2 3 -1 5 6 8 -8 -3 -9
right_child=-2 4 -4 -5 -6 -7 7 9 -10 -11
leaf_value=-0.013166008982807398 -0.02371931922706691 0.0013564954378775188 -0.052730528699855006 0.04480528429150582 -0.027611770701001993 0.079805250680074102 0.065443922969556992 0.010453817747871984 -0.036504161506891251 -0.02725590866059065
leaf_weight=36 22 35 24 20 22 20 21 22 20 20
leaf_count=36 22 35 24 20 22 20 21 22 20 20
internal_value=7.10933e-11 0.00217427 -0.0105425 0.00753802 0.00853268 0.0142948 0.00319138 0.0168125 -0.012411 -0.00750319
internal_weight=262 240 80 56 160 138 118 63 55 42
internal_count=262 240 80 56 160 138 118 63 55 42
is_linear=0
shrinkage=0.1


Tree=68
num_leaves=10
num_cat=0
split_feature=6 2 2 2 4 0 4 2 2
split_gain=1.31967 2.2479 3.20633 4.89898 2.93482 4.68048 4.24145 2.41257 1.14997
threshold=2.5000000000000004 6.8500000000000005 8.0500000000000025 8.9500000000000011 -1.5650000000000011 21.800000000000001 0.76500000000000068 14.550000000000002 13.500000000000002
decision_type=2 2 2 2 2 2 2 2 2
left_child=-1 -2 -3 -4 7 6 -6 -5 -7
right_child=1 2 3 4 5 8 -8 -9 -10
leaf_value=0.020937938049987514 -0.031405097430494307 0.037972072449823223 -0.048757573713858922 -0.044427341364678886 0.05791346096786959 0.0055439139405886332 0.0042815154790878298 0.0035068053219999584 -0.020476003470165389
leaf_weight=27 24 21 21 21 29 33 30 21 35
leaf_count=27 24 21 21 21 29 33 30 21 35
internal_value=2.92371e-10 -0.00240564 0.000892882 -0.00320534 0.00245499 0.0100333 0.030643 -0.0204603 -0.00784869
internal_weight=262 235 211 190 169 127 59 42 68
internal_count=262 235 211 190 169 127 59 42 68
is_linear=0
shrinkage=0.1


Tree=69
num_leaves=11
num_cat=0
split_feature=7 7 4 4 1 5 5 5 0 4
split_gain=1.25444 3.06314 2.45148 1.16343 1.64524 3.09296 2.17175 2.13053 2.11044 1.7119
threshold=22.320000000000004 20.735000000000003 1.277500000000001 1.7900000000000011 0.8500000000000002 7.0600000000000014 20.735000000000003 17.845000000000002 23.500000000000004 -0.90999999999999825
decision_type=2 2 2 2 2 2 2 2 2 2
left_child=1 3 -2 4 5 -1 9 -6 -9 -7
right_child=2 -3 -4 -5 7 6 -8 8 -10 -11
leaf_value=-0.015082599847547472 -0.037156961338284118 0.039514220541431791 0.0085301477624022456 -0.018449377815329262 -0.032503134891390804 0.016312463276765565 -0.0024431078440763734 0.027783637689426544 -0.01760569257395608 0.055762077800252219
leaf_weight=31 24 21 23 31 25 22 22 20 21 22
leaf_count=31 24 21 23 31 25 22 22 20 21 22
internal_value=7.18043e-11 0.00323523 -0.0147994 -0.000691881 0.00268531 0.0109725 0.0232105 -0.00949432 0.00453544 0.0360373
internal_weight=262 215 47 194 163 97 66 66 41 44
internal_count=262 215 47 194 163 97 66 66 41 44
is_linear=0
shrinkage=0.1


end of trees

feature_importances:
wind_speed_10m_mean=110
weekday=106
temp_diff=101
shortwave_radiation_sum=101
temp_10d_avg=93
temperature_2m_mean=77
precipitation_sum=45
weather_code=13

parameters:
[boosting: gbdt]
[objective: regression]
[metric: rmse]
[tree_learner: serial]
[device_type: cpu]
[data_sample_strategy: bagging]
[data: ]
[valid: ]
[num_iterations: 100]
[learning_rate: 0.1]
[num_leaves: 31]
[num_threads: 0]
[seed: 42]
[deterministic: 0]
[force_col_wise: 0]
[force_row_wise: 0]
[histogram_pool_size: -1]
[max_depth: -1]
[min_data_in_leaf: 20]
[min_sum_hessian_in_leaf: 0.001]
[bagging_fraction: 1]
[pos_bagging_fraction: 1]
[neg_bagging_fraction: 1]
[bagging_freq: 0]
[bagging_seed: 400]
[bagging_by_query: 0]
[feature_fraction: 1]
[feature_fraction_bynode: 1]
[feature_fraction_seed: 30056]
[extra_trees: 0]
[extra_seed: 12879]
[early_stopping_round: 0]
[early_stopping_min_delta: 0]
[first_metric_only: 0]
[max_delta_step: 0]
[lambda_l1: 0]
[lambda_l2: 0]
[linear_lambda: 0]
[min_gain_to_split: 0]
[drop_rate: 0.1]
[max_drop: 50]
[skip_drop: 0.5]
[xgboost_dart_mode: 0]
[uniform_drop: 0]
[drop_seed: 17869]
[top_rate: 0.2]
[other_rate: 0.1]
[min_data_per_group: 100]
[max_cat_threshold: 32]
[cat_l2: 10]
[cat_smooth: 10]
[max_cat_to_onehot: 4]
[top_k: 20]
[monotone_constraints: ]
[monotone_constraints_method: basic]
[monotone_penalty: 0]
[feature_contri: ]
[forcedsplits_filename: ]
[refit_decay_rate: 0.9]
[cegb_tradeoff: 1]
[cegb_penalty_split: 0]
[cegb_penalty_feature_lazy: ]
[cegb_penalty_feature_coupled: ]
[path_smooth: 0]
[interaction_constraints: ]
[verbosity: -1]
[saved_feature_importance_type: 0]
[use_quantized_grad: 0]
[num_grad_quant_bins: 4]
[quant_train_renew_leaf: 0]
[stochastic_rounding: 1]
[linear_tree: 0]
[max_bin: 255]
[max_bin_by_feature: ]
[min_data_in_bin: 3]
[bin_construct_sample_cnt: 200000]
[data_random_seed: 175]
[is_enable_sparse: 1]
[enable_bundle: 1]
[use_missing: 1]
[zero_as_missing: 0]
[feature_pre_filter: 1]
[pre_partition: 0]
[two_round: 0]
[header: 0]
[label_column: ]
[weight_column: ]
[group_column: ]
[ignore_column: ]
[categorical_feature: ]
[forcedbins_filename: ]
[precise_float_parser: 0]
[parser_config_file: ]
[objective_seed: 16083]
[num_class: 1]
[is_unbalance: 0]
[scale_pos_weight: 1]
[sigmoid: 1]
[boost_from_average: 1]
[reg_sqrt: 0]
[alpha: 0.9]
[fair_c: 1]
[poisson_max_delta_step: 0.7]
[tweedie_variance_power: 1.5]
[lambdarank_truncation_level: 30]
[lambdarank_norm: 1]
[label_gain: ]
[lambdarank_position_bias_regularization: 0]
[eval_at: ]
[multi_error_top_k: 1]
[auc_mu_weights: ]
[num_machines: 1]
[local_listen_port: 12400]
[time_out: 120]
[machine_list_filename: ]
[machines: ]
[gpu_platform_id: -1]
[gpu_device_id: -1]
[gpu_use_dp: 0]
[num_gpu: 1]

end of parameters

pandas_categorical:[]
