tree
version=v4
num_class=1
num_tree_per_iteration=1
label_index=0
max_feature_idx=7
objective=regression
feature_names=temperature_2m_mean precipitation_sum wind_speed_10m_mean weekday temp_diff temp_10d_avg weather_code shortwave_radiation_sum
feature_infos=[2.8999999999999999:32.200000000000003] [0:95.5] [3.6000000000000001:35.600000000000001] [0:5] [-6.9800000000000004:4.1300000000000026] [4.1200000000000001:30.440000000000005] [0:73] [1.8300000000000001:28.420000000000002]
tree_sizes=978 952 963 952 968 882 806 1042 956 884 980 972 1053 1054 979 980 1045 974 1063 979 1061 902

Tree=0
num_leaves=11
num_cat=0
split_feature=7 3 0 6 0 5 3 2 3 3
split_gain=172.21 59.5622 39.2628 37.9247 38.541 34.8595 25.0953 23.7863 3.68313 2.88786
threshold=14.985000000000001 3.5000000000000004 22.950000000000003 62.000000000000007 7.6000000000000005 26.610000000000003 3.5000000000000004 12.65 1.5000000000000002 2.5000000000000004
decision_type=2 2 2 2 2 2 2 2 2 2
left_child=3 2 -2 4 9 -4 8 -3 -6 -1
right_child=1 7 5 -5 6 -7 -8 -9 -10 -11
leaf_value=3.2044656455960441 3.3027989797737765 3.6194656506624385 3.5494656473841832 3.1850906455029118 3.3386964162596171 3.3766085041225802 3.4421929200166304 3.4670846945987708 3.2831020098420005 3.2575608842234662
leaf_weight=20 30 20 20 32 26 28 22 21 22 21
leaf_count=20 30 20 20 32 26 28 22 21 22 21
internal_value=3.35496 3.44384 3.39254 3.281 3.30865 3.44863 3.35375 3.54142 3.31322 3.23166
internal_weight=262 119 78 143 111 48 70 41 48 41
internal_count=262 119 78 143 111 48 70 41 48 41
is_linear=0
shrinkage=1


Tree=1
num_leaves=10
num_cat=0
split_feature=7 3 5 4 6 0 3 2 2
split_gain=140.126 57.8935 35.836 34.0531 28.0331 22.2181 21.0833 17.7329 5.27802
threshold=12.850000000000003 3.5000000000000004 20.585000000000004 0.24000000000000069 62.000000000000007 7.6000000000000005 3.5000000000000004 12.65 12.800000000000002
decision_type=2 2 2 2 2 2 2 2 2
left_child=4 2 -2 -4 5 -1 8 -3 -7
right_child=1 7 3 -5 -6 6 -8 -9 -10
leaf_value=-0.10778478128023637 -0.053241717815399173 0.23805343061685563 -0.026736148595809941 0.13683658497674125 -0.15988836920466917 -0.017201309402783714 0.070066420804886592 0.10795012983408842 -0.088100410784993866
leaf_weight=39 34 20 20 35 29 21 21 22 21
leaf_count=39 34 20 20 35 29 21 21 22 21
internal_value=3.86748e-10 0.0731321 0.0274645 0.0773556 -0.0731321 -0.0484662 -0.0117451 0.169904 -0.0526509
internal_weight=262 131 89 55 131 102 63 42 42
internal_count=262 131 89 55 131 102 63 42 42
is_linear=0
shrinkage=0.1


Tree=2
num_leaves=10
num_cat=0
split_feature=7 3 5 4 6 0 3 0 2
split_gain=113.502 46.8937 29.0272 27.583 22.7068 17.9966 17.0775 14.6972 4.27519
threshold=12.850000000000003 3.5000000000000004 20.585000000000004 0.24000000000000069 62.000000000000007 7.6000000000000005 3.5000000000000004 23.950000000000003 12.800000000000002
decision_type=2 2 2 2 2 2 2 2 2
left_child=4 2 -2 -4 5 -1 8 -3 -7
right_child=1 7 3 -5 -6 6 -8 -9 -10
leaf_value=-0.097006305555502575 -0.047917544841766357 0.093758506434304389 -0.024062532931566238 0.123152927841459 -0.14389953780919315 -0.015481178107715788 0.063059780001640323 0.21206884412538438 -0.079290370714096794
leaf_weight=39 34 21 20 35 29 21 21 21 21
leaf_count=39 34 21 20 35 29 21 21 21 21
internal_value=-2.06171e-11 0.0658189 0.024718 0.06962 -0.0658189 -0.0436195 -0.0105706 0.152914 -0.0473858
internal_weight=262 131 89 55 131 102 63 42 42
internal_count=262 131 89 55 131 102 63 42 42
is_linear=0
shrinkage=0.1


Tree=3
num_leaves=10
num_cat=0
split_feature=7 3 0 5 6 0 3 2 2
split_gain=91.9365 37.9839 23.7598 26.5321 18.3925 14.5773 13.8328 13.8149 3.46291
threshold=12.850000000000003 3.5000000000000004 22.950000000000003 27.345000000000002 62.000000000000007 7.6000000000000005 3.5000000000000004 12.65 12.800000000000002
decision_type=2 2 2 2 2 2 2 2 2
left_child=4 2 -2 -4 5 -1 8 -3 -7
right_child=1 7 3 -5 -6 6 -8 -9 -10
leaf_value=-0.087305673814486146 -0.037611438804551173 0.1977736231312156 0.14040195596218111 -0.0038807533108271086 -0.1295095821649864 -0.013933060992331731 0.056753801448004584 0.082939297367225995 -0.071361332777000616
leaf_weight=39 38 20 25 26 29 21 21 22 21
leaf_count=39 38 20 25 26 29 21 21 22 21
internal_value=1.63381e-10 0.059237 0.0222462 0.0668461 -0.059237 -0.0392576 -0.00951353 0.137622 -0.0426472
internal_weight=262 131 89 51 131 102 63 42 42
internal_count=262 131 89 51 131 102 63 42 42
is_linear=0
shrinkage=0.1


Tree=4
num_leaves=10
num_cat=0
split_feature=7 6 0 0 1 3 2 2 4
split_gain=75.981 28.1478 27.3649 25.1447 23.0923 19.5085 8.02214 4.36233 1.97805
threshold=20.080000000000002 62.000000000000007 8.3000000000000025 22.950000000000003 0.15000000000000005 3.5000000000000004 12.800000000000002 6.8500000000000005 -1.1350000000000005
decision_type=2 2 2 2 2 2 2 2 2
left_child=1 2 7 -2 -5 6 -4 -1 -3
right_child=3 8 5 4 -6 -7 -8 -9 -10
leaf_value=-0.045155361331999301 0.017487025170615227 -0.12927926282087962 0.022731799018733644 0.20218468729568567 0.057145030441738312 0.085814459355814124 -0.044130324846819835 -0.10839141213024657 -0.085336669906973847
leaf_weight=20 33 21 34 23 21 28 38 24 20
leaf_count=20 33 21 34 23 21 28 38 24 20
internal_value=-2.78686e-10 -0.0347425 -0.0139289 0.0834723 0.132961 0.0149873 -0.0125565 -0.0796478 -0.107844
internal_weight=262 185 144 77 44 100 72 44 41
internal_count=262 185 144 77 44 100 72 44 41
is_linear=0
shrinkage=0.1


Tree=5
num_leaves=9
num_cat=0
split_feature=7 3 3 5 4 4 2 5
split_gain=63.9933 37.32 148.535 23.207 17.7249 7.46922 6.12258 3.53609
threshold=10.735000000000001 3.5000000000000004 4.5000000000000009 20.585000000000004 0.24000000000000069 -1.7450000000000008 11.950000000000001 13.348750000000003
decision_type=2 2 2 2 2 2 2 2
left_child=5 3 -3 6 -5 -1 -2 -7
right_child=1 2 -4 4 -6 7 -8 -9
leaf_value=-0.1110494424299947 -0.075728031593774059 0.27165732852838659 -0.05164498314261437 -0.021594078417705456 0.090789609150184941 -0.073138983746369679 -0.010708833294193029 -0.024169216165419446
leaf_weight=29 28 27 30 23 36 30 30 29
leaf_count=29 28 27 30 23 36 30 30 29
internal_value=2.54881e-11 0.0351466 0.101498 0.00282147 0.046979 -0.0694944 -0.0420974 -0.0490691
internal_weight=262 174 57 117 59 88 58 59
internal_count=262 174 57 117 59 88 58 59
is_linear=0
shrinkage=0.1


Tree=6
num_leaves=8
num_cat=0
split_feature=0 4 7 3 2 1 5
split_gain=54.2681 23.6038 19.0393 16.303 6.95995 5.45659 4.07693
threshold=23.950000000000003 0.63499999999999812 10.735000000000001 3.5000000000000004 11.950000000000001 13.750000000000002 13.348750000000003
decision_type=2 2 2 2 2 2 2
left_child=2 -2 5 4 -4 6 -1
right_child=1 -3 3 -5 -6 -7 -8
leaf_value=-0.071236333407853777 0.014890787215569082 0.12491121465125338 -0.065479179844260216 0.05452411301966225 -0.00066366868244635091 -0.110927102714777 -0.018590341415256263
leaf_weight=38 39 39 30 35 37 20 24
leaf_count=38 39 39 30 35 37 20 24
internal_value=-9.8642e-11 0.069901 -0.0296319 -0.00079007 -0.0296855 -0.0655084 -0.0508572
internal_weight=262 78 184 102 67 82 62
internal_count=262 78 184 102 67 82 62
is_linear=0
shrinkage=0.1


Tree=7
num_leaves=11
num_cat=0
split_feature=0 1 5 2 2 7 1 3 5 4
split_gain=45.7257 23.1578 22.0463 12.4188 11.6984 7.22232 6.48116 5.77799 4.07018 1.16803
threshold=27.750000000000004 8.2500000000000018 13.085714285714287 6.6500000000000012 12.65 21.035000000000004 0.15000000000000005 2.5000000000000004 6.4900000000000011 -0.77499999999999847
decision_type=2 2 2 2 2 2 2 2 2 2
left_child=1 2 3 -1 7 9 -2 -4 -5 -6
right_child=6 -3 4 8 5 -7 -8 -9 -10 -11
leaf_value=0.0056079184923034445 0.13315456701619996 -0.089704076475218719 0.026747220074353012 -0.052649889276786294 -0.007148648910224438 0.046663573160767559 0.056316029442393258 0.097629810416180157 -0.11498101986944675 -0.039292988496331067
leaf_weight=26 21 38 23 22 20 20 23 23 20 26
leaf_count=26 21 38 23 22 20 20 23 23 20 26
internal_value=3.17432e-10 -0.0187684 -0.00379311 -0.0487075 0.0234764 -0.00350484 0.092989 0.0621885 -0.0823314 -0.0253172
internal_weight=262 218 180 68 112 66 44 46 42 46
internal_count=262 218 180 68 112 66 44 46 42 46
is_linear=0
shrinkage=0.1


Tree=8
num_leaves=10
num_cat=0
split_feature=7 3 6 0 2 3 2 2 4
split_gain=37.3236 15.3809 15.2086 14.0762 12.0951 10.9875 5.96788 2.89393 0.890181
threshold=20.080000000000002 2.5000000000000004 62.000000000000007 8.3000000000000025 12.65 3.5000000000000004 12.800000000000002 6.8500000000000005 -1.1350000000000005
decision_type=2 2 2 2 2 2 2 2 2
left_child=2 -2 3 7 -3 6 -5 -1 -4
right_child=1 4 8 5 -6 -7 -8 -9 -10
leaf_value=-0.028091266974806784 0.0055033294716849927 0.15161609493550801 -0.092463763696806769 0.02145367721284 0.04769676846141617 0.064842255373618429 -0.036215668544173241 -0.079596313710014022 -0.062985189706087116
leaf_weight=20 32 21 21 34 24 28 38 24 20
leaf_count=20 32 21 21 34 24 28 38 24 20
internal_value=1.92907e-10 0.0585035 -0.0243501 -0.00905086 0.0961925 0.0116881 -0.00898292 -0.0561849 -0.078084
internal_weight=262 77 185 144 45 100 72 44 41
internal_count=262 77 185 144 45 100 72 44 41
is_linear=0
shrinkage=0.1


Tree=9
num_leaves=9
num_cat=0
split_feature=0 4 3 3 1 5 5 3
split_gain=33.697 15.7369 11.992 35.879 7.27151 8.7954 9.43219 1.23658
threshold=23.950000000000003 0.63499999999999812 3.5000000000000004 4.5000000000000009 6.9500000000000002 13.085714285714287 17.630000000000003 1.5000000000000002
decision_type=2 2 2 2 2 2 2 2
left_child=2 -2 4 -4 5 7 -7 -1
right_child=1 -3 3 -5 -6 6 -8 -9
leaf_value=-0.045127464316430548 0.010164454941136334 0.099998746532946825 0.090862269401550289 -0.062544258996363608 -0.088291465197331637 0.050521699516546163 -0.035209039276973768 -0.079052882421423096
leaf_weight=21 39 39 30 31 26 21 33 22
leaf_count=21 39 39 30 31 26 21 33 22
internal_value=1.72935e-10 0.0550816 -0.0233498 0.0129016 -0.0413281 -0.02874 -0.00186931 -0.0624847
internal_weight=262 78 184 61 123 97 54 43
internal_count=262 78 184 61 123 97 54 43
is_linear=0
shrinkage=0.1


Tree=10
num_leaves=10
num_cat=0
split_feature=7 3 7 3 5 2 2 0 3
split_gain=27.8009 14.3658 12.0572 8.03938 7.03611 4.03613 2.12281 1.10329 0.741712
threshold=21.035000000000004 2.5000000000000004 8.0300000000000011 3.5000000000000004 13.085714285714287 12.800000000000002 13.750000000000002 20.650000000000002 1.5000000000000002
decision_type=2 2 2 2 2 2 2 2 2
left_child=2 -2 6 4 8 -6 -1 -7 -4
right_child=1 -3 3 -5 5 7 -8 -9 -10
leaf_value=-0.04480164308439602 0.00093723888750429506 0.096336984886836854 -0.039369318657554692 0.033444131643344192 0.025134727584593227 -0.038536872230470184 -0.089816319718956955 -0.0064224976074436432 -0.066603708304464812
leaf_weight=22 27 38 20 39 33 20 20 23 20
leaf_count=22 27 38 20 39 33 20 20 23 20
internal_value=1.86975e-10 0.0567094 -0.0187112 -0.00583321 -0.0190385 -0.00117117 -0.0662372 -0.0213594 -0.0529865
internal_weight=262 65 197 155 116 76 42 43 40
internal_count=262 65 197 155 116 76 42 43 40
is_linear=0
shrinkage=0.1


Tree=11
num_leaves=10
num_cat=0
split_feature=0 1 5 2 2 4 4 1 5
split_gain=24.411 12.0704 11.0927 8.77457 7.05554 6.46761 5.39813 5.26799 3.71916
threshold=27.750000000000004 8.2500000000000018 13.085714285714287 6.6500000000000012 10.950000000000001 -0.99500000000000088 1.3150000000000015 0.15000000000000005 6.4900000000000011
decision_type=2 2 2 2 2 2 2 2 2
left_child=1 2 3 -1 -4 -6 -7 -2 -5
right_child=7 -3 4 8 5 6 -8 -9 -10
leaf_value=0.010894770547747613 0.10415469273215248 -0.06492596896071183 0.063263107955455783 -0.03465148383243518 0.039633009654860343 -0.048346617551786562 0.013748536099280631 0.034879881030191545 -0.094234255263581868
leaf_weight=26 21 38 25 22 31 28 28 23 20
leaf_count=26 21 38 25 22 31 28 28 23 20
internal_value=-2.77264e-11 -0.0137132 -0.00290166 -0.0347611 0.0164416 0.00298709 -0.017299 0.0679429 -0.0630242
internal_weight=262 218 180 68 112 87 56 44 42
internal_count=262 218 180 68 112 87 56 44 42
is_linear=0
shrinkage=0.1


Tree=12
num_leaves=11
num_cat=0
split_feature=3 3 7 7 5 5 5 7 2 4
split_gain=22.0845 79.2873 38.7172 9.75675 5.3036 14.9478 4.5942 2.10975 2.05306 1.56975
threshold=4.5000000000000009 3.5000000000000004 12.285000000000002 11.475000000000003 20.585000000000004 27.345000000000002 17.530000000000005 8.0300000000000011 8.9500000000000011 -0.29500000000000032
decision_type=2 2 2 2 2 2 2 2 2 2
left_child=1 3 -3 7 6 -6 -5 -1 -9 -2
right_child=9 2 -4 4 5 -7 -8 8 -10 -11
leaf_value=-0.070411404189856155 -0.045031702183187007 0.046111172567243168 0.23635362982749941 0.00766796237230301 0.070007147567887465 -0.032808190025389199 -0.054260719826687946 -0.051055441091635401 -0.0091059184446930889 -0.083337981415831527
leaf_weight=23 20 23 20 25 31 26 23 28 20 23
leaf_count=23 20 23 20 25 31 26 23 28 20 23
internal_value=2.70155e-10 0.0128649 0.134596 -0.0168763 0.00248487 0.0231089 -0.0220062 -0.0455089 -0.0335765 -0.0655211
internal_weight=262 219 43 176 105 57 48 71 48 43
internal_count=262 219 43 176 105 57 48 71 48 43
is_linear=0
shrinkage=0.1


Tree=13
num_leaves=11
num_cat=0
split_feature=6 0 3 5 3 3 3 3 5 5
split_gain=18.5803 22.1485 20.0785 8.96917 6.4299 23.9099 4.57704 5.16277 3.78437 1.32427
threshold=62.000000000000007 23.950000000000003 3.5000000000000004 27.345000000000002 4.5000000000000009 3.5000000000000004 1.5000000000000002 2.5000000000000004 13.348750000000003 19.915000000000003
decision_type=2 2 2 2 2 2 2 2 2 2
left_child=1 4 3 -3 5 6 8 -8 -1 -2
right_child=9 2 -4 -5 -6 -7 7 -9 -10 -11
leaf_value=-0.03102640603668988 -0.041279264539480214 0.06734127649106085 0.14337132325395943 -0.019112823546553651 -0.051865630005968034 0.087721683710813528 -0.077543571882921714 -0.014101072542112451 0.027334003470838072 -0.076463112834355113
leaf_weight=20 20 24 20 24 29 25 23 29 25 23
leaf_count=20 20 24 20 24 29 25 23 29 25 23
internal_value=-7.10933e-11 0.0118002 0.0591898 0.0241142 -0.00954088 0.000519925 -0.0219548 -0.0421622 0.00139604 -0.0600985
internal_weight=262 219 68 48 151 122 97 52 45 43
internal_count=262 219 68 48 151 122 97 52 45 43
is_linear=0
shrinkage=0.1


Tree=14
num_leaves=10
num_cat=0
split_feature=3 3 7 0 4 5 0 5 4
split_gain=17.1058 55.8961 28.7142 7.31456 3.71238 4.19385 6.07395 3.03034 1.43454
threshold=4.5000000000000009 3.5000000000000004 12.285000000000002 27.750000000000004 -1.6150000000000009 13.085714285714287 18.150000000000002 20.585000000000004 -0.29500000000000032
decision_type=2 2 2 2 2 2 2 2 2
left_child=1 3 -3 4 -1 -6 -7 -8 -2
right_child=8 2 -4 -5 5 6 7 -9 -10
leaf_value=-0.051357181308626688 -0.038077480681240561 0.037329885995258459 0.20116362027823925 0.034241144102998076 -0.040403039915821497 0.047240222766995438 -0.041947225463361694 0.004696433202673992 -0.074696867964951758
leaf_weight=34 20 23 20 27 39 20 26 30 23
leaf_count=34 20 23 20 27 39 20 26 30 23
internal_value=-1.31373e-10 0.0113223 0.113532 -0.0136493 -0.0223275 -0.0137448 -6.48738e-05 -0.0169596 -0.0576646
internal_weight=262 219 43 176 149 115 76 56 43
internal_count=262 219 43 176 149 115 76 56 43
is_linear=0
shrinkage=0.1


Tree=15
num_leaves=10
num_cat=0
split_feature=7 7 3 3 2 4 3 2 2
split_gain=14.2368 8.17553 8.0817 33.8582 3.86429 3.66828 4.58757 1.36785 0.989788
threshold=23.445000000000004 8.0300000000000011 4.5000000000000009 3.5000000000000004 9.2500000000000018 1.277500000000001 1.5000000000000002 13.750000000000002 7.5500000000000007
decision_type=2 2 2 2 2 2 2 2 2
left_child=1 7 3 4 8 6 -6 -1 -3
right_child=-2 2 -4 -5 5 -7 -8 -9 -10
leaf_value=-0.031376786428419033 0.062494853988755497 -0.018505161437045399 -0.047365409278621283 0.12434726343913512 0.020463728915964222 0.038976195590062573 -0.034053178642396674 -0.067510884590446948 -0.046283723835064017
leaf_weight=22 32 29 30 22 29 22 33 20 23
leaf_count=22 32 29 30 22 29 22 33 20 23
internal_value=2.60202e-10 -0.00869494 0.000216339 0.00925085 -0.00936769 0.00389488 -0.00855333 -0.0485835 -0.0307918
internal_weight=262 230 188 158 136 84 62 42 52
internal_count=262 230 188 158 136 84 62 42 52
is_linear=0
shrinkage=0.1


Tree=16
num_leaves=11
num_cat=0
split_feature=6 0 3 5 0 2 7 4 5 2
split_gain=12.4951 14.9947 13.6706 7.28861 3.69731 8.03603 3.22713 2.77615 1.06011 1.05075
threshold=62.000000000000007 23.950000000000003 3.5000000000000004 27.345000000000002 8.3000000000000025 12.65 12.850000000000003 -0.12000000000000009 19.915000000000003 6.8500000000000005
decision_type=2 2 2 2 2 2 2 2 2 2
left_child=1 4 3 -3 9 7 -7 -6 -2 -1
right_child=8 2 -4 -5 5 6 -8 -9 -10 -11
leaf_value=-0.015356098636984825 -0.032446096809580924 0.058694416470825676 0.11813082054257394 -0.019240421980308991 0.062088791546411816 -0.048041685563153948 -0.0018071912849942846 0.012103487002197655 -0.063925854537798019 -0.046391418948769574
leaf_weight=20 20 24 20 24 20 26 36 25 23 24
leaf_count=20 20 24 20 24 20 26 36 25 23 24
internal_value=-1.69335e-10 0.00967679 0.0486693 0.019727 -0.00788275 0.00215159 -0.0211959 0.0343192 -0.0492841 -0.0322845
internal_weight=262 219 68 48 151 107 62 45 43 44
internal_count=262 219 68 48 151 107 62 45 43 44
is_linear=0
shrinkage=0.1


Tree=17
num_leaves=10
num_cat=0
split_feature=3 3 4 0 4 5 0 5 4
split_gain=13.2043 37.7864 20.9372 5.14874 2.59367 2.6682 5.06881 2.24451 1.52814
threshold=4.5000000000000009 3.5000000000000004 -1.0349999999999964 27.750000000000004 -1.6150000000000009 13.085714285714287 18.150000000000002 20.585000000000004 -0.29500000000000032
decision_type=2 2 2 2 2 2 2 2 2
left_child=1 3 -3 4 -1 -6 -7 -8 -2
right_child=8 2 -4 -5 5 6 7 -9 -10
leaf_value=-0.042129495630369468 -0.030447420552372935 0.019154331795871258 0.15905336075583879 0.029595571951951435 -0.0319544758187989 0.043434629812836648 -0.036718069342896342 0.0034246855291227502 -0.068242689915527788
leaf_weight=34 20 20 23 27 39 20 26 30 23
leaf_count=34 20 20 23 27 39 20 26 30 23
internal_value=1.82249e-10 0.00994763 0.093984 -0.010584 -0.0178649 -0.010691 0.000220571 -0.015213 -0.0506635
internal_weight=262 219 43 176 149 115 76 56 43
internal_count=262 219 43 176 149 115 76 56 43
is_linear=0
shrinkage=0.1


Tree=18
num_leaves=11
num_cat=0
split_feature=3 3 4 1 0 5 3 4 3 7
split_gain=10.6955 30.6069 16.9591 4.83099 5.22635 8.40528 2.23606 3.95589 1.29838 1.24049
threshold=4.5000000000000009 3.5000000000000004 -1.0349999999999964 4.7000000000000011 22.950000000000003 26.610000000000003 1.5000000000000002 0.55000000000000082 1.0000000180025095e-35 17.615000000000006
decision_type=2 2 2 2 2 2 2 2 2 2
left_child=1 3 -3 4 6 -6 8 -8 -1 -2
right_child=9 2 -4 -5 5 -7 7 -9 -10 -11
leaf_value=-0.016661425883926096 -0.029002745271745053 0.017238899059593676 0.14314802233939586 -0.040577620363388307 0.075477203326299799 -0.01005469994550502 -0.055936400728443497 0.0032196654099971057 0.017730341916498932 -0.062981757734503069
leaf_weight=21 22 20 23 39 20 27 26 20 23 21
leaf_count=21 22 20 23 39 20 27 26 20 23 21
internal_value=-1.13749e-10 0.00895286 0.0845856 -0.0095256 -0.000685971 0.0263419 -0.0148005 -0.0302164 0.00131609 -0.0455971
internal_weight=262 219 43 176 137 47 90 46 44 43
internal_count=262 219 43 176 137 47 90 46 44 43
is_linear=0
shrinkage=0.1


Tree=19
num_leaves=10
num_cat=0
split_feature=7 4 7 1 0 5 1 2 5
split_gain=9.59236 5.79809 6.25921 3.79559 4.87579 2.13612 2.82303 1.44138 1.04596
threshold=23.445000000000004 1.8250000000000013 20.080000000000002 2.7500000000000004 8.3000000000000025 16.675000000000001 0.15000000000000005 12.800000000000002 5.8900000000000015
decision_type=2 2 2 2 2 2 2 2 2
left_child=1 2 3 4 8 -6 -7 -5 -1
right_child=-2 -3 -4 7 5 6 -8 -9 -10
leaf_value=-0.010330973116850313 0.051298080175183718 -0.045258360542356969 0.03591490107539453 -0.014395302999764681 0.042006611560160917 -0.022583163506351412 0.029327421838586984 -0.048379861721052575 -0.041928702974691992
leaf_weight=22 32 34 38 24 24 20 22 26 20
leaf_count=22 32 34 38 24 24 20 22 26 20
internal_value=3.47291e-10 -0.00713712 -0.000524256 -0.0092881 0.00125781 0.0182076 0.0046081 -0.0320673 -0.0253775
internal_weight=262 230 196 158 108 66 42 50 42
internal_count=262 230 196 158 108 66 42 50 42
is_linear=0
shrinkage=0.1


Tree=20
num_leaves=11
num_cat=0
split_feature=3 3 2 0 4 4 5 5 5 4
split_gain=9.16253 24.6229 15.3198 3.29889 2.08516 3.28662 2.2818 1.6841 3.3582 1.26903
threshold=4.5000000000000009 3.5000000000000004 12.550000000000002 27.750000000000004 -0.70999999999999897 0.38999999999999974 20.300000000000001 20.140000000000004 14.835000000000001 -0.29500000000000032
decision_type=2 2 2 2 2 2 2 2 2 2
left_child=1 3 -3 4 6 -6 -1 8 -7 -2
right_child=9 2 -4 -5 5 7 -8 -9 -10 -11
leaf_value=-0.012441240046173335 -0.023780560195446016 0.13178385995713102 0.012114893794059754 0.023874224102366028 0.026276165690273048 -0.0026856232881546024 -0.052474905744505432 0.0077558992104604851 -0.057661791890859605 -0.058222781963970349
leaf_weight=35 20 23 20 27 25 25 24 20 20 23
leaf_count=35 20 23 20 27 25 25 24 20 20 23
internal_value=3.18854e-10 0.00828646 0.0761239 -0.00828745 -0.0141154 -0.00453727 -0.0287261 -0.0163886 -0.0271195 -0.0422031
internal_weight=262 219 43 176 149 90 59 65 45 43
internal_count=262 219 43 176 149 90 59 65 45 43
is_linear=0
shrinkage=0.1


Tree=21
num_leaves=9
num_cat=0
split_feature=7 4 7 7 0 7 4 5
split_gain=7.86776 4.86766 4.99902 3.1351 2.91123 3.96276 1.88651 0.456753
threshold=23.445000000000004 1.8250000000000013 20.080000000000002 6.0750000000000002 8.3000000000000025 16.330000000000002 -1.0349999999999964 5.8250000000000011
decision_type=2 2 2 2 2 2 2 2
left_child=1 2 3 -1 7 6 -6 -5
right_child=-2 -3 -4 4 5 -7 -8 -9
leaf_value=-0.040726988539099701 0.046458346210420137 -0.041392663789584359 0.032160322799494392 -0.013991457525463331 0.0023420504384463834 -0.026228922463953499 0.035995880628211629 -0.035107286535203459
leaf_weight=25 32 34 38 21 31 25 36 20
leaf_count=25 32 34 38 21 31 25 36 20
internal_value=-2.72287e-10 -0.00646377 -0.000404676 -0.00823676 -0.00212958 0.00774709 0.0204247 -0.0242919
internal_weight=262 230 196 158 133 92 67 41
internal_count=262 230 196 158 133 92 67 41
is_linear=0
shrinkage=0.1


end of trees

feature_importances:
weekday=44
temp_10d_avg=33
wind_speed_10m_mean=27
temp_diff=27
temperature_2m_mean=26
shortwave_radiation_sum=25
precipitation_sum=10
weather_code=8

parameters:
[boosting: gbdt]
[objective: regression]
[metric: rmse]
[tree_learner: serial]
[device_type: cpu]
[data_sample_strategy: bagging]
[data: ]
[valid: ]
[num_iterations: 100]
[learning_rate: 0.1]
[num_leaves: 31]
[num_threads: 0]
[seed: 42]
[deterministic: 0]
[force_col_wise: 0]
[force_row_wise: 0]
[histogram_pool_size: -1]
[max_depth: -1]
[min_data_in_leaf: 20]
[min_sum_hessian_in_leaf: 0.001]
[bagging_fraction: 1]
[pos_bagging_fraction: 1]
[neg_bagging_fraction: 1]
[bagging_freq: 0]
[bagging_seed: 400]
[bagging_by_query: 0]
[feature_fraction: 1]
[feature_fraction_bynode: 1]
[feature_fraction_seed: 30056]
[extra_trees: 0]
[extra_seed: 12879]
[early_stopping_round: 0]
[early_stopping_min_delta: 0]
[first_metric_only: 0]
[max_delta_step: 0]
[lambda_l1: 0]
[lambda_l2: 0]
[linear_lambda: 0]
[min_gain_to_split: 0]
[drop_rate: 0.1]
[max_drop: 50]
[skip_drop: 0.5]
[xgboost_dart_mode: 0]
[uniform_drop: 0]
[drop_seed: 17869]
[top_rate: 0.2]
[other_rate: 0.1]
[min_data_per_group: 100]
[max_cat_threshold: 32]
[cat_l2: 10]
[cat_smooth: 10]
[max_cat_to_onehot: 4]
[top_k: 20]
[monotone_constraints: ]
[monotone_constraints_method: basic]
[monotone_penalty: 0]
[feature_contri: ]
[forcedsplits_filename: ]
[refit_decay_rate: 0.9]
[cegb_tradeoff: 1]
[cegb_penalty_split: 0]
[cegb_penalty_feature_lazy: ]
[cegb_penalty_feature_coupled: ]
[path_smooth: 0]
[interaction_constraints: ]
[verbosity: -1]
[saved_feature_importance_type: 0]
[use_quantized_grad: 0]
[num_grad_quant_bins: 4]
[quant_train_renew_leaf: 0]
[stochastic_rounding: 1]
[linear_tree: 0]
[max_bin: 255]
[max_bin_by_feature: ]
[min_data_in_bin: 3]
[bin_construct_sample_cnt: 200000]
[data_random_seed: 175]
[is_enable_sparse: 1]
[enable_bundle: 1]
[use_missing: 1]
[zero_as_missing: 0]
[feature_pre_filter: 1]
[pre_partition: 0]
[two_round: 0]
[header: 0]
[label_column: ]
[weight_column: ]
[group_column: ]
[ignore_column: ]
[categorical_feature: ]
[forcedbins_filename: ]
[precise_float_parser: 0]
[parser_config_file: ]
[objective_seed: 16083]
[num_class: 1]
[is_unbalance: 0]
[scale_pos_weight: 1]
[sigmoid: 1]
[boost_from_average: 1]
[reg_sqrt: 0]
[alpha: 0.9]
[fair_c: 1]
[poisson_max_delta_step: 0.7]
[tweedie_variance_power: 1.5]
[lambdarank_truncation_level: 30]
[lambdarank_norm: 1]
[label_gain: ]
[lambdarank_position_bias_regularization: 0]
[eval_at: ]
[multi_error_top_k: 1]
[auc_mu_weights: ]
[num_machines: 1]
[local_listen_port: 12400]
[time_out: 120]
[machine_list_filename: ]
[machines: ]
[gpu_platform_id: -1]
[gpu_device_id: -1]
[gpu_use_dp: 0]
[num_gpu: 1]

end of parameters

pandas_categorical:[]
