tree
version=v4
num_class=1
num_tree_per_iteration=1
label_index=0
max_feature_idx=7
objective=regression
feature_names=temperature_2m_mean precipitation_sum wind_speed_10m_mean weekday temp_diff temp_10d_avg weather_code shortwave_radiation_sum
feature_infos=[2.8999999999999999:32.200000000000003] [0:95.5] [3.6000000000000001:35.600000000000001] [0:5] [-6.9800000000000004:4.1300000000000026] [4.1200000000000001:30.440000000000005] [0:73] [1.8300000000000001:28.420000000000002]
tree_sizes=808 1050 970 1054 1054 888 972 1051 975 959 892 1057 1051 1052 976 1060 980 984 982 1053 1055 977 965 1059 903 983 976 1061 1045 1054 963 967 983 1046 1062 895 982 979

Tree=0
num_leaves=9
num_cat=0
split_feature=5 6 1 3 2 2 7 5
split_gain=116.507 43.2963 38.6042 25.642 23.8582 11.0686 4.49165 3.06409
threshold=17.530000000000005 62.000000000000007 0.45000000000000007 3.5000000000000004 6.6500000000000012 12.550000000000002 22.220000000000002 23.390000000000004
decision_type=2 2 2 2 2 2 2 2
left_child=2 3 4 6 -1 -6 7 -2
right_child=1 -3 -4 -5 5 -7 -8 -9
leaf_value=3.1960000000000002 2.952 2.8406250000000002 2.9785714285714286 3.0394736842105261 3.0387096774193547 3.1291666666666669 2.976 2.9058823529411764
leaf_weight=25 25 32 28 38 31 24 25 34
leaf_count=25 25 32 28 38 31 24 25 34
internal_value=3 2.94416 3.07963 2.97131 3.115 3.07818 2.94048 2.92542
internal_weight=262 154 108 122 80 55 84 59
internal_count=262 154 108 122 80 55 84 59
is_linear=0
shrinkage=1


Tree=1
num_leaves=11
num_cat=0
split_feature=0 1 0 3 3 7 5 4 1 1
split_gain=97.1273 48.9038 32.6752 18.3713 23.8399 5.76243 5.7557 5.49742 3.73607 2.04594
threshold=13.050000000000002 4.7000000000000011 7.6000000000000005 3.5000000000000004 4.5000000000000009 10.395000000000001 27.515000000000004 -0.12000000000000009 19.850000000000005 0.15000000000000005
decision_type=2 2 2 2 2 2 2 2 2 2
left_child=2 3 5 6 -5 -1 7 -2 -3 -9
right_child=1 8 -4 4 -6 -7 -8 9 -10 -11
leaf_value=0.079843066615814529 -0.062649720800774439 -0.10033394372090698 0.18037832162246623 0.12277852432536228 -0.020474698910346398 0.0074650795960968189 -0.079307562769168907 -0.018893650045682647 -0.15613169923424722 0.022091123718945754
leaf_weight=22 21 30 29 21 26 22 21 29 20 21
leaf_count=22 21 30 29 21 26 22 21 29 20 21
internal_value=-4.64239e-10 -0.03784 0.0979692 -0.00733164 0.0435321 0.0436541 -0.0333164 -0.0197133 -0.122653 -0.00168005
internal_weight=262 189 73 139 47 44 92 71 50 50
internal_count=262 189 73 139 47 44 92 71 50 50
is_linear=0
shrinkage=0.1


Tree=2
num_leaves=10
num_cat=0
split_feature=0 3 1 3 3 0 7 5 4
split_gain=81.0201 41.5076 31.1058 13.6402 11.5524 12.1157 3.22047 2.48274 1.23921
threshold=15.750000000000002 3.5000000000000004 4.7000000000000011 1.5000000000000002 3.5000000000000004 23.700000000000006 22.220000000000002 21.395000000000007 -0.70999999999999897
decision_type=2 2 2 2 2 2 2 2 2
left_child=1 3 4 -1 6 -6 7 -2 -4
right_child=2 -3 8 -5 5 -7 -8 -9 -10
leaf_value=0.079139464075366664 -0.023411932783783413 0.17420917338338393 -0.131276981938969 -0.013372945396558329 0.077739808530631394 -0.028451258662555903 -0.0096154278903095823 -0.067355345096439131 -0.097315617402394625
leaf_weight=30 20 29 22 34 22 21 27 36 21
leaf_count=30 20 29 22 34 22 21 27 36 21
internal_value=-1.43653e-10 0.0749631 -0.0412519 0.0299922 -0.0161893 0.0258791 -0.0379837 -0.0516613 -0.114691
internal_weight=262 93 169 64 126 43 83 56 43
internal_count=262 93 169 64 126 43 83 56 43
is_linear=0
shrinkage=0.1


Tree=3
num_leaves=11
num_cat=0
split_feature=0 1 0 3 3 2 3 4 1 4
split_gain=66.1251 31.5611 31.1486 15.8636 20.3066 5.04775 5.28395 5.01851 2.36089 2.32086
threshold=12.250000000000002 6.4000000000000012 7.6000000000000005 3.5000000000000004 4.5000000000000009 16.950000000000003 1.5000000000000002 -0.5149999999999969 19.850000000000005 0.55000000000000082
decision_type=2 2 2 2 2 2 2 2 2 2
left_child=2 3 7 5 -5 6 -2 -1 -3 -8
right_child=1 8 -4 4 -6 -7 9 -9 -10 -11
leaf_value=-0.0050716101564466957 0.0082519103255536824 -0.083955717993819193 0.1699802104670268 0.10650489343249279 -0.022487973683298784 -0.076328571178019056 -0.06744263512747628 0.062753890004629886 -0.13093354761600495 -0.021461801216735143
leaf_weight=20 36 23 26 23 26 20 21 24 20 23
leaf_count=20 36 23 26 23 26 20 21 24 20 23
internal_value=-8.15796e-11 -0.0303341 0.0832021 -0.00855365 0.0380597 -0.0313942 -0.0201606 0.0319241 -0.105806 -0.0434072
internal_weight=262 192 70 149 49 100 80 44 43 44
internal_count=262 192 70 149 49 100 80 44 43 44
is_linear=0
shrinkage=0.1


Tree=4
num_leaves=11
num_cat=0
split_feature=0 3 1 1 3 2 3 7 4 7
split_gain=55.1634 31.7173 20.9142 10.8302 10.4291 8.29655 9.86743 2.11681 0.812321 0.395033
threshold=15.750000000000002 3.5000000000000004 4.7000000000000011 1.0000000180025095e-35 1.5000000000000002 13.500000000000002 3.5000000000000004 15.815000000000003 -0.70999999999999897 20.485000000000003
decision_type=2 2 2 2 2 2 2 2 2 2
left_child=1 3 5 4 -1 6 9 -7 -4 -2
right_child=2 -3 8 -5 -6 7 -8 -9 -10 -11
leaf_value=0.09982849217273973 -0.031363665722310544 0.1486108148920125 -0.10768547369675203 -0.034294332597743386 5.3715505637228488e-05 -0.06826179357245564 0.05544649893417955 -0.027685795817524197 -0.08018899801231566 -0.011945195072753864
leaf_weight=22 20 29 22 22 20 20 28 36 21 22
leaf_count=22 20 29 22 22 20 20 28 36 21 22
internal_value=-3.19565e-10 0.0618553 -0.0340387 0.0225442 0.0523167 -0.013488 0.00946335 -0.0421772 -0.094257 -0.0211921
internal_weight=262 93 169 64 42 126 70 56 43 42
internal_count=262 93 169 64 42 126 70 56 43 42
is_linear=0
shrinkage=0.1


Tree=5
num_leaves=9
num_cat=0
split_feature=5 1 6 2 3 5 4 7
split_gain=44.9917 22.2047 16.6679 16.0517 10.6599 9.01611 2.92282 1.09584
threshold=17.530000000000005 0.45000000000000007 62.000000000000007 6.6500000000000012 3.5000000000000004 13.085714285714287 0.76500000000000068 17.615000000000006
decision_type=2 2 2 2 2 2 2 2
left_child=1 3 4 -1 6 -5 7 -2
right_child=2 -3 -4 5 -6 -7 -8 -9
leaf_value=0.14274874055385589 -0.070563443953340702 -0.027159821774278371 -0.098939995095133793 0.011783971166005359 0.026094633502591599 0.093866741681552457 -0.016711792510909006 -0.039961985647678382
leaf_weight=25 22 28 32 32 38 23 37 25
leaf_count=25 22 28 32 32 38 23 37 25
internal_value=5.31067e-10 0.0494839 -0.034703 0.0763093 -0.017854 0.0461095 -0.0377355 -0.0542861
internal_weight=262 108 154 80 122 55 84 47
internal_count=262 108 154 80 122 55 84 47
is_linear=0
shrinkage=0.1


Tree=6
num_leaves=10
num_cat=0
split_feature=0 3 1 3 2 2 3 2 4
split_gain=37.8874 25.0094 13.7765 7.81217 6.30965 9.3852 9.07516 1.77269 0.509676
threshold=15.750000000000002 3.5000000000000004 4.7000000000000011 1.5000000000000002 13.500000000000002 10.450000000000001 2.5000000000000004 17.400000000000002 -0.70999999999999897
decision_type=2 2 2 2 2 2 2 2 2
left_child=1 3 4 -1 5 -2 -7 -6 -4
right_child=2 -3 8 -5 7 6 -8 -9 -10
leaf_value=0.053548970172802614 -0.03772377330395911 0.12829968394904301 -0.087720250541513611 -0.016463544696350307 -0.021141169010661542 -0.0095213809183665697 0.082383895699273457 -0.057093696917096773 -0.065940121100062421
leaf_weight=30 27 29 22 34 32 21 22 24 21
leaf_count=30 27 29 22 34 32 21 22 24 21
internal_value=2.19678e-10 0.0512624 -0.0282095 0.0163548 -0.0115302 0.00848507 0.0374999 -0.0365494 -0.0770834
internal_weight=262 93 169 64 126 70 43 56 43
internal_count=262 93 169 64 126 70 43 56 43
is_linear=0
shrinkage=0.1


Tree=7
num_leaves=11
num_cat=0
split_feature=2 1 0 7 3 2 5 4 5 1
split_gain=32.4076 21.4528 10.5852 7.6681 3.78656 4.09555 5.18267 2.793 3.04895 2.30662
threshold=6.6500000000000012 4.7000000000000011 21.450000000000003 23.245000000000005 4.5000000000000009 13.500000000000002 13.085714285714287 1.3150000000000015 27.605000000000008 19.850000000000005
decision_type=2 2 2 2 2 2 2 2 2 2
left_child=-1 2 4 7 5 6 -2 8 -4 -3
right_child=1 9 3 -5 -6 -7 -8 -9 -10 -11
leaf_value=0.099690096851052915 0.020460436708078938 -0.052646999637926788 0.00063772483595779961 0.029141110966780355 -0.011147112941200084 0.0034216527700594345 0.083600516132159672 -0.071556970104575165 -0.053918269071727989 -0.096205890476703651
leaf_weight=29 26 31 21 21 22 26 26 20 20 20
leaf_count=29 26 31 21 21 22 26 26 20 20 20
internal_value=1.52151e-10 -0.0124078 0.00365474 -0.0229774 0.0254931 0.0358275 0.0520305 -0.0409199 -0.025975 -0.0697289
internal_weight=262 233 182 82 100 78 52 61 41 51
internal_count=262 233 182 82 100 78 52 61 41 51
is_linear=0
shrinkage=0.1


Tree=8
num_leaves=10
num_cat=0
split_feature=1 2 0 7 4 4 1 4 5
split_gain=26.6941 24.5101 8.57399 6.21116 3.51547 4.14959 2.67705 2.26233 2.46965
threshold=4.7000000000000011 6.6500000000000012 21.450000000000003 23.245000000000005 -1.5650000000000011 0.76500000000000068 19.850000000000005 1.3150000000000015 27.605000000000008
decision_type=2 2 2 2 2 2 2 2 2
left_child=1 -1 4 7 -3 -6 -2 8 -4
right_child=6 2 3 -5 5 -7 -8 -9 -10
leaf_value=0.10708554570491498 -0.044884044564131538 -0.006393630716724899 0.00057395297501768386 0.026226999983191491 0.056825290648983076 0.0082377826911397278 -0.090556977795703084 -0.06440127469599248 -0.048526441268622877
leaf_weight=26 33 29 21 21 39 32 21 20 20
leaf_count=26 33 29 21 21 39 32 21 20 20
internal_value=-1.24147e-10 0.0162638 0.00328926 -0.0206797 0.0229438 0.0349267 -0.0626457 -0.0368279 -0.0233775
internal_weight=262 208 182 82 100 71 54 61 41
internal_count=262 208 182 82 100 71 54 61 41
is_linear=0
shrinkage=0.1


Tree=9
num_leaves=10
num_cat=0
split_feature=0 0 2 3 3 7 4 2 2
split_gain=21.7198 19.2247 11.3413 8.32618 15.892 5.17154 4.56843 1.5779 4.37446
threshold=13.600000000000001 7.6000000000000005 22.550000000000004 3.5000000000000004 4.5000000000000009 10.395000000000001 -0.90999999999999825 13.15 10.850000000000003
decision_type=2 2 2 2 2 2 2 2 2
left_child=1 5 3 6 -5 -1 -2 8 -8
right_child=2 -3 -4 4 -6 -7 7 -9 -10
leaf_value=0.036434810269962661 -0.056920802367456037 0.10401891557849013 -0.087620872188182111 0.07506262203678489 -0.030558015123523515 -0.032131960039789027 0.0037717085182666782 0.0054924073194464046 -0.058973955214023592
leaf_weight=22 33 32 21 28 29 22 25 30 20
leaf_count=22 33 32 21 28 29 22 25 30 20
internal_value=6.18512e-11 0.045043 -0.0184047 -0.00959533 0.0213258 0.00215143 -0.0259148 -0.0122722 -0.0241153
internal_weight=262 76 186 165 57 44 108 75 45
internal_count=262 76 186 165 57 44 108 75 45
is_linear=0
shrinkage=0.1


Tree=10
num_leaves=9
num_cat=0
split_feature=1 2 2 2 3 4 0 1
split_gain=20.3601 18.2778 7.17229 9.77353 11.1425 3.88057 2.17545 2.10485
threshold=4.7000000000000011 6.6500000000000012 13.500000000000002 12.550000000000002 1.5000000000000002 0.70500000000000063 21.450000000000003 19.850000000000005
decision_type=2 2 2 2 2 2 2 2
left_child=1 -1 3 4 -3 -6 -4 -2
right_child=7 2 6 -5 5 -7 -8 -9
leaf_value=0.092633213876531673 -0.038961496587955592 0.057752966082521853 -0.0023815486066300295 0.081688559576869019 -0.038387876799281101 0.010185078557195335 -0.038749685324728493 -0.079460166900285664
leaf_weight=26 33 28 29 20 38 29 38 21
leaf_count=26 33 28 29 20 38 29 38 21
internal_value=-3.12277e-10 0.0142038 0.00299961 0.018152 0.00477591 -0.0173638 -0.0230083 -0.054711
internal_weight=262 208 182 115 95 67 67 54
internal_count=262 208 182 115 95 67 67 54
is_linear=0
shrinkage=0.1


Tree=11
num_leaves=11
num_cat=0
split_feature=1 2 2 2 3 2 4 7 4 3
split_gain=16.4917 14.805 5.80955 7.91656 9.02542 3.53131 2.25543 2.03207 2.06832 1.81718
threshold=4.7000000000000011 6.6500000000000012 13.500000000000002 12.550000000000002 1.5000000000000002 10.850000000000003 0.24000000000000069 13.245000000000003 0.48000000000000048 2.5000000000000004
decision_type=2 2 2 2 2 2 2 2 2 2
left_child=1 -1 3 4 -3 6 -6 -4 -9 -2
right_child=9 2 7 -5 5 -7 -8 8 -10 -11
leaf_value=0.083369891803998217 -0.063873594818693216 0.051977670635096729 -0.045614750649441371 0.073519705124199392 -0.053955445472489705 0.019566297009587289 -0.01005364125967026 0.011523767471468698 -0.031449693459130471 -0.026244045794010164
leaf_weight=26 33 28 22 20 22 20 25 24 21 21
leaf_count=26 33 28 22 20 22 20 25 24 21 21
internal_value=-2.77975e-10 0.0127834 0.00269965 0.0163368 0.00429831 -0.0156274 -0.0306034 -0.0207074 -0.00853051 -0.0492399
internal_weight=262 208 182 115 95 67 47 67 45 54
internal_count=262 208 182 115 95 67 47 67 45 54
is_linear=0
shrinkage=0.1


Tree=12
num_leaves=11
num_cat=0
split_feature=3 3 5 7 5 3 4 0 5 1
split_gain=16.0876 35.951 21.2878 9.34261 6.7372 8.64347 4.59716 3.14178 3.73136 1.07245
threshold=3.5000000000000004 4.5000000000000009 20.300000000000001 8.0300000000000011 16.675000000000001 1.5000000000000002 -0.29500000000000032 19.950000000000003 27.515000000000004 0.65000000000000002
decision_type=2 2 2 2 2 2 2 2 2 2
left_child=3 2 -2 -1 5 -5 -3 -6 9 -9
right_child=1 6 -4 4 7 -7 -8 8 -10 -11
leaf_value=-0.07674526846765177 0.16571634649501549 0.0058570083044469359 0.024650820102542641 0.057137170318385659 -0.057562117684971208 -0.02148719959443918 -0.059697120499027811 -0.011795326189271042 -0.046129593968391419 0.017708836563608863
leaf_weight=23 23 20 20 29 22 27 23 28 25 22
leaf_count=23 23 20 20 29 22 27 23 28 25 22
internal_value=-9.81088e-11 0.0354488 0.100104 -0.0173216 -0.00838861 0.019229 -0.0292068 -0.0243328 -0.0145855 0.00118651
internal_weight=262 86 43 176 153 56 43 97 75 50
internal_count=262 86 43 176 153 56 43 97 75 50
is_linear=0
shrinkage=0.1


Tree=13
num_leaves=11
num_cat=0
split_feature=3 3 5 7 5 3 4 0 5 1
split_gain=13.0309 29.1203 17.2431 7.56751 5.47294 6.99751 3.7237 2.7749 3.0224 0.868685
threshold=3.5000000000000004 4.5000000000000009 20.300000000000001 8.0300000000000011 17.050000000000001 1.5000000000000002 -0.29500000000000032 19.950000000000003 27.515000000000004 0.65000000000000002
decision_type=2 2 2 2 2 2 2 2 2 2
left_child=3 2 -2 -1 5 -5 -3 -6 9 -9
right_child=1 6 -4 4 7 -7 -8 8 -10 -11
leaf_value=-0.069070741866269839 0.14914471468199855 0.0052713074535131457 0.022185738943517209 0.051423452428445739 -0.054253228505452479 -0.018662539478724025 -0.053727407777762942 -0.010615793322878224 -0.041516634427011014 0.015937953577800233
leaf_weight=23 23 20 20 29 21 28 23 28 25 22
leaf_count=23 23 20 20 29 21 28 23 28 25 22
internal_value=1.72579e-10 0.0319039 0.090094 -0.0155894 -0.00754975 0.0169952 -0.0262861 -0.0221233 -0.013127 0.00106786
internal_weight=262 86 43 176 153 57 43 96 75 50
internal_count=262 86 43 176 153 57 43 96 75 50
is_linear=0
shrinkage=0.1


Tree=14
num_leaves=10
num_cat=0
split_feature=1 2 2 2 3 4 7 4 1
split_gain=11.4646 9.00858 4.26885 5.3574 6.25329 2.89587 2.04167 1.74712 1.34974
threshold=4.7000000000000011 6.6500000000000012 13.500000000000002 12.550000000000002 1.5000000000000002 0.24000000000000069 13.245000000000003 0.48000000000000048 19.850000000000005
decision_type=2 2 2 2 2 2 2 2 2
left_child=1 -1 3 4 -3 -6 -4 -8 -2
right_child=8 2 6 -5 5 -7 7 -9 -10
leaf_value=0.06571961916410006 -0.028442849613951916 0.044266299584082201 -0.042238107560710475 0.061523234993219378 -0.033749238706514008 0.0078722988228712761 0.013364993889505664 -0.026130923096622738 -0.060873528623155183
leaf_weight=26 33 28 22 20 32 35 24 21 21
leaf_count=26 33 28 22 20 32 35 24 21 21
internal_value=-1.13305e-10 0.0106585 0.00279257 0.0144824 0.00457907 -0.0120066 -0.0172721 -0.00506643 -0.0410548
internal_weight=262 208 182 115 95 67 67 45 54
internal_count=262 208 182 115 95 67 67 45 54
is_linear=0
shrinkage=0.1


Tree=15
num_leaves=11
num_cat=0
split_feature=3 3 5 7 3 5 4 4 4 1
split_gain=10.6801 23.3729 13.0469 5.25751 4.21282 6.44098 3.08378 2.88652 6.92255 2.51131
threshold=3.5000000000000004 4.5000000000000009 20.300000000000001 8.0300000000000011 1.5000000000000002 13.840000000000002 -0.29500000000000032 0.24000000000000069 1.1950000000000005 1.0000000180025095e-35
decision_type=2 2 2 2 2 2 2 2 2 2
left_child=3 2 -2 -1 5 -5 -3 -6 -9 -7
right_child=1 6 -4 4 7 9 -8 8 -10 -11
leaf_value=-0.058690808112125681 0.13238080252042933 0.0054688930232077845 0.021945349127054217 0.05103651714324952 -0.046637868089601402 -0.038601016402244573 -0.04822154899492212 0.029870506174241501 -0.046903179739804374 0.0074600368995091015
leaf_weight=23 23 20 20 25 32 20 23 24 23 29
leaf_count=23 23 20 20 25 32 20 23 24 23 29
internal_value=-2.50604e-11 0.0288831 0.0810155 -0.0141133 -0.00741215 0.00973289 -0.0232493 -0.0234721 -0.0076996 -0.0113404
internal_weight=262 86 43 176 153 74 43 79 47 49
internal_count=262 86 43 176 153 74 43 79 47 49
is_linear=0
shrinkage=0.1


Tree=16
num_leaves=10
num_cat=0
split_feature=1 3 3 4 6 7 2 2 1
split_gain=8.97199 7.40822 16.6514 3.03453 3.2118 2.95411 2.96051 2.13667 0.823139
threshold=0.75000000000000011 3.5000000000000004 4.5000000000000009 1.0000000180025095e-35 62.000000000000007 12.285000000000002 14.550000000000002 7.7500000000000009 2.7500000000000004
decision_type=2 2 2 2 2 2 2 2 2
left_child=1 5 -3 4 -2 7 -7 -1 -5
right_child=3 2 -4 8 -6 6 -8 -9 -10
leaf_value=0.036626038227516873 0.013916612903196965 0.10274227591088186 -0.0065961113820473365 -0.028430013861507175 -0.032382251887485898 -0.034346853994897439 0.013146557339600155 -0.0062605259319146473 -0.056169086174391536
leaf_weight=26 31 26 30 20 29 35 21 21 23
leaf_count=26 31 26 30 20 29 35 21 21 23
internal_value=1.21747e-10 0.0148941 0.0441681 -0.0229918 -0.00846117 -0.00102191 -0.0165368 0.017464 -0.0432672
internal_weight=262 159 56 103 60 103 56 47 43
internal_count=262 159 56 103 60 103 56 47 43
is_linear=0
shrinkage=0.1


Tree=17
num_leaves=10
num_cat=0
split_feature=1 3 3 4 4 7 2 2 4
split_gain=7.26731 6.00066 13.4877 2.45797 3.08161 2.39283 2.39801 1.7307 0.71858
threshold=0.75000000000000011 3.5000000000000004 4.5000000000000009 1.0000000180025095e-35 -1.2550000000000006 12.285000000000002 14.550000000000002 7.7500000000000009 1.5349999999999986
decision_type=2 2 2 2 2 2 2 2 2
left_child=1 5 -3 4 -2 7 -7 -1 -5
right_child=3 2 -4 8 -6 6 -8 -9 -10
leaf_value=0.032963435007975654 -0.024244981306867724 0.092468049090642199 -0.0059365013490120574 -0.052171846284043227 0.023269094509028254 -0.030912168292062628 0.011831901470820111 -0.0056344740447543916 -0.026310527189211414
leaf_weight=26 39 26 30 21 21 35 21 21 22
leaf_count=26 39 26 30 21 21 35 21 21 22
internal_value=-9.38432e-11 0.0134047 0.0397513 -0.0206927 -0.00761505 -0.000919715 -0.0148831 0.0157176 -0.0389405
internal_weight=262 159 56 103 60 103 56 47 43
internal_count=262 159 56 103 60 103 56 47 43
is_linear=0
shrinkage=0.1


Tree=18
num_leaves=10
num_cat=0
split_feature=2 3 3 1 3 4 3 7 2
split_gain=6.61004 7.28166 15.8789 3.68899 3.25766 4.61141 2.53276 1.47362 0.580434
threshold=17.400000000000002 3.5000000000000004 4.5000000000000009 4.7000000000000011 1.5000000000000002 0.24000000000000069 1.0000000180025095e-35 13.245000000000003 10.600000000000001
decision_type=2 2 2 2 2 2 2 2 2
left_child=1 3 -3 4 6 -6 -1 -2 -7
right_child=7 2 -4 -5 5 8 -8 -9 -10
leaf_value=-0.0044831891699383657 -0.054793735380683634 0.08015506193041802 -0.012524277903139591 -0.039333052891823983 -0.048274525410185259 0.019217735193669799 0.039100865460932256 -0.017759314399551262 -0.0048744694143533704
leaf_weight=24 21 36 38 27 24 20 30 22 20
leaf_count=24 21 36 38 27 24 20 30 22 20
internal_value=4.12341e-11 0.00703823 0.032563 -0.00598818 0.00164158 -0.0136207 0.0197302 -0.0358459 0.00717163
internal_weight=262 219 74 145 118 64 54 43 40
internal_count=262 219 74 145 118 64 54 43 40
is_linear=0
shrinkage=0.1


Tree=19
num_leaves=11
num_cat=0
split_feature=0 0 7 7 2 2 5 5 0 3
split_gain=5.66301 9.05764 14.714 4.95525 3.5384 4.54656 2.1988 3.26858 3.30028 2.92984
threshold=15.750000000000002 7.6000000000000005 10.905000000000003 10.395000000000001 22.550000000000004 10.250000000000002 27.740000000000006 24.475000000000005 21.450000000000003 2.5000000000000004
decision_type=2 2 2 2 2 2 2 2 2 2
left_child=1 3 -3 -1 5 -2 7 8 9 -7
right_child=4 2 -4 -5 -6 6 -8 -9 -10 -11
leaf_value=0.020443974977189847 -0.035996637829403218 -0.016594270430505275 0.094899126489100788 -0.046673599258065225 -0.050400768537074328 -0.010693605515089903 -0.023904314467852766 0.042091531872749333 -0.033072349180777866 0.040915397707034243
leaf_weight=22 37 20 29 22 20 22 22 25 21 22
leaf_count=22 37 20 29 22 20 22 22 25 21 22
internal_value=1.10372e-10 0.0198187 0.0493916 -0.0131148 -0.0109061 -0.00560485 0.0044353 0.0113628 -0.000455999 0.0151109
internal_weight=262 93 49 44 169 149 112 90 65 44
internal_count=262 93 49 44 169 149 112 90 65 44
is_linear=0
shrinkage=0.1


Tree=20
num_leaves=11
num_cat=0
split_feature=1 2 3 3 3 4 4 7 4 1
split_gain=4.88831 4.81053 7.1568 17.7195 3.62958 4.61229 4.47304 1.26398 1.26937 1.0002
threshold=4.7000000000000011 13.500000000000002 3.5000000000000004 4.5000000000000009 1.5000000000000002 0.094999999999997989 0.55000000000000082 13.245000000000003 0.48000000000000048 19.850000000000005
decision_type=2 2 2 2 2 2 2 2 2 2
left_child=1 2 4 -4 5 -1 -6 -3 -9 -2
right_child=9 7 3 -5 6 -7 -8 8 -10 -11
leaf_value=0.056441043242812163 -0.015951208493700533 -0.034745761945272201 0.11246518052142601 -0.0050691094731205501 -0.047722245573997499 -0.010659405145616759 0.013384376612046493 0.010212423326447607 -0.023453091830015184 -0.043868544130098254
leaf_weight=20 33 22 23 29 25 21 23 24 21 21
leaf_count=20 33 22 23 29 25 21 23 24 21 21
internal_value=7.01602e-11 0.00695976 0.0174429 0.0469172 0.000221999 0.0220725 -0.018442 -0.0151018 -0.00549815 -0.026808
internal_weight=262 208 141 52 89 41 48 67 45 54
internal_count=262 208 141 52 89 41 48 67 45 54
is_linear=0
shrinkage=0.1


Tree=21
num_leaves=10
num_cat=0
split_feature=2 3 3 2 5 0 7 2 7
split_gain=4.24927 4.28261 10.5029 2.78784 5.91079 1.89256 2.25581 1.28096 0.81123
threshold=17.400000000000002 3.5000000000000004 4.5000000000000009 6.8500000000000005 14.835000000000001 19.950000000000003 22.220000000000002 12.350000000000003 13.245000000000003
decision_type=2 2 2 2 2 2 2 2 2
left_child=1 3 -3 -1 -5 -6 7 -7 -2
right_child=8 2 -4 4 5 6 -8 -9 -10
leaf_value=-0.037133060734380378 -0.042799020682771999 0.063924135816180047 -0.011450898696325328 0.036984464980881003 -0.036030191245178388 -0.030681040987372399 0.024772856496274472 0.0032727908343076709 -0.015321004593914207
leaf_weight=22 21 36 38 34 24 25 20 20 22
leaf_count=22 21 36 38 34 24 25 20 20 22
internal_value=3.34139e-11 0.00564311 0.025218 -0.00434685 0.00151735 -0.0120319 -0.00317097 -0.0155904 -0.0287405
internal_weight=262 219 74 145 123 89 65 45 43
internal_count=262 219 74 145 123 89 65 45 43
is_linear=0
shrinkage=0.1


Tree=22
num_leaves=10
num_cat=0
split_feature=0 3 4 7 4 1 4 3 5
split_gain=4.01254 7.81143 8.02069 3.3088 2.90125 3.92879 7.0956 1.78291 0.270307
threshold=23.700000000000006 3.5000000000000004 -1.1350000000000005 22.460000000000004 1.5699999999999983 0.75000000000000011 0.30499999999999977 2.5000000000000004 12.58
decision_type=2 2 2 2 2 2 2 2 2
left_child=1 4 -3 7 5 6 8 -2 -1
right_child=3 2 -4 -5 -6 -7 -8 -9 -10
leaf_value=-0.01601878795772791 -0.012113514619654623 -0.0033866568262545535 0.070879041761950118 0.016798075754195452 -0.039045812536708337 -0.023724197787352099 0.063984415077027831 -0.046347339963540436 0.00042223278433084488
leaf_weight=20 29 26 33 20 22 39 21 32 20
leaf_count=20 29 26 33 20 22 39 21 32 20
internal_value=1.3961e-10 0.0082787 0.0381518 -0.0184993 -0.00616811 0.00106498 0.0169138 -0.0300722 -0.00779828
internal_weight=262 181 59 81 122 100 61 61 40
internal_count=262 181 59 81 122 100 61 61 40
is_linear=0
shrinkage=0.1


Tree=23
num_leaves=11
num_cat=0
split_feature=0 0 7 7 2 2 5 5 0 1
split_gain=3.48933 7.45547 10.0646 3.65184 2.68502 3.17918 1.7344 2.94895 2.42508 1.61668
threshold=15.750000000000002 7.6000000000000005 10.905000000000003 10.395000000000001 10.250000000000002 22.550000000000004 27.740000000000006 24.475000000000005 21.450000000000003 0.8500000000000002
decision_type=2 2 2 2 2 2 2 2 2 2
left_child=1 3 -3 -1 -2 6 7 8 9 -6
right_child=4 2 -4 -5 5 -7 -8 -9 -10 -11
leaf_value=0.014486849917606874 -0.032368518673890345 -0.012186820432543755 0.080024266242980965 -0.043131365694782958 0.031257235874300418 -0.038612746521830561 -0.020498997481031855 0.040010780870914461 -0.028362019643897105 -0.0071192122156000029
leaf_weight=22 37 20 29 22 23 20 22 25 21 21
leaf_count=22 37 20 29 22 23 20 22 25 21 21
internal_value=-8.71115e-11 0.0155569 0.0423871 -0.0143223 -0.00856088 -0.00188752 0.00467055 0.0108231 -0.000402915 0.0129412
internal_weight=262 93 49 44 169 132 112 90 65 44
internal_count=262 93 49 44 169 132 112 90 65 44
is_linear=0
shrinkage=0.1


Tree=24
num_leaves=9
num_cat=0
split_feature=2 5 2 0 7 5 5 1
split_gain=3.30254 7.84693 3.61911 3.72148 2.3101 3.68708 2.07888 1.67558
threshold=8.0500000000000025 7.0600000000000014 8.9500000000000011 13.600000000000001 13.245000000000003 19.735000000000003 27.345000000000002 1.0000000180025095e-35
decision_type=2 2 2 2 2 2 2 2
left_child=1 -1 -2 -4 5 -5 7 -6
right_child=2 -3 3 4 6 -7 -8 -9
leaf_value=-0.013907442033911747 -0.041572676569223407 0.060402148575694474 0.037565116008574317 -0.052328987295428911 -0.0028738366774259472 0.00025722577857474485 -0.019826018313566843 0.027265392499310634
leaf_weight=30 25 27 22 24 39 30 30 35
leaf_count=30 25 27 22 24 39 30 30 35
internal_value=9.31323e-11 0.0212918 -0.00592017 -0.000968432 -0.00633386 -0.0231144 0.00237912 0.0113812
internal_weight=262 57 205 180 158 54 104 74
internal_count=262 57 205 180 158 54 104 74
is_linear=0
shrinkage=0.1


Tree=25
num_leaves=10
num_cat=0
split_feature=1 7 7 5 5 4 4 4 3
split_gain=2.74208 5.54317 6.31698 4.73976 4.44786 2.17948 1.92014 3.19124 3.30093
threshold=0.75000000000000011 11.180000000000001 10.135000000000002 13.085714285714287 17.720000000000002 0.70500000000000063 0.41500000000000009 -1.2049999999999998 2.5000000000000004
decision_type=2 2 2 2 2 2 2 2 2
left_child=1 2 -1 -3 -5 -6 7 8 -2
right_child=6 3 -4 4 5 -7 -8 -9 -10
leaf_value=-0.0011940046613428581 -0.048298808112740517 -0.048122434467077257 0.071423527866601944 0.046007113495752927 -0.024622875232906904 0.010682024033222763 -0.030567884930458505 0.026689617165053886 0.0084668141612339581
leaf_weight=23 20 20 25 21 34 36 38 24 21
leaf_count=23 20 20 25 21 34 36 38 24 21
internal_value=4.02122e-11 0.00823397 0.0366276 -0.00404436 0.00564313 -0.00646607 -0.0127107 -0.00227111 -0.0192237
internal_weight=262 159 48 111 91 70 103 65 41
internal_count=262 159 48 111 91 70 103 65 41
is_linear=0
shrinkage=0.1


Tree=26
num_leaves=10
num_cat=0
split_feature=0 2 3 2 2 5 1 2 0
split_gain=2.66904 7.8933 5.13944 2.11545 2.50288 1.71821 1.61567 1.53431 0.348685
threshold=5.3500000000000005 8.0500000000000025 2.5000000000000004 9.2500000000000018 17.400000000000002 26.495000000000005 0.8500000000000002 12.250000000000002 22.200000000000006
decision_type=2 2 2 2 2 2 2 2 2
left_child=-1 2 -2 -3 5 6 7 -5 -6
right_child=1 3 -4 4 8 -7 -8 -9 -10
leaf_value=-0.034192130466302234 0.010074091542628595 -0.032148905671559848 0.078711967132985602 0.044312964557182227 -0.014008996214555659 -0.0141786205497655 -0.0040199002597128622 0.010470613645943436 -0.032062928881496193
leaf_weight=21 24 26 20 21 23 33 37 37 20
leaf_count=21 24 26 20 21 23 33 37 37 20
internal_value=-2.49182e-10 0.0029794 0.0412731 -0.00557352 -0.00153281 0.00547933 0.0123079 0.0227239 -0.0224062
internal_weight=262 241 44 197 171 128 95 58 43
internal_count=262 241 44 197 171 128 95 58 43
is_linear=0
shrinkage=0.1


Tree=27
num_leaves=11
num_cat=0
split_feature=4 7 2 3 0 4 5 7 3 1
split_gain=2.4551 5.30253 4.69699 3.28208 1.54282 3.15833 6.72887 6.17648 3.2189 0.849337
threshold=1.1950000000000005 23.080000000000002 6.6500000000000012 2.5000000000000004 24.200000000000006 -1.0349999999999964 13.348750000000003 11.845000000000001 2.5000000000000004 1.0000000000000002
decision_type=2 2 2 2 2 2 2 2 2 2
left_child=2 3 -1 -2 5 6 -4 -7 -8 -6
right_child=1 -3 4 -5 9 7 8 -9 -10 -11
leaf_value=0.047555602528154856 -0.010229805483003007 0.028088041816261556 -0.055115726692158556 -0.058831287827342753 -0.031154566099867227 0.068084592083469037 -0.012720053740169691 -0.0031941246000989792 0.040783777287949553 -0.0029775293624919397
leaf_weight=24 33 21 21 24 20 20 23 31 22 23
leaf_count=24 33 21 21 24 20 20 23 31 22 23
internal_value=-2.46072e-10 -0.0148678 0.00630264 -0.0306936 0.000114694 0.00606774 -0.00837498 0.0247583 0.0134374 -0.0160831
internal_weight=262 78 184 57 160 117 66 51 45 43
internal_count=262 78 184 57 160 117 66 51 45 43
is_linear=0
shrinkage=0.1


Tree=28
num_leaves=11
num_cat=0
split_feature=0 2 3 2 2 5 5 4 2 7
split_gain=2.23343 5.8553 4.38214 1.61663 1.84267 1.22823 1.81808 1.52032 4.49989 0.309099
threshold=5.3500000000000005 8.0500000000000025 2.5000000000000004 9.2500000000000018 17.400000000000002 26.610000000000003 22.885000000000002 -1.1350000000000005 13.15 13.245000000000003
decision_type=2 2 2 2 2 2 2 2 2 2
left_child=-1 2 -2 -3 5 6 7 -5 -9 -6
right_child=1 3 -4 4 9 -7 -8 8 -10 -11
leaf_value=-0.031277640731561751 0.00689824772416614 -0.027872842886986646 0.070277765728533267 -0.017819338757544757 -0.027696672010989416 -0.012796713169664145 0.035643367249179971 -0.013589532621975604 0.045640200174049191 -0.01073524903675372
leaf_weight=21 24 26 20 24 21 30 22 29 23 22
leaf_count=21 24 26 20 24 21 30 22 29 23 22
internal_value=4.07009e-11 0.00272544 0.0357071 -0.00464103 -0.00110871 0.00490794 0.0103277 0.00299953 0.0126082 -0.0190187
internal_weight=262 241 44 197 171 128 98 76 52 43
internal_count=262 241 44 197 171 128 98 76 52 43
is_linear=0
shrinkage=0.1


Tree=29
num_leaves=11
num_cat=0
split_feature=4 7 7 4 3 4 4 5 5 7
split_gain=2.23769 4.63551 3.74849 11.5082 6.09281 4.50864 4.19428 4.96038 2.89188 1.15015
threshold=1.5699999999999983 12.285000000000002 11.665000000000001 -1.1350000000000005 2.5000000000000004 -2.1749999999999994 -1.7450000000000008 17.720000000000002 26.345000000000006 23.245000000000005
decision_type=2 2 2 2 2 2 2 2 2 2
left_child=2 -2 3 5 -5 -1 -4 -8 -9 -3
right_child=1 9 6 4 -6 -7 7 8 -10 -11
leaf_value=0.014383990705634156 -0.054786314471580444 -0.013022501292553815 0.03305850572884083 0.024041736074562732 0.095786937531083832 -0.04757467657327652 -0.061344338872586383 0.019016716218200225 -0.023968812045367327 0.020111592654138807
leaf_weight=24 21 22 20 29 20 23 20 29 34 20
leaf_count=24 21 22 20 29 20 23 20 29 34 20
internal_value=1.19037e-10 -0.016425 0.00519988 0.0194161 0.0533255 -0.0159362 -0.00805021 -0.0179559 -0.00418182 0.00275564
internal_weight=262 63 199 96 49 47 103 83 63 42
internal_count=262 63 199 96 49 47 103 83 63 42
is_linear=0
shrinkage=0.1


Tree=30
num_leaves=10
num_cat=0
split_feature=4 3 4 1 4 7 2 4 2
split_gain=1.94325 3.89082 7.81196 2.25239 1.45919 2.32569 1.69331 1.14225 3.2913
threshold=0.41500000000000009 3.5000000000000004 -1.2049999999999998 2.7500000000000004 -0.70999999999999897 9.3800000000000008 13.15 1.5349999999999986 10.250000000000002
decision_type=2 2 2 2 2 2 2 2 2
left_child=1 4 -3 7 5 -1 -7 -2 -9
right_child=3 2 -4 -5 -6 6 -8 8 -10
leaf_value=-0.041367059256881479 0.0099073932844942481 -0.003602715072532495 0.0748503075065938 -0.039392968107547083 0.01306083785602823 0.0176678533355395 -0.021730162575840952 -0.043499836875569256 0.0071425602517344745
leaf_weight=20 39 30 22 21 32 24 20 21 33
leaf_count=20 39 30 22 21 32 24 20 21 33
internal_value=3.4167e-10 0.00755849 0.0295889 -0.00981277 -0.00437468 -0.0130924 -0.000240336 -0.00313337 -0.0125517
internal_weight=262 148 52 114 96 64 44 93 54
internal_count=262 148 52 114 96 64 44 93 54
is_linear=0
shrinkage=0.1


Tree=31
num_leaves=10
num_cat=0
split_feature=3 3 5 2 0 2 0 2 2
split_gain=2.23082 6.93419 4.6348 3.40562 4.06743 2.40849 1.85836 1.36445 1.87327
threshold=4.5000000000000009 3.5000000000000004 20.300000000000001 6.8500000000000005 13.600000000000001 11.65 19.650000000000002 14.550000000000002 10.850000000000003
decision_type=2 2 2 2 2 2 2 2 2
left_child=1 3 -3 -1 -5 -2 -6 8 -8
right_child=5 2 -4 4 6 -7 7 -9 -10
leaf_value=-0.041510231115601287 -0.046203961223363878 0.070703282077675275 0.0048812931682914494 0.032923198560808574 -0.025991314975544813 0.001245073921271124 0.0092147715458715408 0.016916222104464397 -0.028392342209386141
leaf_weight=22 20 23 20 31 38 23 27 32 26
leaf_count=22 20 23 20 31 38 23 27 32 26
internal_value=-1.13424e-10 0.00408878 0.0400884 -0.00470658 0.000551079 -0.0208242 -0.00760775 0.000610789 -0.009234
internal_weight=262 219 43 176 154 43 123 85 53
internal_count=262 219 43 176 154 43 123 85 53
is_linear=0
shrinkage=0.1


Tree=32
num_leaves=10
num_cat=0
split_feature=0 2 3 5 2 5 5 1 3
split_gain=2.02132 4.46635 2.68198 1.15294 1.68033 2.94836 2.08864 1.65413 1.26394
threshold=5.3500000000000005 8.0500000000000025 2.5000000000000004 27.515000000000004 10.250000000000002 24.475000000000005 20.735000000000003 0.8500000000000002 3.5000000000000004
decision_type=2 2 2 2 2 2 2 2 2
left_child=-1 2 -2 4 -3 6 7 8 -6
right_child=1 3 -4 -5 5 -7 -8 -9 -10
leaf_value=-0.029755424814564842 0.0088604694698005918 -0.022019187958333002 0.058443562313914302 -0.020019176423860096 0.0022821528130564195 0.034741627167050655 -0.031077635412414869 -0.012533042990669077 0.034495728409716063
leaf_weight=21 24 29 20 36 29 26 21 35 21
leaf_count=21 24 29 20 36 29 26 21 35 21
internal_value=-8.93554e-11 0.0025928 0.0313982 -0.00384091 -0.000223405 0.00456506 -0.00283674 0.00414043 0.0158119
internal_weight=262 241 44 197 161 132 106 85 50
internal_count=262 241 44 197 161 132 106 85 50
is_linear=0
shrinkage=0.1


Tree=33
num_leaves=11
num_cat=0
split_feature=3 3 2 2 0 2 4 7 2 1
split_gain=1.90701 5.33169 3.77634 3.04278 3.27314 1.75682 1.53493 1.89312 2.51441 0.49415
threshold=4.5000000000000009 3.5000000000000004 11.500000000000002 6.8500000000000005 13.600000000000001 11.65 1.277500000000001 13.245000000000003 13.950000000000001 0.35000000000000003
decision_type=2 2 2 2 2 2 2 2 2 2
left_child=1 3 -3 -1 -5 -2 7 -6 -9 -8
right_child=5 2 -4 4 6 -7 9 8 -10 -11
leaf_value=-0.038719886609099134 -0.04092965613584966 0.067127070873975764 0.007712804955308853 0.030077507743431677 -0.035658122925087812 -0.00040497951735944855 -0.0013274945914745332 -0.02187465288644207 0.024214870242867621 0.01948042218351648
leaf_weight=22 20 20 23 31 28 23 25 29 20 21
leaf_count=22 20 20 23 31 28 23 25 29 20 21
internal_value=1.70979e-10 0.0037804 0.0353473 -0.00393198 0.00103772 -0.0192537 -0.00628125 -0.0149155 -0.0030626 0.00817177
internal_weight=262 219 43 176 154 43 123 77 49 46
internal_count=262 219 43 176 154 43 123 77 49 46
is_linear=0
shrinkage=0.1


Tree=34
num_leaves=11
num_cat=0
split_feature=0 2 2 3 5 2 5 5 1 0
split_gain=1.71351 3.59103 2.17523 1.2103 2.11209 1.85204 1.64361 3.79328 2.79282 0.690716
threshold=5.3500000000000005 8.0500000000000025 6.4500000000000011 1.5000000000000002 19.095000000000002 10.600000000000001 26.495000000000005 20.055000000000003 0.45000000000000007 25.400000000000002
decision_type=2 2 2 2 2 2 2 2 2 2
left_child=-1 2 -2 4 -3 -5 7 8 -7 -6
right_child=1 3 -4 5 9 6 -8 -9 -10 -11
leaf_value=-0.027396287981952941 0.0038596310466527937 0.033880607783794404 0.048513387539424004 -0.030262469464252074 -0.016637268864914127 0.0088310240929865332 -0.025169221016888815 0.029763087098870208 -0.042263818960636856 0.0084470637830062999
leaf_weight=21 20 21 24 31 23 23 24 34 20 21
leaf_count=21 20 21 24 31 23 23 24 34 20 21
internal_value=2.73887e-10 0.00238723 0.0282162 -0.00338168 0.00778806 -0.00888194 -0.0023196 0.00480237 -0.014934 -0.0046652
internal_weight=262 241 44 197 65 132 101 77 43 44
internal_count=262 241 44 197 65 132 101 77 43 44
is_linear=0
shrinkage=0.1


Tree=35
num_leaves=9
num_cat=0
split_feature=4 4 7 5 6 1 2 2
split_gain=1.78519 3.14443 6.44821 3.9624 3.75411 1.60755 1.14025 1.41991
threshold=0.41500000000000009 -1.0349999999999964 11.180000000000001 13.348750000000003 62.000000000000007 2.7500000000000004 13.500000000000002 10.250000000000002
decision_type=2 2 2 2 2 2 2 2
left_child=1 3 -3 -1 -5 6 7 -2
right_child=5 2 -4 4 -6 -7 -8 -9
leaf_value=-0.03694895125097699 -0.0092244648614100058 0.063618546485900887 -0.0017739718142700822 0.027884062485597834 -0.02564144326373935 -0.034394986089318992 -0.019421699748284393 0.021297300833760316
leaf_weight=27 35 25 38 38 20 21 31 27
leaf_count=27 35 25 38 38 20 21 31 27
internal_value=4.15896e-11 0.00724457 0.0241754 -0.00530419 0.00942699 -0.00940523 -0.00376239 0.00406727
internal_weight=262 148 63 85 58 114 93 62
internal_count=262 148 63 85 58 114 93 62
is_linear=0
shrinkage=0.1


Tree=36
num_leaves=10
num_cat=0
split_feature=3 3 5 2 0 4 0 1 4
split_gain=1.48278 4.3747 3.09829 2.51404 2.46841 1.35412 1.33791 1.23181 1.97224
threshold=4.5000000000000009 3.5000000000000004 20.300000000000001 6.8500000000000005 13.600000000000001 -0.29500000000000032 19.650000000000002 1.5000000000000002 0.76500000000000068
decision_type=2 2 2 2 2 2 2 2 2
left_child=1 3 -3 -1 -5 -2 -6 8 -8
right_child=5 2 -4 4 6 -7 7 -9 -10
leaf_value=-0.035273758084936574 0.0020526204910129311 0.056958396150730554 0.0031418265216052533 0.026083331795469407 -0.021089446289758937 -0.03352556581527967 -0.026629914819366402 0.018210773336990126 0.010927226034731702
leaf_weight=22 20 23 20 31 38 23 27 29 29
leaf_count=22 20 23 20 31 38 23 27 29 29
internal_value=-1.20592e-10 0.0033335 0.0319274 -0.00365252 0.000864796 -0.0169776 -0.00549109 0.00148229 -0.00718068
internal_weight=262 219 43 176 154 43 123 85 56
internal_count=262 219 43 176 154 43 123 85 56
is_linear=0
shrinkage=0.1


Tree=37
num_leaves=10
num_cat=0
split_feature=0 2 3 4 4 0 1 4 3
split_gain=1.47036 2.80409 1.85153 1.06805 2.79869 2.90305 1.65051 1.21586 1.87284
threshold=5.3500000000000005 8.0500000000000025 2.5000000000000004 0.41500000000000009 -0.70999999999999897 15.550000000000002 5.8000000000000016 1.277500000000001 2.5000000000000004
decision_type=2 2 2 2 2 2 2 2 2
left_child=-1 2 -2 4 5 -3 -7 -5 -9
right_child=1 3 -4 7 -6 6 -8 8 -10
leaf_value=-0.025378195027865116 0.0063093657139688735 -0.039106684699654587 0.047506907060742377 -0.027696679538950837 0.02923008141599806 0.019439423683974329 -0.016423021647192181 0.011031933668020525 -0.024209878236055374
leaf_weight=21 24 20 20 29 31 33 21 38 25
leaf_count=21 24 20 20 29 31 33 21 38 25
internal_value=-1.33522e-11 0.00221138 0.0250355 -0.0028864 0.00400587 -0.00656103 0.00549292 -0.0107526 -0.00295291
internal_weight=262 241 44 197 105 74 54 92 63
internal_count=262 241 44 197 105 74 54 92 63
is_linear=0
shrinkage=0.1


end of trees

feature_importances:
wind_speed_10m_mean=68
weekday=66
temp_diff=55
temp_10d_avg=43
precipitation_sum=42
temperature_2m_mean=38
shortwave_radiation_sum=37
weather_code=4

parameters:
[boosting: gbdt]
[objective: regression]
[metric: rmse]
[tree_learner: serial]
[device_type: cpu]
[data_sample_strategy: bagging]
[data: ]
[valid: ]
[num_iterations: 100]
[learning_rate: 0.1]
[num_leaves: 31]
[num_threads: 0]
[seed: 42]
[deterministic: 0]
[force_col_wise: 0]
[force_row_wise: 0]
[histogram_pool_size: -1]
[max_depth: -1]
[min_data_in_leaf: 20]
[min_sum_hessian_in_leaf: 0.001]
[bagging_fraction: 1]
[pos_bagging_fraction: 1]
[neg_bagging_fraction: 1]
[bagging_freq: 0]
[bagging_seed: 400]
[bagging_by_query: 0]
[feature_fraction: 1]
[feature_fraction_bynode: 1]
[feature_fraction_seed: 30056]
[extra_trees: 0]
[extra_seed: 12879]
[early_stopping_round: 0]
[early_stopping_min_delta: 0]
[first_metric_only: 0]
[max_delta_step: 0]
[lambda_l1: 0]
[lambda_l2: 0]
[linear_lambda: 0]
[min_gain_to_split: 0]
[drop_rate: 0.1]
[max_drop: 50]
[skip_drop: 0.5]
[xgboost_dart_mode: 0]
[uniform_drop: 0]
[drop_seed: 17869]
[top_rate: 0.2]
[other_rate: 0.1]
[min_data_per_group: 100]
[max_cat_threshold: 32]
[cat_l2: 10]
[cat_smooth: 10]
[max_cat_to_onehot: 4]
[top_k: 20]
[monotone_constraints: ]
[monotone_constraints_method: basic]
[monotone_penalty: 0]
[feature_contri: ]
[forcedsplits_filename: ]
[refit_decay_rate: 0.9]
[cegb_tradeoff: 1]
[cegb_penalty_split: 0]
[cegb_penalty_feature_lazy: ]
[cegb_penalty_feature_coupled: ]
[path_smooth: 0]
[interaction_constraints: ]
[verbosity: -1]
[saved_feature_importance_type: 0]
[use_quantized_grad: 0]
[num_grad_quant_bins: 4]
[quant_train_renew_leaf: 0]
[stochastic_rounding: 1]
[linear_tree: 0]
[max_bin: 255]
[max_bin_by_feature: ]
[min_data_in_bin: 3]
[bin_construct_sample_cnt: 200000]
[data_random_seed: 175]
[is_enable_sparse: 1]
[enable_bundle: 1]
[use_missing: 1]
[zero_as_missing: 0]
[feature_pre_filter: 1]
[pre_partition: 0]
[two_round: 0]
[header: 0]
[label_column: ]
[weight_column: ]
[group_column: ]
[ignore_column: ]
[categorical_feature: ]
[forcedbins_filename: ]
[precise_float_parser: 0]
[parser_config_file: ]
[objective_seed: 16083]
[num_class: 1]
[is_unbalance: 0]
[scale_pos_weight: 1]
[sigmoid: 1]
[boost_from_average: 1]
[reg_sqrt: 0]
[alpha: 0.9]
[fair_c: 1]
[poisson_max_delta_step: 0.7]
[tweedie_variance_power: 1.5]
[lambdarank_truncation_level: 30]
[lambdarank_norm: 1]
[label_gain: ]
[lambdarank_position_bias_regularization: 0]
[eval_at: ]
[multi_error_top_k: 1]
[auc_mu_weights: ]
[num_machines: 1]
[local_listen_port: 12400]
[time_out: 120]
[machine_list_filename: ]
[machines: ]
[gpu_platform_id: -1]
[gpu_device_id: -1]
[gpu_use_dp: 0]
[num_gpu: 1]

end of parameters

pandas_categorical:[]
